{
  "value_weights": [
    -0.009083187207579613, 0.09542805701494217, 0.09598736464977264, 0.019567271694540977,
    -0.007205076515674591, -0.0637061670422554, 0.006759977899491787, 0.012378969229757786,
    0.03557605296373367, 0.0692378431558609, -0.026753094047307968, 0.09544077515602112,
    0.05818251892924309, 0.09687718749046326, -0.06838452070951462, 0.08519911766052246,
    0.09037474542856216, 0.07317593693733215, 0.03675379604101181, -0.09932417422533035,
    0.029465116560459137, 0.04627726972103119, 0.011054955422878265, 0.028395503759384155,
    0.08939875662326813, -0.0698554664850235, -0.06579533219337463, 0.03932611271739006,
    0.049042001366615295, -0.06218996271491051, 0.029758119955658913, -0.020119687542319298,
    0.020310673862695694, -0.057348158210515976, -0.03782353550195694, -0.07328010350465775,
    0.0016952354926615953, 0.08797115087509155, -0.084689661860466, -0.0830000564455986,
    0.08483675122261047, 0.04247601702809334, 0.07419775426387787, -0.05768284574151039,
    0.03809651732444763, -0.047781553119421005, 0.00986973475664854, 0.040890928357839584,
    -0.08325523138046265, 0.06849095970392227, 0.03794151544570923, 0.0969017818570137,
    -0.01970665343105793, -0.06149910390377045, -0.060440368950366974, -0.03856178745627403,
    0.052098460495471954, -0.007295295596122742, 0.017696067690849304, 0.07755611091852188,
    0.030014701187610626, 0.021607719361782074, -0.0927942544221878, -0.010587230324745178,
    0.042172305285930634, 0.07673007994890213, 0.03081684559583664, 0.08195098489522934,
    -0.0017332583665847778, 0.051767848432064056, -0.034262098371982574, -0.0638495683670044,
    -0.07240419089794159, 0.013658784329891205, -0.05146129056811333, 0.005620099604129791,
    0.05585021525621414, 0.05360139161348343, 0.03231128305196762, -0.05672309547662735,
    0.0019829124212265015, 0.02552603930234909, 0.03815745562314987, -0.05656273290514946,
    -0.057394493371248245, -0.006000421941280365, 0.025301150977611542, 0.0740460529923439,
    0.05840534716844559, 0.019975759088993073, 0.02893819659948349, -0.03787468746304512,
    0.08854363113641739, 0.0005937069654464722, -0.028452590107917786, -0.08084801584482193,
    0.010814949870109558, -0.0429094098508358, -0.0627126395702362, -0.07470276206731796,
    0.08793850988149643, 0.003068454097956419, 0.07304589450359344, 0.07477284967899323,
    -0.003538362216204405, -0.08174082636833191, 0.0007639973191544414, 0.000988104147836566,
    -0.01824883185327053, 0.045526616275310516, -0.05708164721727371, -0.06762022525072098,
    0.05511917918920517, -0.08732832223176956, 0.010345695540308952, -0.056650903075933456,
    -0.019081050530076027, -0.06904909014701843, 0.04220883175730705, 0.08585327118635178,
    -0.05053294450044632, -0.10125180333852768, -0.058747973293066025, 0.04245966672897339,
    -0.05806045979261398, -0.0691685825586319, -0.03778890520334244, -0.06548966467380524,
    -0.09601567685604095, 0.08899910002946854, -0.04017608240246773, -0.022482946515083313,
    -0.021420706063508987, -0.013836774043738842, -0.036872804164886475, -0.0681147649884224,
    -0.001142030698247254, -0.011106180027127266, -0.08310587704181671, 0.06038660556077957,
    0.07989295572042465, -0.030704079195857048, -0.07156722992658615, 0.03716138005256653,
    -0.039450474083423615, -0.022342367097735405, 0.0017032461473718286, 0.07222729921340942,
    0.017856581136584282, 0.03283386304974556, -0.05061240494251251, 0.08082570880651474,
    -0.03017374500632286, 0.012311539612710476, 0.09001169353723526, 0.052955321967601776,
    0.0751570537686348, 0.061524175107479095, -0.02323249727487564, -0.03233446925878525,
    -0.04617732763290405, -0.03535640239715576, -0.0863388329744339, -0.028000250458717346,
    -0.014433182775974274, -0.004943490028381348, 0.09497848898172379, -0.07624615728855133,
    0.08526355773210526, 0.05281298607587814, 0.07316017895936966, 0.02054150402545929,
    0.07142437249422073, -0.07736703008413315, -0.07885775715112686, 0.08667006343603134,
    -0.07157691568136215, 0.0662764385342598, -0.06904128938913345, -0.046158935874700546,
    0.0514882430434227, -0.017031803727149963, 0.09150529652833939, -0.00410248339176178,
    -0.012160062789916992, -0.062302589416503906, 0.034378476440906525, 0.06126972287893295,
    0.012709617614746094, 0.06853777915239334, -0.002262115478515625, -0.06742747128009796,
    -0.0009470358490943909, 0.02678794413805008, -0.011242866516113281, -0.06960009038448334,
    0.07667609304189682, 0.01603098213672638, -0.07459671795368195, 0.08554180711507797,
    -0.09717229753732681, 0.04744257777929306, 0.008949963375926018, -0.04151129350066185,
    -0.06985192745923996, -0.0768539234995842, -0.012494999915361404, 0.03315751254558563,
    -0.038669124245643616, -0.01518946047872305, 0.03187781199812889, -0.06518754363059998,
    -0.059580713510513306, 0.0788121148943901, -0.08314136415719986, 0.060081057250499725,
    0.06891265511512756, 0.029218239709734917, -0.013020039536058903, -0.004337097518146038,
    0.05041145533323288, -0.012318577617406845, -0.05033661052584648, -0.055670130997896194,
    -0.0749998390674591, -0.08881792426109314, 0.007317923009395599, -0.0559561513364315,
    0.09052660316228867, 0.08517880737781525, 0.056197043508291245, -0.039992980659008026,
    -0.0859336331486702, -0.05675618350505829, 0.047299958765506744, -0.028674714267253876,
    0.05516605079174042, -0.0067563485354185104, 0.024450650438666344, 0.03872537985444069,
    0.03505605086684227, 0.041177477687597275, 0.024446146562695503, -0.010898451320827007,
    0.04180929437279701, 0.010066604241728783, -0.017379118129611015, -0.04573829844594002,
    0.05841389298439026, 0.07184114307165146, -0.007706675212830305, -0.013827468268573284,
    -0.04927438125014305, 0.08819901198148727, 0.06184384599328041, 0.036583997309207916,
    -0.058254506438970566, -0.07815729081630707, 0.07843796163797379, -0.027083948254585266,
    0.04006049782037735, -0.06758755445480347, -0.008161582052707672, 0.07046867161989212,
    0.048268042504787445, 0.05964267998933792, 0.03200390189886093, -0.04026676341891289,
    0.0018346309661865234, -0.07267896831035614, -0.025256142020225525, -0.012505926191806793,
    0.023216329514980316, -0.08223532140254974, -0.09734151512384415, -0.08223513513803482,
    -0.06449691951274872, 0.0010574311017990112, -0.07945569604635239, -0.0795259103178978,
    -0.036279819905757904, 0.029419980943202972, -0.010271511971950531, -0.043187644332647324,
    -0.03970527648925781, -0.032605886459350586, 0.012114867568016052, -0.016769014298915863,
    -0.03178761154413223, -0.0006532520055770874, -0.07007293403148651, 0.020834818482398987,
    -0.047628652304410934, -0.09839228540658951, 0.060263000428676605, 0.07113679498434067,
    -0.06684711575508118, 0.00298164039850235, -0.02400742471218109, -0.003954768180847168,
    0.008309008553624153, 0.06858918815851212, 0.07119126617908478, 0.09769990295171738,
    0.08147022128105164, 0.03180425241589546, 0.07051531225442886, 0.024523768573999405,
    0.055646903812885284, -0.06507645547389984, -0.05593537166714668, 0.008710971102118492,
    -0.020822860300540924, -0.054340533912181854, 0.07720904797315598, -0.03276751935482025,
    -0.06741993874311447, -0.03001575730741024, 0.07788581401109695, -0.011230075731873512,
    0.041330188512802124, 0.04907417297363281, 0.06640098243951797, -0.08933994919061661,
    -0.06841099262237549, 0.04265797138214111, 0.022311389446258545, -0.08273207396268845,
    -0.08641964197158813, -0.04308108612895012, -0.06243313476443291, -0.03057708591222763,
    -0.0953623503446579, 0.09705143421888351, -0.08998372405767441, -0.014289609156548977,
    -0.038934480398893356, 0.014412225224077702, 0.0011996669927611947, -0.03911557048559189,
    0.0983990803360939, -0.016495071351528168, 0.05143517628312111, 0.0615525059401989,
    0.019985252991318703, 0.07219085842370987, 0.09301150590181351, -0.0847744420170784,
    -0.052664682269096375, 0.016342222690582275, 0.0059379409067332745, 0.0336114838719368,
    -0.09799134731292725, 0.010028340853750706, 0.06641212105751038, -0.06287975609302521,
    0.07303034514188766, 0.06601812690496445, 0.09400016814470291, 0.05262679606676102,
    -0.04439418390393257, 0.03106687217950821, -0.07425951957702637, 0.08914918452501297,
    -0.01794619858264923, 0.03096916526556015, -0.01464088261127472, -0.0503033772110939,
    0.08166312426328659, -0.08570712804794312, -0.008576653897762299, 0.0636291578412056,
    -0.09550835192203522, -0.03404984623193741, 0.025108642876148224, 0.07456883043050766,
    0.09806061536073685, -0.0036302655935287476, -0.0749286562204361, -0.09066629409790039,
    -0.04945871978998184, -0.02942545711994171, -0.06563954055309296, 0.07679509371519089,
    0.015623912215232849, 0.01457824558019638, 0.002912476658821106, 0.08634520322084427,
    -0.06527592241764069, 0.021916963160037994, 0.09249895066022873, -0.013243451714515686,
    0.042619429528713226, -0.0945294126868248, -0.013151958584785461, 0.025971196591854095,
    -0.047727156430482864, 0.001038774847984314, 0.05813073366880417, -0.03475268930196762,
    -0.07913108170032501, -0.08051382750272751, -0.09295011311769485, -0.006506495177745819,
    0.0823742002248764, -0.05474637821316719, 0.0635114535689354, 0.012514711357653141,
    -0.009446241892874241, -0.08386965841054916, 0.10265738517045975, 0.08961672335863113,
    0.06305240094661713, 0.08522956073284149, 0.03346152603626251, -0.021316763013601303,
    0.013046832755208015, 0.0077295550145208836, -0.04516368731856346, -0.018184909597039223,
    -0.04768802598118782, 0.0321994386613369, -0.09864290803670883, 0.010606694966554642,
    0.024258743971586227, -0.007040906231850386, -0.018639303743839264, 0.061395227909088135,
    0.034022316336631775, 0.05344222113490105, -0.05341532826423645, 0.010410788469016552,
    0.06833676248788834, -0.059779781848192215, 0.06456542760133743, -0.025509174913167953,
    0.015822645276784897, 0.06612855195999146, -0.09147035330533981, -0.06550075113773346,
    -0.06919600814580917, 0.00016169616719707847, 0.04873938485980034, 0.09033837169408798,
    0.0023008559364825487, -0.0716371014714241, -0.046348679810762405, 0.08938941359519958,
    0.03045930154621601, 0.054316192865371704, 0.0720934048295021, 0.01151277869939804,
    0.027573825791478157, 0.06710907071828842, -0.06329528242349625, -0.0038893595337867737,
    -0.06054138019680977, 0.022113516926765442, 0.050418056547641754, 0.06748171895742416,
    0.0512588694691658, 0.05756203085184097, -0.020403489470481873, 0.09886781126260757,
    0.0692436471581459, -0.011448144912719727, -0.022893503308296204, 0.08972731977701187,
    0.061098210513591766, 0.07953501492738724, 0.02031712234020233, 0.05715356022119522,
    -0.06089059263467789, 0.08577989786863327, -0.004754126071929932, 0.099454365670681,
    0.04624228924512863, -0.039994146674871445, 0.06937039643526077, -0.09177935123443604,
    -0.011941477656364441, 0.09452604502439499, 0.046682365238666534, 0.02597513049840927,
    0.0906376913189888, 0.04730644077062607, -0.07383284717798233, 0.03762442618608475,
    0.016680099070072174, 0.0847262516617775, 0.09544204920530319, -0.08614195883274078,
    -0.07247702777385712, 0.07875508815050125, 0.011620558798313141, -0.02639727294445038,
    0.050223208963871, -0.02446528524160385, 0.028931789100170135, -0.07325257360935211,
    -0.009733954444527626, -0.036013297736644745, 0.04412345588207245, 0.0540221706032753,
    -0.005292375106364489, -0.023060915991663933, 0.003448332194238901, -0.07790554314851761,
    -0.0005237612640485168, -0.04483431205153465, -0.05054336413741112, 0.0888533666729927,
    0.07959199696779251, 0.08489180356264114, -0.08907517790794373, 0.056301020085811615,
    -0.03909345343708992, -0.07250222563743591, 0.009461837820708752, -0.06907063722610474,
    0.006819124333560467, 0.05840452015399933, 0.004622474312782288, 0.045683279633522034,
    0.05718270316720009, 0.0025023994967341423, 0.03142782300710678, -0.03809485211968422,
    0.09891606867313385, -0.020696459338068962, -0.03249270096421242, 0.009644251316785812,
    -0.06393009424209595, 0.08787862211465836, -0.01640573889017105, -0.07930716127157211,
    0.035075824707746506, -0.09144678711891174, -0.051767319440841675, 0.045994095504283905,
    0.08187662810087204, 0.0409107431769371, 0.03813650459051132, -0.086988665163517,
    -0.09358537197113037, -0.060226235538721085, -0.08662554621696472, -0.04321146383881569,
    0.095633864402771, -0.05842423066496849, 0.02008739858865738, 0.0769214853644371,
    0.050486888736486435, -0.040935270488262177, -0.019672317430377007, -0.08787572383880615,
    -0.08092119544744492, 0.038361556828022, 0.005970679223537445, 0.04633665829896927,
    0.08744300156831741, 0.010469779372215271, -0.07670436799526215, -0.09925846010446548,
    -0.0640600323677063, 0.017165377736091614, 0.08329363912343979, -0.08849640935659409,
    -0.031628645956516266, 0.08788161724805832, 0.02696830779314041, 0.07407800108194351,
    -0.09597910940647125, 0.021105661988258362, -0.08007240295410156, 0.05903565138578415,
    0.07748738676309586, 0.08066373318433762, -0.05358470603823662, -0.0004459470510482788,
    0.016216829419136047, 0.030857987701892853, -0.05046751722693443, 0.011355936527252197,
    0.07245201617479324, 0.087404765188694, -0.08233573287725449, 0.055983565747737885,
    0.02587641030550003, -0.07521210610866547, -0.04195427894592285, -0.0905463844537735,
    0.0794367864727974, 0.0028468817472457886, 0.031358502805233, 0.034608714282512665,
    -0.09491299837827682, -0.006989374756813049, -0.016917824745178223, -0.026763714849948883,
    0.09294472634792328, -0.08855713903903961, 0.05705507472157478, -0.013880155980587006,
    -0.027340546250343323, 0.05035020783543587, -0.03170446306467056, -0.05176897719502449,
    -0.01440418604761362, -0.08701302856206894, 0.08003638684749603, 0.056112758815288544,
    -0.09397098422050476, 0.005201517604291439, 0.06788843870162964, -0.05786934867501259,
    0.04223369061946869, -0.018642565235495567, 0.09119649976491928, 0.05668986588716507,
    -0.06418264657258987, -0.074555404484272, 0.08331955224275589, -0.07957403361797333,
    -0.052996523678302765, -0.04549321532249451, -0.015583537518978119, 0.05888615548610687,
    0.03143412247300148, 0.0036101562436670065, 0.06371895968914032, 0.07886086404323578,
    -0.0782679095864296, -0.026016153395175934, 0.05686476081609726, -0.06010887771844864,
    0.010933415964245796, -0.032702669501304626, 0.08661436289548874, -0.06780828535556793,
    0.020155997946858406, 0.02752036042511463, 0.07032082229852676, 0.06915233284235,
    0.07368633151054382, -0.024065405130386353, -0.0778595432639122, -0.07624870538711548,
    -0.011011019349098206, -0.04681530222296715, 0.09338315576314926, -0.002551296027377248,
    -0.01179599016904831, 0.086912140250206, -0.04987771064043045, -0.0859491154551506,
    0.04549657553434372, -0.017220638692378998, 0.04051954299211502, 4.41819429397583e-5,
    0.013964012265205383, -0.069634810090065, -0.03214031457901001, 0.018113277852535248,
    0.018005333840847015, 0.026043303310871124, -0.08654842525720596, -0.026914499700069427,
    -0.023013673722743988, 0.0744081363081932, -0.07267951965332031, -0.026600755751132965,
    0.0015656501054763794, -0.04534199461340904, 0.019129373133182526, -0.039658237248659134,
    -0.01463530957698822, -0.04256566986441612, -0.07849925756454468, 0.08357054740190506,
    -0.09559401124715805, -0.05167151615023613, 0.053390033543109894, 0.005135141313076019,
    0.0834532156586647, -0.03071437031030655, -0.0900028869509697, -0.08031387627124786,
    -0.05545559152960777, -0.05590205267071724, -0.08053555339574814, -0.09198647737503052,
    -0.01750071346759796, 0.01810382306575775, 0.08024170249700546, 0.053043387830257416,
    0.07854891568422318, -0.06553885340690613, 0.039970763027668, 0.028975538909435272,
    -0.028157003223896027, 0.013742680661380291, -0.093211330473423, 0.025861218571662903,
    0.06232646852731705, 0.0021774841006845236, 0.06869932264089584, 0.07917260378599167,
    -0.06212180107831955, -0.057558126747608185, -0.0003032942768186331, -0.05891118571162224,
    -0.08320639282464981, 0.08282928168773651, 0.05687008798122406, 0.03362036496400833,
    -0.060469236224889755, 0.02634676918387413, 0.056387197226285934, -0.06916490197181702,
    0.057350799441337585, 0.03926648572087288, 0.01810075342655182, -0.018647968769073486,
    0.08498940616846085, -0.024070629850029945, 0.06496112793684006, 0.09249041974544525,
    0.011396653950214386, -0.005528339184820652, -0.007977906614542007, 0.05434877425432205,
    -0.0597374327480793, 0.06829343736171722, 0.05628437548875809, -0.0856039747595787,
    -0.03419634699821472, -0.05293063819408417, 0.02708541788160801, -0.055662840604782104,
    0.0927884578704834, -0.06823460012674332, -0.10172097384929657, -0.024125831201672554,
    -0.06912670284509659, 0.09436609596014023, -0.005833991337567568, -0.009505089372396469,
    0.005434251390397549, 0.08365780860185623, 0.016705039888620377, 0.056726422160863876,
    -0.055390093475580215, 0.07197052240371704, 0.09063093364238739, 0.0854375883936882,
    -0.08780816942453384, 0.05868012458086014, 0.01815883070230484, 0.040711887180805206,
    0.0009718164801597595, 0.0286678746342659, 0.0487813726067543, -0.06094557046890259,
    0.0004949718713760376, -0.08174177259206772, 0.08012644201517105, -0.037611257284879684,
    0.010565198957920074, -0.05246769264340401, 0.0474512055516243, 0.07225712388753891,
    -0.0716061145067215, -0.05726823955774307, 0.06556514650583267, 0.0246417298913002,
    -0.07458726316690445, -0.03832041099667549, 0.07900304347276688, -0.045799173414707184,
    -0.0928947925567627, -0.01522902399301529, 0.049481190741062164, -0.07761058956384659,
    -0.0229814276099205, 0.08236808329820633, 0.08133763819932938, 0.019489839673042297,
    -0.09492848068475723, 0.0069128721952438354, 0.08487188071012497, -0.036706723272800446,
    0.042049311101436615, 0.07858286052942276, -0.0020111575722694397, -0.07675697654485703,
    0.08761710673570633, 0.056949906051158905, 0.06992170959711075, -0.0847330242395401,
    0.01709204912185669, -0.07847427576780319, -0.01430586725473404, 0.058859676122665405,
    0.04430475831031799, 0.06180207431316376, 0.05357520654797554, 0.02799079939723015,
    -0.07083698362112045, -0.035946134477853775, 0.041123609989881516, 0.00792447105050087,
    0.010066099464893341, 0.09524688124656677, 0.05739141255617142, -0.0358046293258667,
    0.0033755628392100334, 0.09640329331159592, 0.046561144292354584, -0.06840427964925766,
    -0.0455455519258976, -0.04361632838845253, 0.07188213616609573, 0.052808977663517,
    0.07360253483057022, 0.020565900951623917, -0.0842442736029625, 0.04352886229753494,
    -0.03824911639094353, -0.06854905188083649, -0.06544151902198792, 0.023461326956748962,
    0.08685880154371262, 0.04878223314881325, -0.08903171122074127, -0.02587953209877014,
    -0.05206954479217529, 0.005993590224534273, 0.05805090814828873, 0.021624118089675903,
    -0.015899229794740677, 0.061477258801460266, -0.05167252570390701, 0.0915251150727272,
    -0.09298624843358994, -0.027983518317341805, 0.06437467783689499, -0.02212882786989212,
    -0.009881383739411831, -0.04332198575139046, -0.08105270564556122, -0.024124495685100555,
    -0.05736349895596504, -0.02245544269680977, 0.08872006833553314, 0.06702142208814621,
    -0.016538776457309723, -0.02240927517414093, -0.006566524505615234, 0.03211458772420883,
    0.08513186126947403, -0.05078309774398804, 0.05433719605207443, 0.021089017391204834,
    -0.07353725284337997, -0.06752262264490128, 0.03497578948736191, -0.03247866779565811,
    0.07098165899515152, 0.0804046168923378, 0.04890812188386917, -0.044743239879608154,
    0.03403621166944504, 0.05302662402391434, 0.08050406724214554, -0.003783687949180603,
    0.08155258744955063, -0.03208214044570923, 0.04512544721364975, 0.029075033962726593,
    -0.04369853809475899, 0.0009189620614051819, -0.09346182644367218, -0.05329394340515137,
    -0.050572969019412994, 0.01988516002893448, 0.03370777517557144, 0.03745412081480026,
    -0.00964348018169403, 0.016599014401435852, -0.060413312166929245, -0.0441572330892086,
    -0.04895281791687012, 0.08098656684160233, 0.08696839958429337, 0.048456259071826935,
    -0.02455030381679535, -0.042887747287750244, -0.0094466432929039, 0.03565546125173569,
    -0.07434796541929245, 0.0003201277577318251, -0.034264497458934784, -0.02989671193063259,
    0.09582357108592987, -0.018433628603816032, 0.06266196072101593, 0.0800270065665245,
    0.025646241381764412, 0.06634597480297089, 0.10105671733617783, 0.03930118680000305,
    -0.00010455161100253463, 0.0038182041607797146, 0.06847354769706726, -0.030098579823970795,
    0.0005580122815445065, 0.08293710649013519, 0.08653035759925842, -0.002411133609712124,
    0.006630301475524902, -0.07558134198188782, 0.0691087618470192, 0.06913002580404282,
    0.0753219798207283, -0.09408316761255264, 0.03229451924562454, -0.07067523151636124,
    0.07829611748456955, 0.05959557741880417, 0.04975904896855354, 0.031398363411426544,
    -0.025783222168684006, 0.03655829653143883, -0.007605515420436859, -0.08754053711891174,
    0.10195393860340118, -0.004801693372428417, -0.07009409368038177, -0.08948079496622086,
    0.08079623430967331, -0.03808880224823952, -0.035952139645814896, -0.05685136467218399,
    0.07160057127475739, -0.03851678594946861, 0.03786931931972504, 0.0020608738996088505,
    0.09087817370891571, -0.03258468583226204, -0.03470548242330551, 0.028652142733335495,
    -0.02752739004790783, -0.07285719364881516, 0.02429191768169403, -0.009096160531044006,
    -0.052159633487463, -0.04679955169558525, -0.02650044858455658, 0.08762117475271225,
    -0.08440432697534561, -0.0558314323425293, -0.05720549821853638, 0.008686266839504242,
    -0.08939887583255768, -0.09676788002252579, -0.09327276796102524, 0.0782083049416542,
    0.04351881891489029, 0.035132892429828644, 0.06772417575120926, -0.060713768005371094,
    -0.02483499050140381, -0.041801225394010544, 0.05839969962835312, -0.004395648837089539,
    0.030097760260105133, -0.005725845694541931, -0.056115057319402695, -0.0626656785607338,
    -0.03039761632680893, -0.07298053801059723, -0.06830605864524841, 0.08561297506093979,
    -0.045693911612033844, 0.028063900768756866, -0.04213203117251396, -0.04928554221987724,
    0.007294856011867523, -0.06037944555282593, -0.062350571155548096, 0.09983553737401962,
    0.04362151771783829, -0.050641633570194244, 0.0127701535820961, -0.04017847776412964,
    0.04160160571336746, 0.0667434111237526, 0.026313118636608124, 0.012279614806175232,
    -0.08506941050291061, 0.0807313546538353, 0.06861086934804916, 0.06710032373666763,
    -0.050093986093997955, 0.00782814621925354, -0.022996438667178154, 0.09616690129041672,
    0.01636984385550022, 0.09716186672449112, 0.024475719779729843, 0.07710828632116318,
    0.06407993286848068, 0.09740622341632843, 0.031846437603235245, -0.043110135942697525,
    -0.04647812992334366, -0.017512589693069458, -0.04743616655468941, 0.017498843371868134,
    -0.027727017179131508, 0.02108652889728546, 0.020231172442436218, -0.004554934799671173,
    -0.042486805468797684, -0.05463181063532829, -0.03887909650802612, -0.08147954940795898,
    0.07518118619918823, -0.0674179196357727, 0.012916909530758858, 0.09702397882938385,
    -0.002153680194169283, -0.04430713132023811, 0.009782634675502777, 0.06920567154884338,
    -0.0820106789469719, 0.08622851222753525, 0.02760816365480423, -0.0471099354326725,
    0.09714639186859131, -0.05910125747323036, -0.08359436690807343, -0.09007449448108673,
    -0.08520093560218811, 0.04029258340597153, 0.03319458290934563, -0.08745449781417847,
    0.07198774069547653, 0.07594850659370422, 0.07228076457977295, 0.09345364570617676,
    0.04036400094628334, -0.05653607100248337, -0.03823927044868469, -0.05570703744888306,
    -0.08966127783060074, 0.0720301941037178, -0.09254409372806549, 0.056258805096149445,
    -0.09682586044073105, 0.0906539037823677, 0.08488019555807114, 0.08161021023988724,
    0.02091924101114273, 0.013110920786857605, 0.045013122260570526, -0.01211036741733551,
    0.00220315158367157, 0.044102199375629425, -0.06068773195147514, -0.036808647215366364,
    -0.00344260036945343, 0.06866452842950821, 0.09574950486421585, -0.008916638791561127,
    -0.019385531544685364, 0.006554663181304932, -0.06082354858517647, -0.09144274145364761,
    0.07020524889230728, 0.011141017079353333, -0.052788056433200836, 0.0845261886715889,
    -0.04960087686777115, -0.07660026848316193, 0.00877217948436737, -0.09363622963428497,
    -0.08108077198266983, 0.005612209439277649, -0.047972213476896286, 0.0306704118847847,
    -0.00680619478225708, 0.03280390053987503, 0.07817251235246658, 0.016855992376804352,
    -0.08913499116897583, 0.006684981286525726, -0.007204331457614899, 0.01386253535747528,
    0.02175343595445156, 0.04988742992281914, -0.04187118262052536, 0.056840695440769196,
    0.04544480890035629, -0.09601442515850067, 0.07744608074426651, -0.05564389005303383,
    -0.06871923059225082, -0.07210876047611237, 0.08732379972934723, -0.006873538717627525,
    -0.07143726944923401, 0.09460760653018951, 0.03984484076499939, -0.050985004752874374,
    -0.0751928836107254, -0.045829031616449356, -0.07600133866071701, 0.0176654402166605,
    -0.06899353116750717, 0.05827103555202484, 0.01792198419570923, -0.04065188765525818,
    0.0954446867108345, -0.03324224427342415, 0.06043926626443863, -0.0366838201880455,
    0.039284322410821915, -0.0397246889770031, 0.014753029681742191, -0.044652167707681656,
    0.01669730804860592, -0.06750498712062836, -0.02810847759246826, 0.08303146809339523,
    -0.03517485037446022, -0.02770017459988594, 0.09301585704088211, -0.011335347779095173,
    0.06104998290538788, 0.06506939232349396, -0.09509453177452087, -0.04689764603972435,
    0.01003647968173027, 0.009199190884828568, -0.006952418480068445, 0.026930270716547966,
    -0.004067832604050636, -0.0451069138944149, 0.07263514399528503, 0.018477963283658028,
    0.07727038860321045, -0.010143917985260487, 0.056243594735860825, -0.05784653499722481,
    -0.08985397964715958, 0.09973946958780289, 0.043969519436359406, 0.06835532933473587,
    0.06566930562257767, 0.09040003269910812, 0.06073146313428879, 0.08235955983400345,
    0.0961431935429573, -0.025389745831489563, -0.08290354907512665, -0.004102364182472229,
    0.05117247253656387, -0.09730749577283859, 0.07496828585863113, 0.09019286185503006,
    0.046054936945438385, 0.05607373267412186, 0.05638081580400467, 0.0025937333703041077,
    0.05381227284669876, -0.029261335730552673, 0.016465649008750916, 0.0724518820643425,
    0.05892183631658554, 0.09751374274492264, 0.09122662991285324, -0.0257326140999794,
    0.0855872705578804, -0.017357327044010162, 0.07440949231386185, 0.01894470304250717,
    -0.007359698414802551, -0.05019440874457359, 0.02579580992460251, -0.07672283798456192,
    -0.02316175401210785, 0.005927786231040955, -0.028171144425868988, 0.0287921205163002,
    0.08044933527708054, 0.022394798696041107, 0.004223383963108063, -0.0987846627831459,
    -0.00040030956733971834, -0.06006719917058945, -0.017300939187407494, -0.0560612715780735,
    -0.006962052080780268, -0.06148386374115944, -0.05676276609301567, -0.06235940754413605,
    0.06714434176683426, 0.08642085641622543, 0.07500822097063065, -0.04184355214238167,
    -0.10238490998744965, 0.04091551899909973, 0.08879434317350388, 0.08238345384597778,
    0.020968487486243248, 0.05547572672367096, -0.03422388806939125, 0.009647727012634277,
    0.020437465980648994, 0.011375708505511284, 0.030144132673740387, -0.025337455794215202,
    0.01631549932062626, -0.042735449969768524, -0.02125418186187744, -0.08960337936878204,
    -0.02301287092268467, 0.05462239682674408, -0.037858445197343826, -0.08559121936559677,
    -0.06827223300933838, 0.06670590490102768, -0.061253633350133896, -0.08752856403589249,
    0.06390099972486496, -0.08040039241313934, -0.005222463048994541, 0.022151874378323555,
    0.036102160811424255, 0.036148931831121445, 0.023220913484692574, -0.07110942155122757,
    -0.04561832174658775, 0.006918963044881821, -0.03423803299665451, 0.01607937552034855,
    -0.03772961348295212, -0.08949342370033264, 0.03928276523947716, -0.06371084600687027,
    0.0952623263001442, 0.02099054865539074, -0.08740405738353729, 0.057598136365413666,
    -0.028369806706905365, -0.020357027649879456, 0.0970817282795906, -0.06552556157112122,
    -0.024272963404655457, 0.08601873368024826, -0.027784310281276703, -0.09035228937864304,
    -0.025293990969657898, 0.032116882503032684, 0.04525972157716751, -0.0877712294459343,
    0.009513281285762787, -0.06109138950705528, 0.08374952524900436, -0.08826472610235214,
    0.018134914338588715, -0.04012015089392662, -0.06110716983675957, 0.058580197393894196,
    0.027176089584827423, -0.06944543123245239, -0.08476138114929199, -0.08138736337423325,
    -0.04830121994018555, -0.03297615051269531, -0.06796823441982269, 0.008548036217689514,
    0.050935931503772736, -0.04982730373740196, 0.016833223402500153, -0.03258997201919556,
    -0.007468663156032562, 0.07135214656591415, 0.00761355459690094, 0.035807035863399506,
    -0.02146921306848526, -0.05055282264947891, 0.05254659801721573, 0.08883597701787949,
    -0.034336186945438385, 0.03395811468362808, 0.08309680968523026, 0.012331977486610413,
    -0.06145454943180084, -0.10092583298683167, -0.02795344591140747, -0.025316528975963593,
    0.03456639498472214, 0.06090462952852249, 0.012815595604479313, 0.0019623120315372944,
    -0.04870172590017319, -0.09699465334415436, 0.009189904667437077, -0.08228474110364914,
    0.09035899490118027, 0.06439832597970963, 0.01784256473183632, 0.04820059984922409,
    0.010921701788902283, -0.011465455405414104, -0.05559603124856949, -0.09111166000366211,
    0.03610188513994217, 0.06404159218072891, -0.045446254312992096, -0.07551821321249008,
    0.08908737450838089, -0.015117987990379333, -0.05987607315182686, 0.0937078520655632,
    -0.09626008570194244, -0.05154358223080635, 0.05622231587767601, -0.044444095343351364,
    -0.050698794424533844, -0.038188349455595016, 0.007393933832645416, 0.02577204257249832,
    0.09252862632274628, -0.07487418502569199, -0.048323895782232285, 0.025805585086345673,
    -0.03522421419620514, 0.038897864520549774, -0.015280414372682571, -0.0538519024848938,
    -0.09083932638168335, -0.03039233386516571, -0.015073918737471104, -0.09245157986879349,
    -0.05592489242553711, 0.04367981478571892, -0.007617677561938763, -0.04333027824759483,
    -0.06690098345279694, -0.03323673456907272, -0.03540255129337311, 0.041769228875637054,
    -0.037121258676052094, -0.042899634689092636, -0.08371417224407196, -0.01943470537662506,
    -0.03793748840689659, 0.02437932789325714, -0.038844503462314606, -0.028541721403598785,
    0.011263072490692139, 0.0641014501452446, -0.03713766485452652, 0.08292389661073685,
    -0.014585897326469421, -0.03750394657254219, -0.021656908094882965, 0.07056678086519241,
    -0.05357532575726509, 0.09881231933832169, 0.04645172506570816, 0.09412660449743271,
    -0.0165213942527771, -0.01865675300359726, 0.037967510521411896, -0.09692644327878952,
    0.06841843575239182, 0.005082748830318451, 0.07914445549249649, -0.06906609237194061,
    0.06062097102403641, -0.041629862040281296, 0.03190947324037552, -0.0953691378235817,
    0.00216810405254364, 0.030986599624156952, 0.07923149317502975, 0.050319693982601166,
    0.07910112291574478, 0.047268278896808624, 0.011555865406990051, -0.04275566339492798,
    -0.09310787916183472, -0.044580090790987015, -0.08273115009069443, 0.07331325858831406,
    0.0755668357014656, 0.0073087867349386215, 0.060588087886571884, -0.05403309315443039,
    0.027508419007062912, -0.018199440091848373, -0.0825142115354538, 0.04058590903878212,
    -0.0018484687898308039, 0.0031206540297716856, 0.03977759927511215, -0.09805335849523544,
    -0.06942712515592575, 0.07106976956129074, -0.07829276472330093, -0.09960786998271942,
    -0.029422633349895477, -0.03451477363705635, 0.040701404213905334, -0.0749804824590683,
    -0.09044308960437775, 0.029985012486577034, 0.08799690753221512, 0.01943407766520977,
    -0.07900569587945938, -0.09646625816822052, 0.07135247439146042, 0.04685353860259056,
    -0.08334808796644211, 0.06651066243648529, 0.021649189293384552, 0.08577756583690643,
    0.002958720549941063, -0.030907824635505676, 0.045268841087818146, 0.016507137566804886,
    -0.05585972219705582, 0.0014586467295885086, 0.04523312300443649, 0.01976686343550682,
    0.08526618778705597, 0.037188220769166946, 0.08190884441137314, 0.047004468739032745,
    0.03216330707073212, -0.07863831520080566, -0.08895563334226608, -0.000725874793715775,
    -0.04778177663683891, -0.013313530944287777, -0.007085287477821112, 0.07643032819032669,
    0.07337202876806259, -0.04170685634016991, -0.049968134611845016, -0.03755172714591026,
    0.01814436912536621, -0.042356885969638824, 0.05376756936311722, 0.05111607164144516,
    0.09280563145875931, 0.02298779785633087, 0.010479509830474854, 0.08237598091363907,
    0.03609035164117813, -0.02371802181005478, 0.005721941590309143, 0.03214592486619949,
    0.020565032958984375, -0.07394329458475113, -0.08645673096179962, -0.008368298411369324,
    -0.05633307620882988, 0.03818751126527786, 0.0028984323143959045, -0.04846208170056343,
    0.06713230162858963, 0.06032707542181015, 0.08810240775346756, 0.09172413498163223,
    -0.012262865900993347, 0.0006373375654220581, -0.09495121240615845, 0.035998158156871796,
    -0.09781984239816666, -0.0331391841173172, -0.034600332379341125, 0.07812110334634781,
    -0.09102493524551392, -0.06456293165683746, 0.01337587833404541, 0.07878948003053665,
    0.09619399160146713, 0.08520779758691788, -0.07085591554641724, 0.041266120970249176,
    -0.027269527316093445, -0.03820765018463135, -0.010853111743927002, -0.02783757448196411,
    -0.0724581703543663, -0.057814083993434906, -0.024998849257826805, 0.07761741429567337,
    0.05912960693240166, 0.014211258850991726, -0.05237307772040367, -0.09398207813501358,
    0.06138032674789429, 0.0075230379588902, -0.010564900003373623, 0.015495975501835346,
    -0.010352516546845436, -5.7768134865909815e-5, -0.0789203867316246, -0.030049588531255722,
    -0.015045966021716595, -0.051782507449388504, -0.0005460618995130062, 0.03093518316745758,
    0.03898589313030243, -0.08403732627630234, 0.08561237901449203, -0.07881013303995132,
    0.054790109395980835, 0.04816350340843201, -0.028245285153388977, 0.05727788805961609,
    -0.09714116156101227, -0.08548694103956223, 0.017724178731441498, -0.006037159822881222,
    -0.011038308963179588, -0.07374238222837448, -0.028137028217315674, -0.05254768207669258,
    0.09674469381570816, 0.0016563453245908022, -0.03872697055339813, -0.010021787136793137,
    -0.013155980966985226, 0.02266964688897133, 0.03443671017885208, 0.06998272985219955,
    -0.015186008997261524, -0.03315497562289238, -0.027615975588560104, 0.061433713883161545,
    -0.08067528903484344, 0.06149077042937279, -0.05367298424243927, 0.09112253040075302,
    -0.03824454918503761, -0.06010996177792549, 0.02778981812298298, -0.041444290429353714,
    -0.07672642171382904, 0.03678799420595169, 0.06429965049028397, 0.04116908460855484,
    0.05506020039319992, -0.08880247175693512, -0.08960487693548203, -0.06910337507724762,
    0.08705352991819382, -0.026740148663520813, -0.03819620609283447, -0.0475781075656414,
    -0.027230776846408844, -0.05581096559762955, -0.0029027611017227173, 0.03892762213945389,
    -0.004651620984077454, 0.012728177011013031, -0.07709737867116928, -0.015097633004188538,
    0.0785234197974205, 0.013906881213188171, -0.0641835480928421, 0.09537965804338455,
    0.0925457701086998, -0.06609499454498291, -0.004248633980751038, -0.03440157324075699,
    0.015355803072452545, -0.023364506661891937, 0.06505086272954941, 0.09795572608709335,
    -0.026160694658756256, -0.07532154023647308, -0.07832279056310654, -0.0548376701772213,
    0.09336883574724197, -0.07128340005874634, -0.042464662343263626, 0.018200360238552094,
    -0.03691766411066055, -0.09585072100162506, 0.07497335225343704, -0.059860408306121826,
    -0.05348597839474678, -0.002894921228289604, 0.09289342164993286, 0.08292762190103531,
    0.07471466064453125, -0.02147814631462097, 0.04977612942457199, -0.032405778765678406,
    -0.09135342389345169, -0.09674004465341568, -0.1017400249838829, -0.014552049338817596,
    -0.009875394403934479, 0.09356873482465744, 0.028858277946710587, 0.04001840204000473,
    -0.0009055137634277344, -0.020953958854079247, -0.06793490052223206, -0.08527814596891403,
    0.006508436985313892, -0.03870616853237152, -0.042907919734716415, 0.009435437619686127,
    -0.008237816393375397, -0.007210215087980032, 0.024533487856388092, 0.09090625494718552,
    0.0269358828663826, -0.014521420001983643, 0.0076396651566028595, 0.08942855149507523,
    -0.040402233600616455, -0.08976643532514572, -0.06888473033905029, 0.005903077311813831,
    -0.01586044952273369, -0.02986389398574829, 0.012551635503768921, 0.008826074190437794,
    0.0672433078289032, -0.017278939485549927, -0.06465554982423782, -0.0009243703680112958,
    -0.1006355881690979, -0.04588566720485687, 0.011542406864464283, 0.028255855664610863,
    0.05450165271759033, -0.0964386835694313, 0.034446895122528076, -0.012700230814516544,
    0.012919013388454914, -0.10075468569993973, -0.08368813991546631, 0.018283329904079437,
    -0.09168747812509537, 0.0872814878821373, -0.01780613511800766, -0.03811707720160484,
    -0.015659749507904053, -0.004626154899597168, -0.0314304381608963, 0.042705051600933075,
    0.08416815847158432, -0.05271245166659355, -0.0044266581535339355, -0.09222806990146637,
    0.0733819380402565, -0.021093472838401794, 0.08003904670476913, 0.024835072457790375,
    0.03541908413171768, 0.03475678712129593, 0.027342088520526886, -0.02674393355846405,
    -0.06073954328894615, -0.05357224866747856, -0.014762938022613525, 0.07269490510225296,
    0.027507416903972626, -0.0027761682868003845, -0.07053910195827484, 0.06786412745714188,
    0.04415055364370346, -0.09279351681470871, -0.007315710186958313, -0.009915947914123535,
    -0.029498301446437836, -0.04693877696990967, -0.013067066669464111, 0.04520107060670853,
    0.06349433213472366, 0.028800539672374725, -0.015424191951751709, 0.035956524312496185,
    0.004115745425224304, -0.033531442284584045, -0.05755416303873062, -0.08915124088525772,
    0.005122324451804161, 0.061068661510944366, -0.030190009623765945, -0.08692976087331772,
    -0.04421662166714668, -0.08643929660320282, -0.07395362108945847, -0.028863847255706787,
    0.0829494446516037, -0.08096717298030853, -0.01945897564291954, 0.08586804568767548,
    -0.038466017693281174, 0.020862312987446785, -0.10050944238901138, -0.018806051462888718,
    0.09382975846529007, -0.06624002009630203, 0.08800473809242249, -0.031186817213892937,
    -0.019022392109036446, -0.0506131574511528, -0.08027209341526031, 0.03505857288837433,
    0.029735736548900604, -0.001756108715198934, 0.04221303015947342, -0.03964146971702576,
    0.022319866344332695, -0.002913400065153837, 0.07020406424999237, 0.012371267192065716,
    -0.0009217254701070487, -0.04357558488845825, -0.014742985367774963, -0.05415927618741989,
    -0.015838855877518654, -0.04400075227022171, -0.036275189369916916, 0.08947353810071945,
    -0.09011571854352951, -0.011123661883175373, 0.0843556746840477, -0.016001634299755096,
    0.08985977619886398, -0.08109496533870697, -0.008610066026449203, 0.04936519265174866,
    0.08384773880243301, 0.06636328250169754, 0.008256185799837112, -0.027494706213474274,
    0.06709294766187668, 0.0006662813248112798, 0.00569559121504426, -0.01990795135498047,
    0.09667406231164932, 0.026256076991558075, -0.04708380624651909, -0.05955744907259941,
    -0.025165893137454987, -0.005425408482551575, 0.0712689533829689, 0.09236893802881241,
    -0.07523001730442047, -0.06182553991675377, 0.04501523822546005, -0.05763429403305054,
    0.04847586899995804, 0.031749166548252106, -0.02833317220211029, -0.01602412760257721,
    0.030681543052196503, -0.019558623433113098, 0.0483226552605629, 0.044352613389492035,
    -0.02023027092218399, 0.049557872116565704, 0.060585297644138336, 0.06310803443193436,
    -0.08359748125076294, -0.005831800401210785, -0.09802591800689697, 0.08402266353368759,
    -0.0470697395503521, -0.03917134925723076, 0.030422814190387726, 0.07833600789308548,
    0.046315379440784454, -0.01512821763753891, 0.08336514979600906, 0.0517793670296669,
    0.05943157523870468, -0.06719455122947693, -0.011649474501609802, -0.011375084519386292,
    0.00028061866760253906, -0.019559346139431, -0.08578792959451675, -0.08669707924127579,
    0.05874035134911537, 0.03098342940211296, 0.06531980633735657, 0.0315910279750824,
    -0.044538792222738266, 0.06007571145892143, 0.0063008153811097145, 0.060770876705646515,
    0.04019787535071373, 0.06442572921514511, 0.0022219568490982056, -0.0665353462100029,
    0.004220449365675449, -0.08426263928413391, 0.09308911859989166, 0.006430327892303467,
    0.0026841252110898495, 0.09547963738441467, -0.08732622861862183, -0.04106423631310463,
    -0.07739205658435822, 0.057541243731975555, 0.09607430547475815, 0.09374523907899857,
    -0.08734653145074844, -0.0411059595644474, 0.08218543976545334, 0.05036558955907822,
    0.0032948851585388184, 0.007080972194671631, -0.09449411928653717, 0.02210395038127899,
    -0.05930535867810249, -0.0010554855689406395, 0.014211013913154602, 0.09360980242490768,
    0.07817592471837997, 0.07624384760856628, -0.022385992109775543, -0.04852019622921944,
    -0.08297817409038544, -0.0862666517496109, -0.06919664889574051, 0.037698447704315186,
    -0.07026484608650208, 0.05185141786932945, 0.05289798229932785, 0.06316301226615906,
    0.046905674040317535, -0.08469846844673157, 0.07389859855175018, -0.04671739786863327,
    -0.07570826262235641, 0.09227726608514786, -0.0843304991722107, 0.004007354378700256,
    -0.09145092964172363, 0.026879243552684784, 0.09911882132291794, 0.00764918327331543,
    0.049234725534915924, -0.03304368257522583, -0.027491495013237, -0.022912099957466125,
    -0.015420354902744293, -0.005613647401332855, 0.09408543258905411, 0.024975284934043884,
    -0.0615551583468914, 0.06844832748174667, 0.09718280285596848, 0.06325928121805191,
    -0.09075893461704254, 0.005499660968780518, 0.06387139111757278, -0.02224322408437729,
    -0.07606806606054306, -0.010700143873691559, 0.028564251959323883, -0.015063896775245667,
    -0.09523948282003403, -0.052687037736177444, 0.0344698503613472, 0.022115029394626617,
    0.02222786843776703, -0.03936706855893135, 0.03619455546140671, 0.06774679571390152,
    0.04216798394918442, 0.09954499453306198, 0.0676112100481987, 0.09061362594366074,
    0.05862957984209061, -0.07829712331295013, 0.022145509719848633, 0.07134553045034409,
    -0.007493816316127777, 0.03669305890798569, -0.025268234312534332, -0.07568933069705963,
    -0.016233937814831734, -0.0743996798992157, 0.07387617230415344, -0.07407350093126297,
    -0.09192085266113281, 0.05629083141684532, -0.0036144391633570194, -0.01254664920270443,
    0.04055796563625336, -0.03189672902226448, -0.05971063673496246, -0.01626667194068432,
    -0.09539830684661865, 0.03710925206542015, 0.059684477746486664, 0.08081144094467163,
    0.0587952584028244, -0.06277524679899216, -0.06856673955917358, -0.04316564276814461,
    0.03932781144976616, -0.042197201400995255, -0.09982577711343765, -0.06285762041807175,
    -0.015524112619459629, 0.03824739158153534, 0.03047379106283188, -0.08836279064416885,
    -0.04569431394338608, 0.0703338012099266, 0.06056929752230644, -0.07707633078098297,
    -0.04727852717041969, 0.018344230949878693, 0.018696144223213196, 0.08264128118753433,
    0.01786799728870392, 0.03859146684408188, -0.0844210684299469, 0.024783926084637642,
    0.09217528998851776, 0.017797138541936874, 0.010356493294239044, -0.0863153263926506,
    -0.06523733586072922, -0.04208601266145706, -0.055860646069049835, -0.004307389259338379,
    -0.10037010908126831, 0.07637370377779007, 0.07081857323646545, -0.043026361614465714,
    -0.011588710360229015, -0.022333694621920586, 0.012619372457265854, -0.016887739300727844,
    -0.0015198439359664917, 0.05546853691339493, -0.06940426677465439, -0.09536472707986832,
    -0.04799158498644829, 0.011249259114265442, -0.04057794809341431, 0.08275478333234787,
    0.052067480981349945, -0.034476421773433685, -0.07726502418518066, 0.05098564177751541,
    0.051955513656139374, 0.07589321583509445, 0.09552327543497086, 0.09059568494558334,
    -0.038487758487463, 0.08281571418046951, -0.04434908553957939, -0.07563072443008423,
    -0.06288798153400421, -0.0975070595741272, -0.0543799065053463, 0.001589559018611908,
    0.0374797061085701, -0.022014223039150238, 0.047336794435977936, 0.023853719234466553,
    -0.01413782685995102, -0.04257345199584961, -0.06190628930926323, 0.046724267303943634,
    -0.04603385925292969, 0.006469465792179108, -0.01455899327993393, 0.014284707605838776,
    -0.032677747309207916, -0.022669300436973572, -0.02675624191761017, -0.03018420934677124,
    -0.015132643282413483, -0.0403614416718483, 0.08103854209184647, 0.06939471513032913,
    0.0704319179058075, -0.011118868365883827, 0.02218516543507576, -0.021167151629924774,
    0.07370845228433609, -0.024009540677070618, 0.09075727313756943, -0.0620320700109005,
    -0.0030517347622662783, -0.09127102792263031, -0.016097858548164368, -0.024918830022215843,
    -0.08866845816373825, 0.038064539432525635, -0.034983955323696136, 0.047220297157764435,
    -0.06759786605834961, -0.010801761411130428, -0.04660628363490105, 0.05219043418765068,
    0.08724544197320938, -0.026586497202515602, 0.03673207014799118, 0.034901559352874756,
    0.09264173358678818, 0.0605633519589901, 0.089976005256176, 0.0689685195684433,
    -0.011826250702142715, 0.08850107342004776, -0.03467373922467232, -0.031441863626241684,
    0.09367005527019501, -0.07280062884092331, -0.04074125364422798, 0.09176841378211975,
    0.052684083580970764, 0.08145532757043839, -0.03152824938297272, 0.06705567240715027,
    0.03747596964240074, 0.04213792458176613, -0.0027576619759202003, -0.015777435153722763,
    0.0028719203546643257, 0.017165571451187134, 0.10105247050523758, -0.08126191049814224,
    -0.012603512033820152, 0.002628031652420759, 0.04934317618608475, 0.0524163544178009,
    0.07373495399951935, -0.05790850147604942, 0.010411223396658897, 0.06840876489877701,
    -0.034132301807403564, 0.06244800239801407, -0.0110626220703125, -0.06886156648397446,
    0.033552415668964386, -0.027326487004756927, -0.006385937333106995, 0.003548666834831238,
    -0.01205398142337799, 0.05457749217748642, 0.06108137220144272, 0.0770924761891365,
    -0.0936012864112854, 0.07718581706285477, 0.05879516154527664, -0.09526345878839493,
    -0.007804371416568756, 0.059307850897312164, 0.08067790418863297, -0.04777169227600098,
    0.09077820926904678, -0.09344462305307388, 0.017522014677524567, 0.06018943339586258,
    0.07358063012361526, 0.04371132701635361, -0.09728915989398956, -0.03768705204129219,
    0.046235330402851105, 0.09749773889780045, 0.08611606806516647, 0.07723308354616165,
    -0.009059324860572815, -0.03132717311382294, 0.04832620173692703, 0.07965382188558578,
    -0.07342846691608429, -0.04752463102340698, 0.012486889958381653, 0.0710487887263298,
    -0.0821647197008133, 0.08747798949480057, -0.07066335529088974, 0.0031377896666526794,
    -0.01759367063641548, -0.0059120142832398415, 0.05255890265107155, -0.08596155792474747,
    0.028613470494747162, 0.05697613209486008, 0.062725730240345, -0.06339498609304428,
    0.022368771955370903, -0.034472495317459106, -0.03890184685587883, -0.07500313967466354,
    -0.05527244880795479, -0.054006703197956085, 0.005895398091524839, -0.0571216456592083,
    0.08683238923549652, -0.0654914528131485, 0.045607395470142365, -0.00257699191570282,
    -0.06309346854686737, 0.09487228840589523, -0.03987826034426689, -0.08314929902553558,
    -0.030254043638706207, 0.014724232256412506, -0.014734148979187012, -0.04023176059126854,
    -0.09241484105587006, -0.008755624294281006, -0.024737460538744926, -0.07062055170536041,
    -0.0041271597146987915, 0.08839410543441772, -0.08468519896268845, 0.03348153084516525,
    -0.0020851287990808487, 0.034588444977998734, -0.043224576860666275, 0.046287111937999725,
    -0.004955332726240158, -0.05429454147815704, 0.020789865404367447, -0.08954815566539764,
    -0.07274924218654633, -0.02567165531218052, -0.05221141129732132, -0.03741852939128876,
    -0.007979006506502628, 0.04190334677696228, -0.0246869008988142, -0.018824422731995583,
    0.05638821795582771, -0.0035521069075912237, -0.017880380153656006, -0.015856005251407623,
    -0.05395808443427086, 0.06738144904375076, 0.001281246542930603, 0.016454897820949554,
    -0.020925164222717285, -0.005356833338737488, 0.022024132311344147, -0.08342693001031876,
    -0.025332435965538025, -0.08967818319797516, 0.03398919850587845, -0.05521819740533829,
    -0.05186969041824341, -0.03915292024612427, -0.03259394317865372, 0.059690915048122406,
    -0.04292935132980347, -0.06458786875009537, 0.0788671150803566, -0.009306669235229492,
    -0.008339837193489075, -0.03934060409665108, 0.04353772848844528, -0.07143141329288483,
    -0.008758842945098877, -0.010343894362449646, -0.08041739463806152, -0.06608115136623383,
    -0.09905494749546051, -0.05058497190475464, -0.08392734825611115, -0.06289175897836685,
    0.012509629130363464, -0.02702484279870987, 0.004560098052024841, -0.050003744661808014,
    0.023615539073944092, 0.0016866326332092285, -0.023449674248695374, -0.03180873394012451,
    0.010063767433166504, 0.061290495097637177, 0.09334611147642136, 0.07976814359426498,
    0.0582057349383831, 0.09004208445549011, 0.010281377471983433, -0.078312449157238,
    -0.052202023565769196, -0.06703368574380875, 0.06489872932434082, 0.044978607445955276,
    0.019291456788778305, 0.012001221999526024, -0.023518642410635948, -0.002590647665783763,
    0.055184151977300644, 0.07391385734081268, 0.03392592817544937, 0.0897579938173294,
    0.06457597017288208, -0.022381823509931564, -0.025616813451051712, -0.08096907287836075,
    -0.06427974998950958, -0.004558076616376638, 0.09829685837030411, -0.06726549565792084,
    -0.04678116738796234, -0.08957924693822861, -0.011998750269412994, 0.09625712782144547,
    0.09975852072238922, 0.0793582946062088, -0.001810023793950677, -0.006846901495009661,
    0.09590286016464233, 0.014737420715391636, 0.05846386402845383, 0.07511035352945328,
    -0.08891228586435318, -0.09386002272367477, -0.04475418105721474, -0.03561384230852127,
    0.056982096284627914, 0.004883135668933392, -0.01514199934899807, -0.09722527116537094,
    0.010987152345478535, 0.07157926261425018, -0.04378196597099304, 0.012897721491754055,
    -0.038203198462724686, -0.04921264946460724, -0.026747003197669983, 0.09255164861679077,
    -0.009658709168434143, 0.008243292570114136, -0.043305836617946625, 0.07044365257024765,
    -0.06198608875274658, 0.039436109364032745, -0.09626376628875732, -0.010202370584011078,
    0.03505777567625046, -0.039554715156555176, -0.027829289436340332, 0.09984142333269119,
    0.02979513257741928, 0.08701739460229874, -0.09690191596746445, -0.06970617920160294,
    0.05495142191648483, 0.003950849175453186, -0.0662224143743515, 0.04769878834486008,
    0.08800571411848068, -0.03496736288070679, -0.005504153668880463, -0.06359758973121643,
    -0.07285980880260468, 0.09217969328165054, 0.009826481342315674, 0.0037992820143699646,
    -0.00993403047323227, 0.08582890778779984, 0.03535992652177811, 0.016429483890533447,
    0.07379599660634995, 0.09316972643136978, 0.019145235419273376, 0.03957589715719223,
    -0.022421374917030334, -0.054934825748205185, -0.042968880385160446, -0.07394851744174957,
    -0.05288795381784439, 0.05561830848455429, 0.09921052306890488, 0.040015704929828644,
    -0.08342720568180084, 0.016609489917755127, -0.022523701190948486, -0.05978868156671524,
    -0.0290951207280159, 0.10018787533044815, -0.09349306672811508, -0.09832657128572464,
    -0.09643256664276123, -0.04797062277793884, 0.0332438163459301, -0.008653368800878525,
    -0.009696639142930508, 0.05452798679471016, -0.09392260760068893, -0.07535292208194733,
    0.019409893080592155, -0.03203659504652023, -0.03132546320557594, -0.04161751642823219,
    0.013321537524461746, 0.08933812379837036, -0.03359856456518173, 0.0008357475744560361,
    -0.09229442477226257, 0.09133527427911758, -0.08082492649555206, 0.03458070755004883,
    -0.049881499260663986, -0.03143865242600441, 0.045978330075740814, 0.10165073722600937,
    0.06952985376119614, 0.00872853398323059, -0.07199085503816605, -0.09687630832195282,
    -0.057829827070236206, 0.0032463069073855877, 0.06363511830568314, 0.04470431059598923,
    -0.07940512150526047, 0.026527732610702515, -0.09038006514310837, 0.09538963437080383,
    0.05408278480172157, 0.07365541160106659, -0.06566396355628967, 0.046473897993564606,
    -0.08930254727602005, 0.06205623224377632, -0.05641932785511017, -0.06776607036590576,
    -0.050855934619903564, -0.0860164538025856, 0.05141085758805275, 0.04260175675153732,
    -0.08314954489469528, 0.073086217045784, 0.01619063876569271, 0.07969855517148972,
    -0.09966786205768585, -0.07640594244003296, 0.043553583323955536, 0.021628841757774353,
    -0.06432590633630753, -0.05132092162966728, 0.05646056681871414, -0.07679282128810883,
    0.07963443547487259, 0.09283062070608139, 0.028071902692317963, 0.015168823301792145,
    -0.03935697302222252, -0.08622514456510544, 0.028329499065876007, 0.05944264680147171,
    0.07615198940038681, 0.06293264776468277, -0.07429108768701553, 0.0013018026947975159,
    0.042047299444675446, -0.047557175159454346, 0.07131310552358627, 0.06251425296068192,
    0.05319758504629135, 0.08205104619264603, -0.09228666126728058, -0.01516798883676529,
    0.031756676733493805, -0.06152854114770889, 0.08409885317087173, 0.0030901432037353516,
    -0.08721788972616196, -0.07529367506504059, -0.09520500153303146, -0.07034853845834732,
    -0.063272625207901, -0.03397469222545624, 0.004341542720794678, 0.04205118864774704,
    -0.02924974262714386, -0.0989285260438919, 0.013829313218593597, -0.07312500476837158,
    0.09582289308309555, -0.0812821313738823, 0.04454740509390831, -0.09397785365581512,
    0.00414223363623023, -0.017154045403003693, 0.03175325691699982, -0.006383995059877634,
    -0.07169020920991898, -0.09804826974868774, 0.09424911439418793, 0.06836540997028351,
    -0.029639514163136482, -0.019089670851826668, -0.019966088235378265, 0.06278195232152939,
    -0.07687896490097046, -0.0222694780677557, 0.025415517389774323, 0.052678413689136505,
    0.08184231072664261, -0.053428005427122116, -0.09451723098754883, -0.03593864291906357,
    0.048095472157001495, -0.01032278686761856, -0.023224234580993652, -0.07269791513681412,
    0.04671270400285721, -0.029690906405448914, 0.05392751097679138, -0.04283280298113823,
    0.04080495983362198, -0.0538734532892704, -0.08177068084478378, -0.04997541382908821,
    0.04516647756099701, -0.07740039378404617, -0.06641142070293427, -0.05892927199602127,
    -0.09922752529382706, -0.0897771418094635, -0.08415418863296509, -0.07658645510673523,
    0.007745362818241119, -0.02997688204050064, -0.010302669368684292, -0.011930088512599468,
    -0.025126786902546883, -0.09540707617998123, 0.09110347181558609, -0.01297721453011036,
    0.09527704864740372, -0.09991344064474106, 0.021282188594341278, -0.06811271607875824,
    0.004655979573726654, -0.01034615933895111, -0.04070580005645752, 0.021166719496250153,
    0.07815446704626083, 0.034220628440380096, -0.09200137108564377, 0.0539301261305809,
    -0.022675111889839172, -0.007565200328826904, -0.06922813504934311, 0.007964611053466797,
    -0.05122951418161392, 0.040742553770542145, -0.012442469596862793, -0.04890256002545357,
    0.010202385485172272, -0.03066396713256836, -0.04337623342871666, 0.07431655377149582,
    -0.03338833898305893, -0.0612211599946022, 0.0226278156042099, 0.03192325681447983,
    0.020977653563022614, 0.07031209021806717, 0.059742651879787445, -0.06135693937540054,
    -0.03356236219406128, -0.09143208712339401, 0.029652588069438934, -0.09564291685819626,
    0.006913028657436371, -0.09582946449518204, -0.09347052872180939, -0.045018017292022705,
    0.09423809498548508, 0.012218043208122253, 0.07711871713399887, 0.017700955271720886,
    0.06514055281877518, -0.013347551226615906, -0.02485112100839615, 0.032939620316028595,
    -0.06863240152597427, -0.014193764887750149, 0.07344706356525421, -0.08957323431968689,
    -0.006864540744572878, 0.034249335527420044, 0.08306880295276642, 0.09643188118934631,
    0.06268137693405151, -0.004734538961201906, 0.07801565527915955, 0.08601410686969757,
    -0.07472342997789383, 0.029386714100837708, -0.05837203189730644, -0.031625017523765564,
    0.09736674278974533, -0.021252699196338654, -0.05961472913622856, 0.0036531686782836914,
    0.06823646277189255, -0.049753107130527496, -0.07076767832040787, -0.01617760956287384,
    0.04083045572042465, -0.03833506256341934, 0.08865389972925186, -0.06653770059347153,
    -0.09188281744718552, 0.09391368180513382, 0.015721462666988373, 0.04384123533964157,
    0.0529896542429924, 0.054456084966659546, -0.015115559101104736, -0.08286783844232559,
    0.019013114273548126, -0.08521627634763718, 0.06786741316318512, -0.019297927618026733,
    0.09420068562030792, -0.09440381824970245, -0.008463448844850063, -0.08495502918958664,
    0.043950654566287994, -0.07710609585046768, 0.07985809445381165, -0.0279487743973732,
    -0.04685910418629646, -0.06303829699754715, -0.005832425784319639, -0.013342312537133694,
    -0.08491676300764084, 0.08946025371551514, 0.0902482271194458, -0.04080033302307129,
    -0.09064054489135742, -0.05507568269968033, -0.055160440504550934, 0.08521535247564316,
    0.06466551870107651, 0.09095633774995804, -0.03497691452503204, -0.053271520882844925,
    0.08618859201669693, 0.067470021545887, -0.07793731987476349, -0.0941862240433693,
    0.045894138514995575, 0.05666240304708481, 0.07989758998155594, -0.062256839126348495,
    -0.03868570551276207, 0.048001162707805634, 0.010209664702415466, -0.09033852815628052,
    -0.04422302171587944, 0.03330256789922714, 0.006545171141624451, 0.04967234283685684,
    -0.04812852293252945, -0.0985872745513916, -0.05389156565070152, 0.05179253965616226,
    0.025932781398296356, 0.008085548877716064, 0.05755306035280228, 0.09135477989912033,
    -0.05908496305346489, -0.0928630456328392, -0.060478974133729935, -0.07276209443807602,
    0.0202813521027565, -0.09215071052312851, 0.07601314038038254, -0.06392994523048401,
    -0.029887117445468903, -0.08112386614084244, -0.028603218495845795, 0.05756526440382004,
    0.005411835387349129, 0.05186787620186806, 0.0295286662876606, -0.018909791484475136,
    -0.02420959435403347, -0.10274688154459, -0.07440363615751266, 0.019694648683071136,
    0.04497597739100456, -0.0917225331068039, 0.005814100615680218, 0.0420096255838871,
    -0.019643818959593773, -0.022176770493388176, 0.08859841525554657, 0.007781602442264557,
    0.04065387323498726, 0.05655541643500328, -0.02502499148249626, -0.05254235118627548,
    -0.08651385456323624, 0.025198886170983315, -0.038614071905612946, -0.03911777585744858,
    0.059994179755449295, -0.06040715053677559, 0.007860742509365082, 0.06877133995294571,
    -0.006000294350087643, -0.08668696880340576, 0.07680324465036392, -0.028639987111091614,
    -0.08015178889036179, 0.09131433814764023, -0.022523939609527588, -0.0069130705669522285,
    -0.0964314341545105, 0.06508354842662811, -0.06702321022748947, 0.019198602065443993,
    0.0958818644285202, -0.025661030784249306, 0.02685660868883133, 0.06843078881502151,
    -0.02998090162873268, -0.05950911343097687, 0.048272501677274704, 0.027112051844596863,
    -0.04867754504084587, -0.05578663572669029, 0.09176240116357803, 0.02424226701259613,
    -0.08429668843746185, 0.07769203931093216, -0.0015009345952421427, -0.09044933319091797,
    0.06939051300287247, -0.08672355860471725, -0.07216960191726685, -0.055588867515325546,
    -0.07827857881784439, -0.019400954246520996, -0.05413481220602989, 0.034280695021152496,
    -0.006843879818916321, 0.01777990162372589, 0.056028611958026886, -0.09010171890258789,
    -0.08769112825393677, 0.01674274355173111, 0.056475184857845306, 0.09894394129514694,
    0.07023117691278458, -0.02420087158679962, -0.023337766528129578, 0.05923209339380264,
    -0.029064223170280457, 0.04360482841730118, 0.08311352878808975, -0.08760171383619308,
    -0.01834024488925934, 0.005694553256034851, 0.0319172665476799, 0.04974495619535446,
    -0.0991629883646965, 0.09397313743829727, -0.042573001235723495, -0.07494311034679413,
    0.09185092896223068, 0.04348281770944595, -0.05450396612286568, -0.005477048456668854,
    -0.04235520586371422, -0.09919879585504532, -0.025739625096321106, 0.0766943171620369,
    -0.03184296935796738, -0.05451096221804619, 0.09441915899515152, -0.019309237599372864,
    0.04448371008038521, -0.0888431966304779, -0.08065766841173172, 0.002129690023139119,
    0.06712881475687027, -0.039813388139009476, 0.07907295227050781, -0.04951735958456993,
    0.005979519337415695, 0.032987672835588455, -0.0009590032859705389, 0.06817995011806488,
    0.0690217837691307, -0.09257467091083527, 0.006037810817360878, -0.02545240893959999,
    0.02724386937916279, -0.08541325479745865, -0.03536694496870041, -0.0386035218834877,
    0.02490224689245224, -0.03344729170203209, -0.03962947055697441, 0.054703302681446075,
    0.0602562390267849, 0.019323594868183136, -0.03151105344295502, -0.06774280220270157,
    -0.03886934369802475, -0.01118491031229496, -0.03200993314385414, 0.04409246891736984,
    0.037257324904203415, 0.07990642637014389, -0.07391528785228729, 0.01379940565675497,
    -0.06342124193906784, 0.07864734530448914, -0.025478363037109375, 0.00391079718247056,
    0.029775284230709076, 0.05171068385243416, 0.06313668936491013, -0.03687480092048645,
    -0.024459024891257286, -0.008111444301903248, 0.09345170110464096, 0.08330544084310532,
    -0.005689556710422039, 0.023287678137421608, -0.012313679791986942, 0.08029485493898392,
    -0.014832712709903717, 0.09916958957910538, -0.005668516270816326, -0.09381389617919922,
    0.08925508707761765, 0.0832894816994667, -0.09872531145811081, 0.0015171319246292114,
    -0.017887450754642487, 0.016500398516654968, -0.09543774276971817, 0.058314017951488495,
    0.03663288801908493, 0.027965672314167023, -0.01922757923603058, -0.07250670343637466,
    -0.0735045075416565, 0.010450199246406555, -0.05879953131079674, 0.05020274966955185,
    -0.09648560732603073, -0.005500495433807373, -0.051282670348882675, 0.0678606852889061,
    0.053413160145282745, 0.05027177184820175, -0.023137547075748444, 0.0615542009472847,
    0.03745853155851364, -0.039028145372867584, -0.09678129106760025, -0.044139087200164795,
    -0.047402072697877884, 0.08238200098276138, -0.0949041023850441, 0.028219304978847504,
    -0.06948301941156387, -0.04067004844546318, -0.09975365549325943, 0.05090724676847458,
    0.0889701321721077, 0.060328491032123566, 0.042251117527484894, -0.04213268682360649,
    -0.056119274348020554, -0.0962199792265892, 0.045198746025562286, -0.034922003746032715,
    -0.0836523100733757, 0.056244149804115295, -0.02928845025599003, 0.04174906015396118,
    0.07064291834831238, 0.07411544024944305, -0.09383969008922577, 0.08292385935783386,
    -0.02496110461652279, -0.08321332931518555, 0.025732284411787987, 0.08011367172002792,
    -0.016182279214262962, -0.0726957693696022, 0.08785618841648102, -0.0007194504141807556,
    0.0712541714310646, 0.08889884501695633, -0.03101559355854988, 0.09794443100690842,
    0.07480029761791229, -0.005874326918274164, 0.06239866465330124, 0.09841910749673843,
    0.03934527188539505, 0.09257758408784866, 0.07817099243402481, 0.03030087612569332,
    0.03386906534433365, 0.06988581269979477, 0.09858866780996323, -0.053737249225378036,
    -0.01445384044200182, -0.01371212862432003, 0.039254508912563324, -0.025816865265369415,
    -0.07389900088310242, -0.07372786849737167, 0.019134612753987312, 0.01858028583228588,
    0.011434441432356834, -0.03601866215467453, 0.080331951379776, 0.032773859798908234,
    0.02312937192618847, 0.013091989792883396, -0.06892841309309006, 0.054626088589429855,
    0.07688091695308685, 0.09738928824663162, -0.09303305298089981, -0.0005203441833145916,
    -0.005484901834279299, -0.03208215907216072, 0.08864450454711914, 0.06943155080080032,
    -0.06987454742193222, 0.06648754328489304, -0.041813623160123825, -0.06569977104663849,
    -0.07475155591964722, 0.013917341828346252, 0.06623411923646927, -0.071660116314888,
    0.017203375697135925, -0.02403322607278824, -0.09369349479675293, 0.037780098617076874,
    0.09047342091798782, -0.026785455644130707, -0.0279882550239563, 0.029449529945850372,
    -0.09331285953521729, 0.08984430879354477, 0.05179388076066971, -0.09398694336414337,
    -0.06733337789773941, 0.08825372904539108, -0.018024981021881104, 0.09191090613603592,
    -0.061643850058317184, -0.08559739589691162, 0.08308436721563339, 0.03964824229478836,
    0.026954956352710724, 0.04681941121816635, -0.06422668695449829, 0.07977081090211868,
    -0.015627644956111908, -0.012287162244319916, 0.07647237926721573, 0.08247467130422592,
    -0.016169369220733643, 0.04301781207323074, 0.033244214951992035, -0.06891842186450958,
    0.041506893932819366, -0.020670846104621887, 0.0015748515725135803, -0.045218776911497116,
    -0.09150184690952301, 0.09225449711084366, 0.0012457804987207055, -0.04862426221370697,
    0.07161474972963333, 0.026848429813981056, 0.052509646862745285, 0.06891918927431107,
    0.019928449764847755, -0.05114956200122833, 0.01235587801784277, -0.008313176222145557,
    0.028539497405290604, 0.051871225237846375, -0.06462258845567703, -0.08418476581573486,
    -0.06905166059732437, -0.03228061646223068, 0.04247056692838669, 0.04023747891187668,
    0.07829137146472931, 0.007878432050347328, -0.09272121638059616, 0.024855472147464752,
    -0.03629191219806671, -0.06849101930856705, 0.08213668316602707, -0.04289431497454643,
    0.06594795733690262, -0.07262386381626129, -0.05126423016190529, -0.08519294112920761,
    0.045349426567554474, -0.10215175151824951, 0.06421317905187607, -0.01923253759741783,
    0.0805281400680542, -0.02962787076830864, -0.08044353127479553, 0.0077112335711717606,
    0.056391119956970215, -0.08822285383939743, -0.07520987093448639, 0.06206592544913292,
    -0.08740495890378952, -0.009620767086744308, -0.0348547026515007, -0.07796028256416321,
    -0.07790507376194, -0.055010102689266205, 0.04061282426118851, 0.04003217816352844,
    0.05116964131593704, -0.004453475587069988, -0.01768762245774269, -0.0170106440782547,
    0.034463070333004, -0.0685967206954956, -0.008926473557949066, 0.08341672271490097,
    0.08346987515687943, 0.07319385558366776, 0.07743456214666367, 0.015218712389469147,
    0.09408428519964218, 0.07102126628160477, 0.0020751580595970154, 0.05235505849123001,
    -0.009330332279205322, 0.09724052995443344, 0.014188811182975769, -0.05736164003610611,
    -0.07246772199869156, 0.08626692742109299, -0.017471112310886383, -0.08521474897861481,
    -0.028677627444267273, 0.06427835673093796, 0.06512712687253952, -0.05307478830218315,
    0.015478931367397308, 0.056136466562747955, 0.090999074280262, 0.00583021342754364,
    -0.0974249392747879, -0.015007637441158295, -0.0630793422460556, 0.0006398707628250122,
    -0.013817168772220612, -0.09399750083684921, 0.04633934050798416, 0.011109508574008942,
    0.09592943638563156, 0.058424241840839386, -0.03026328980922699, 0.0794283077120781,
    -0.022409997880458832, 0.006491348147392273, -0.01628100872039795, 0.022407695651054382,
    0.04305185377597809, 0.03623063117265701, -0.07791896909475327, -0.08553841710090637,
    0.08798578381538391, 0.0702478289604187, 0.04250231012701988, -0.0519038662314415,
    0.08937940001487732, 0.07432711869478226, 0.027958819642663002, 0.08984308689832687,
    -0.09713436663150787, 0.08826343715190887, -0.09155750274658203, 0.09342736005783081,
    -0.03590087965130806, 0.03134368360042572, -0.08446106314659119, 0.0546024814248085,
    -0.07062765955924988, -0.06723257899284363, 0.007907688617706299, -0.06894035637378693,
    0.08715785294771194, 0.0813380628824234, 0.06037683039903641, 0.02807530015707016,
    0.03780224919319153, 0.003875632770359516, 0.0737077072262764, -0.018345769494771957,
    -0.0829804390668869, 0.002365433145314455, 0.0013454779982566833, -0.0895748883485794,
    0.07649940997362137, -0.02709830366075039, -0.07409776747226715, -0.06065940856933594,
    -0.05096388980746269, 0.03269407898187637, -0.013060763478279114, -0.08675161004066467,
    0.05653059482574463, -0.024553943425416946, -0.04606039449572563, -0.03317178785800934,
    -0.09967422485351562, -0.09030885249376297, 0.07653535902500153, 0.0044796401634812355,
    -0.02678024023771286, 0.029297731816768646, 0.0914066955447197, -0.034160591661930084,
    0.08309824019670486, -0.07878384739160538, -0.06494304537773132, -0.01217571645975113,
    0.056649960577487946, 0.09572190791368484, -0.04765063524246216, 0.04753591865301132,
    0.02276691049337387, 0.09243316203355789, -0.06697978079319, 0.03918994218111038,
    -0.08249769359827042, -0.04261390119791031, 0.09530805796384811, -0.06633549928665161,
    0.07156873494386673, 0.011793151497840881, 0.04507196694612503, -0.0006349906325340271,
    -0.01131816953420639, 0.08107409626245499, 0.02264384925365448, -0.05825303867459297,
    -0.03693348169326782, -0.0017403960227966309, -0.0284714475274086, -0.04332941770553589,
    0.024332717061042786, -0.020686350762844086, 0.03861149400472641, 0.059945277869701385,
    0.02528495341539383, -0.08848216384649277, -0.07564171403646469, -0.019244372844696045,
    0.016068778932094574, -0.042668260633945465, -0.09096374362707138, -0.0873761922121048,
    -0.08847071975469589, -0.00018813461065292358, -0.06557700783014297, -0.03896939754486084,
    -0.027118036523461342, -0.07558324933052063, -0.055991947650909424, 0.026424864307045937,
    -0.03745322301983833, 0.06311605125665665, -0.058732591569423676, 0.03955220803618431,
    0.058348648250103, -0.009232656098902225, 0.0829998105764389, 0.0020826454274356365,
    -0.04309878125786781, -0.03540454059839249, 0.0028504582587629557, 0.08424344658851624,
    -0.007557284086942673, -0.03843368589878082, -0.09883391857147217, -0.06024228036403656,
    -0.09121334552764893, 0.003783484222367406, 0.030710123479366302, 0.02779444307088852,
    -0.061870213598012924, -0.0041995057836174965, -0.08134766668081284, 0.0690176784992218,
    0.00531926192343235, -0.04566790163516998, -0.029429636895656586, 0.018128320574760437,
    0.04722776636481285, -0.002610716037452221, -0.09404174238443375, -0.02061627432703972,
    0.01019185222685337, 0.09405316412448883, 0.08235190808773041, 0.08709657937288284,
    0.07011342793703079, 0.07393074780702591, -0.0849304273724556, 0.0708245038986206,
    0.03692580386996269, 0.03803376853466034, 0.05570865422487259, 0.09545380622148514,
    0.01720653474330902, -0.03737100586295128, -0.07622537016868591, 0.0684376209974289,
    -0.03427666798233986, -0.07625062018632889, -0.023021206259727478, 0.05224449187517166,
    -0.06736879050731659, 0.09892716258764267, -0.032697997987270355, 0.08833704143762589,
    0.026003845036029816, -0.049327027052640915, -0.030800022184848785, -0.005257144570350647,
    0.041962943971157074, 0.07421524077653885, 0.048045046627521515, 0.07257149368524551,
    0.09745285660028458, -0.09078270196914673, -0.004142463207244873, 0.05865686386823654,
    0.014889873564243317, 0.08239055424928665, 0.02328924834728241, 0.07492727786302567,
    0.03694630414247513, -0.09938297420740128, -0.035429224371910095, 0.05036068707704544,
    0.012581661343574524, 0.08653385192155838, -0.06706163287162781, -0.0262681245803833,
    -0.09471265226602554, -0.0026516690850257874, 0.04279585927724838, -0.061917494982481,
    -0.08660999685525894, -0.09051483124494553, -0.014034852385520935, -0.0739719420671463,
    -0.06475521624088287, 0.05923307687044144, -0.06497776508331299, -0.08846663683652878,
    0.09604743868112564, -0.0774308443069458, -0.09835902601480484, -0.05095319822430611,
    -0.08406508713960648, -0.002783453091979027, 0.05195657163858414, 0.04484862834215164,
    -0.041599683463573456, -0.05633153021335602, 0.06223566457629204, -0.08224676549434662,
    -0.047498371452093124, -0.01100563071668148, 0.017600879073143005, -0.019878961145877838,
    0.05501880496740341, 0.007139706984162331, -0.056277692317962646, -0.09229036420583725,
    -0.08263038098812103, -0.01672196388244629, 0.055622316896915436, -0.04866696521639824,
    0.02733772248029709, -0.05073263868689537, -0.03743062913417816, -0.06653648614883423,
    0.01994943618774414, 0.041124604642391205, -0.0333796888589859, 0.059291668236255646,
    -0.06991048902273178, 0.05224455147981644, -0.023346200585365295, -0.002409137785434723,
    0.06547834724187851, -0.005535401403903961, 0.038200743496418, 0.06308744102716446,
    -0.09223387390375137, 0.03370549529790878, -0.031765781342983246, 0.03193425387144089,
    -0.048367321491241455, 0.01837678998708725, 0.07726117223501205, 0.04134053736925125,
    0.07381095737218857, 0.09940340369939804, 0.09084068238735199, 0.07146579027175903,
    -0.032723091542720795, -0.028119824826717377, -0.08532784134149551, -0.012388631701469421,
    -0.04021337255835533, -0.03958437591791153, 0.05354095250368118, 0.03361835330724716,
    0.019625723361968994, 0.04988197237253189, -0.015829190611839294, -0.07778993993997574,
    -0.04088388755917549, 0.031055830419063568, 0.013012424111366272, -0.05848133563995361,
    -0.09340362995862961, -0.08862292766571045, -0.024745866656303406, -0.05221846327185631,
    0.06190652400255203, -0.09366954863071442, 0.050710104405879974, -0.04835573583841324,
    -0.004060529172420502, -0.050496041774749756, -0.04893166944384575, 0.08379722386598587,
    0.02814268320798874, -0.0923549085855484, -0.04589373990893364, -0.06997610628604889,
    -0.07078870385885239, -0.07135500013828278, -0.09811246395111084, 0.004368767142295837,
    0.09424801915884018, 0.015115298330783844, 0.0589933916926384, 0.016734376549720764,
    0.0684312954545021, -0.08593825250864029, -0.022586621344089508, 0.03937052935361862,
    -0.01413562148809433, -0.0064130425453186035, 0.05127926915884018, 0.09666068106889725,
    0.07284862548112869, 0.012474596500396729, -0.07150523364543915, 0.0035599470138549805,
    -0.07244260609149933, -0.053068067878484726, 0.02632538229227066, 0.035183168947696686,
    0.0837923064827919, -0.032531581819057465, 0.024523243308067322, 0.01954062283039093,
    -0.06729374080896378, -0.03931264951825142, 0.06385422497987747, 0.0002745017409324646,
    0.09105106443166733, 0.0949263647198677, 0.0418851301074028, -0.04227536916732788,
    -0.017401516437530518, 0.09454327076673508, 0.046882472932338715, 0.06564874202013016,
    -0.07594756782054901, -0.07843712717294693, 0.03941268473863602, -0.09264826774597168,
    -0.045531727373600006, 0.03745756298303604, -0.022527121007442474, -0.08755089342594147,
    -0.08060140907764435, -0.025419913232326508, 0.05982648581266403, 0.07334061712026596,
    -0.043450262397527695, 0.01797597110271454, 0.04960774630308151, 0.09891391545534134,
    -0.029863759875297546, -0.08396583795547485, -0.0810374990105629, -0.014587245881557465,
    -0.022040463984012604, -0.015526846051216125, -0.08968950808048248, -0.03991203382611275,
    -0.09757532924413681, -0.07183649390935898, -0.05534886196255684, -0.000894688069820404,
    0.021597877144813538, -0.0839240550994873, -0.009038828313350677, -0.07252941280603409,
    -0.04948936775326729, -0.09884649515151978, 0.00616069883108139, 0.0905035212635994,
    -0.030715227127075195, 0.09917684644460678, 0.015660129487514496, -0.0710134282708168,
    0.08271979540586472, -0.014081515371799469, 0.04044704884290695, -0.01959703117609024,
    0.01814035326242447, -0.035771049559116364, -0.00813988596200943, 0.09472716599702835,
    -0.08527680486440659, 0.08182025700807571, -0.0024972185492515564, 0.0982360914349556,
    0.06089714914560318, -0.03083524852991104, 0.03692186623811722, 0.035278864204883575,
    -0.032444581389427185, 0.057702310383319855, 0.06377435475587845, -0.048128675669431686,
    0.045911289751529694, -0.018677368760108948, -0.012669838964939117, 0.0703975036740303,
    -0.030351996421813965, 0.03612072020769119, 0.010430201888084412, 0.03505707532167435,
    -0.02863290160894394, 0.0005481839179992676, 0.08978330343961716, 0.062078721821308136,
    0.04495031386613846, 0.0690344050526619, -0.06987376511096954, 0.083572618663311,
    0.052679188549518585, 0.08353694528341293, -0.043966807425022125, -0.03432271629571915,
    0.064805768430233, 0.07828620076179504, -0.0406700074672699, -0.0971790999174118,
    0.032319825142621994, -0.04085179418325424, -0.02051757276058197, 0.07869991660118103,
    -0.09475435316562653, -0.037031691521406174, -0.04217749089002609, -0.005601818207651377,
    -0.05960635840892792, -0.08448973298072815, 0.05053592845797539, 0.016703888773918152,
    -0.07223214954137802, -0.09811392426490784, 0.009484374895691872, 0.025663701817393303,
    -0.07373233884572983, -0.09761402755975723, -0.04829224571585655, 0.06398218870162964,
    0.052704133093357086, 0.01883847638964653, -0.03371967375278473, 0.003102923044934869,
    0.06619138270616531, 0.04220792278647423, -0.03073825314640999, -0.09287959337234497,
    -0.08850492537021637, -0.0651053860783577, 0.0826132670044899, -0.00896345917135477,
    -0.0008093792130239308, -0.06075277179479599, -0.1001257449388504, 0.06883082538843155,
    0.04846847057342529, -0.03373784199357033, 0.050988562405109406, 0.059908799827098846,
    -0.03123522363603115, 5.721760680899024e-5, 0.0896904394030571, 0.09052406996488571,
    0.04205339774489403, -0.03554417937994003, -0.01109156385064125, -0.050229497253894806,
    -0.02672819420695305, 0.03257518634200096, -0.08303412050008774, 0.04058708995580673,
    -0.09336107224225998, -0.00787806510925293, -0.07166089862585068, 0.05251584202051163,
    -0.07376273721456528, -0.01571476459503174, -0.06001972034573555, 0.028402559459209442,
    0.00237371027469635, 0.03684072941541672, 0.037748463451862335, 0.055467553436756134,
    -0.05160699039697647, 0.010840833187103271, 0.08620107918977737, 0.04973847419023514,
    -0.09892960637807846, 0.06742172688245773, -0.04311981424689293, -0.055491652339696884,
    -0.0575614832341671, -0.004762366414070129, -0.027819015085697174, 0.0438314750790596,
    -0.02918262779712677, -0.03147697448730469, -0.0285186767578125, 0.00884171575307846,
    -0.05429422855377197, 0.02082935720682144, -0.015828534960746765, -0.07595570385456085,
    0.07888393849134445, -0.04973727464675903, -0.0027840882539749146, 0.08879940956830978,
    -0.02140643447637558, 0.08728332072496414, 0.064992256462574, 0.05767286568880081,
    -0.07034989446401596, 0.03278268128633499, -0.036539748311042786, 0.05639078468084335,
    -0.05942845344543457, -0.02709101140499115, 0.06549019366502762, 0.08730652183294296,
    -0.043662942945957184, -0.09630197286605835, 0.0622238889336586, 0.049903519451618195,
    0.014136448502540588, 0.03180565685033798, 0.08460433036088943, 0.08653450757265091,
    -0.02613048255443573, 0.022516347467899323, -0.06346073746681213, 0.09268210083246231,
    0.04767977446317673, -0.05995393916964531, -0.07963714748620987, -0.007862687110900879,
    -0.002991974353790283, 0.001296505331993103, 0.0158020481467247, 0.03359747678041458,
    -0.08427470922470093, -0.00037623941898345947, 0.01829376071691513, 0.04891032725572586,
    -0.048344314098358154, 0.027304239571094513, 0.05515361577272415, 0.0334584042429924,
    0.02314983308315277, -0.022560976445674896, 0.039216525852680206, -0.011703096330165863,
    -0.0029000043869018555, 0.0390707328915596, -0.04244956001639366, -0.067575603723526,
    -0.06106993183493614, -0.03742126375436783, -0.09918227046728134, 0.04479513317346573,
    -0.09557215124368668, -0.01698760688304901, 0.0735519602894783, 0.09652888029813766,
    -0.03640703856945038, -0.05344269424676895, -0.04683457687497139, -0.07673172652721405,
    0.0323362722992897, 0.06289530545473099, -0.013745151460170746, -0.03335104137659073,
    -0.06170004606246948, -0.06667134910821915, 0.05814757198095322, -0.010875679552555084,
    -0.03521932661533356, 0.023897089064121246, -0.04679672792553902, -8.394569158554077e-5,
    0.05937803536653519, -0.07116872072219849, -0.09966631978750229, -0.03093494474887848,
    -0.04976261779665947, 0.027715839445590973, 0.0385398343205452, 0.05581802874803543,
    -0.07672645896673203, 0.05146203190088272, -0.015264332294464111, -0.048395004123449326,
    -0.026006639003753662, 0.00769033282995224, 0.05056292563676834, 0.06579213589429855,
    -0.08647948503494263, 0.008758224546909332, 0.048077814280986786, -0.01738365739583969,
    0.06051719933748245, -0.051367223262786865, 0.008383229374885559, 0.04442692548036575,
    -0.07899556308984756, 0.099776990711689, 0.03443301469087601, -0.04538315534591675,
    0.04532218724489212, -0.05235696956515312, 0.09094629436731339, -0.039141010493040085,
    0.029594548046588898, 0.018724821507930756, -0.04420645162463188, 0.06027022749185562,
    0.08221708238124847, 0.045057591050863266, -0.008856525644659996, 0.06849168986082077,
    0.008975507691502571, 0.039654139429330826, 0.10008189082145691, 0.052850253880023956,
    -0.09620708227157593, -0.09322749078273773, 0.045645661652088165, 0.016225244849920273,
    -0.02314813993871212, 0.06359364092350006, 0.0008023972623050213, 0.05578096956014633,
    0.03674323856830597, 0.0820791944861412, 0.022505514323711395, -0.10218103975057602,
    -0.05975865572690964, -0.10081766545772552, 0.044683001935482025, -0.08092116564512253,
    0.09644096344709396, -0.06393954157829285, -0.00049581378698349, -0.09706569463014603,
    0.05377170816063881, 0.08987391740083694, -0.09070828557014465, -0.04339269921183586,
    -0.059256087988615036, 0.05881326273083687, -0.06523094326257706, 0.023067208006978035,
    -0.014451839961111546, 0.05000976845622063, -0.07462367415428162, 0.08302944153547287,
    -0.0331585519015789, -0.03502852842211723, 0.09419908374547958, 0.06498067080974579,
    -0.08689568936824799, -0.056846436113119125, -0.09933917969465256, 0.07362259924411774,
    0.0603766143321991, 0.09440512955188751, -0.03101668693125248, -0.06227656826376915,
    0.05793674290180206, -0.08359120786190033, 0.04729601368308067, -0.005379080772399902,
    -0.08210430294275284, -0.004526615142822266, -0.06843163073062897, 0.0706898495554924,
    0.021167457103729248, 0.09062949568033218, -0.034565091133117676, -0.09363164007663727,
    0.029666535556316376, 0.0679052546620369, 0.09629466384649277, -0.050998058170080185,
    -0.09696958214044571, 0.026177696883678436, -0.019971266388893127, 0.05346692353487015,
    -0.07686416059732437, -0.032975077629089355, -0.03354305028915405, 0.008439801633358002,
    -0.08404122292995453, 0.05736403912305832, 0.028403498232364655, 0.0988195464015007,
    -0.04166470840573311, -0.05350668355822563, 0.06513684242963791, -0.03670356422662735,
    -0.08857586234807968, 0.057106323540210724, -0.07694468647241592, -0.009547017514705658,
    0.07914883643388748, 0.07504353672266006, -0.06743375957012177, -0.0911700651049614,
    -0.07407846301794052, -0.017297670245170593, 0.08938413113355637, -0.06582210958003998,
    0.0356474295258522, -0.063251793384552, 0.09715200215578079, -0.046345509588718414,
    0.030545823276042938, 0.06397846341133118, -0.09076842665672302, -0.0035970215685665607,
    0.018071960657835007, -0.04112637788057327, -0.013678556308150291, -0.009468953125178814,
    -0.06468068808317184, -0.005677236709743738, -0.04561696574091911, 0.09887963533401489,
    0.04824988543987274, 0.008002541959285736, 0.03999399021267891, -0.0355985090136528,
    0.09035202115774155, 0.045422039926052094, -0.05480307340621948, 0.06985235214233398,
    -0.03200044855475426, -0.010633551515638828, -0.004182890057563782, -0.04679787904024124,
    0.04172315075993538, -0.08963203430175781, 0.03662537783384323, -0.033121079206466675,
    -0.09504508227109909, -1.121696550399065e-5, 0.029034549370408058, -0.04182891920208931,
    0.08276837319135666, -0.09763975441455841, -0.04925407096743584, 0.08824712783098221,
    0.05629446357488632, -0.0161052905023098, 0.07585623860359192, -0.0350564643740654,
    0.045438252389431, 0.01089779008179903, -0.07331621646881104, -0.08808349072933197,
    0.09427481889724731, -0.034666161984205246, -0.07071692496538162, 0.0656343474984169,
    0.038018908351659775, -0.019209513440728188, 0.0436466708779335, 0.08627639710903168,
    -0.058762483298778534, -0.034133926033973694, 0.05022268369793892, 0.05419420450925827,
    -0.055754732340574265, -0.0972241684794426, -0.052580904215574265, -0.01895265281200409,
    0.04514671117067337, 0.05634289234876633, -0.041728902608156204, -0.06031832844018936,
    0.08221007138490677, 0.01560153067111969, 0.08713636547327042, -0.0012686699628829956,
    0.03922893851995468, -0.07955827564001083, -0.08944877237081528, 0.005902007222175598,
    0.04428384453058243, -0.09886222332715988, 0.04201392084360123, -0.0444941408932209,
    -0.03633761405944824, 0.035828910768032074, -0.06781181693077087, 0.05752604454755783,
    -0.02513180673122406, -0.011423274874687195, 0.012941397726535797, -0.004586145281791687,
    0.045492611825466156, -0.03182457387447357, -0.02867349237203598, -0.03499157726764679,
    0.053987689316272736, 0.04447590559720993, -0.06445764005184174, -0.09132122248411179,
    -0.09430409967899323, 0.08427131921052933, 0.04586271196603775, 0.02932562679052353,
    0.00884796679019928, 0.00024332106113433838, 0.0838378295302391, -0.057560909539461136,
    -0.03227676451206207, 0.08186045289039612, -0.09821192175149918, 0.07789979875087738,
    0.039719920605421066, 0.09115558117628098, -0.0048078447580337524, 0.0669638067483902,
    0.04575801640748978, -0.023549988865852356, 0.05754475295543671, 0.005820713937282562,
    -0.08066429942846298, 0.036579493433237076, -0.05606449022889137, 0.018118586391210556,
    -0.0725153386592865, 0.0201018787920475, -0.05187471956014633, -0.04611366614699364,
    0.015807069838047028, 0.03444265201687813, -0.09097399562597275, -0.032344408333301544,
    0.07504156231880188, 0.0959392786026001, 0.08539558202028275, -0.046297818422317505,
    0.03940761834383011, -0.011576531454920769, 0.06488708406686783, 0.050121892243623734,
    0.05475402995944023, 0.05038239061832428, 0.06457104533910751, 0.033274151384830475,
    0.062284085899591446, 0.0339060053229332, -0.05303452908992767, 0.08438067138195038,
    0.03279077634215355, 0.0369999036192894, -0.06915897130966187, 0.005802762694656849,
    0.07274668663740158, -0.02270825020968914, 0.03921626880764961, 0.02566603198647499,
    -0.08497746288776398, 0.007761315908282995, 0.06686200946569443, -0.08449824154376984,
    0.01045549288392067, 0.022138062864542007, -0.0989830419421196, -0.008593693375587463,
    -0.0653735101222992, -0.07644587755203247, 0.0639788880944252, -0.05377107858657837,
    0.04518667608499527, -0.0603138692677021, 0.08772601932287216, 0.00949929654598236,
    0.07174722105264664, -0.023331627249717712, -0.09503697603940964, 0.05135878175497055,
    -0.06466380506753922, 0.04914706200361252, 0.09585791081190109, -0.011357501149177551,
    0.033789195120334625, 0.05623245984315872, 0.02532283216714859, -0.00909898430109024,
    -0.02438751608133316, -0.09093060344457626, -0.08799898624420166, -0.049091458320617676,
    -0.013823471963405609, -0.07841310650110245, -0.013873279094696045, 0.012056469917297363,
    0.03463668376207352, -0.028877533972263336, 0.038292594254016876, 0.09141308814287186,
    0.09647863358259201, 0.021470285952091217, 0.033707909286022186, 0.009221628308296204,
    -0.05020136758685112, 0.02109849452972412, 0.07382518798112869, -0.08121267706155777,
    0.08297700434923172, -0.08368058502674103, 0.08026628941297531, 0.020648933947086334,
    -0.08000196516513824, -0.06114210933446884, 0.07946999371051788, 0.010650254786014557,
    -0.021870266646146774, -0.02118055894970894, -0.04853460192680359, 0.06722108274698257,
    0.04444783926010132, -0.016648922115564346, -0.09424851834774017, 0.09335267543792725,
    -0.004174144938588142, -0.0817842185497284, 0.07395383715629578, 0.09581424295902252,
    -0.08261622488498688, 0.08142637461423874, 0.011184217408299446, 0.040311429649591446,
    0.08797530829906464, -0.09790150821208954, 0.005764290690422058, -0.0465996153652668,
    -0.03230712190270424, 0.03524131700396538, 0.033990658819675446, -0.09006758034229279,
    0.04832440987229347, 0.07210604101419449, 0.0075920517556369305, 0.06830789148807526,
    -0.07958336174488068, 0.0422862283885479, 0.05323488265275955, -0.014097270555794239,
    0.08992233872413635, -0.009901332668960094, -0.04762992262840271, 0.03594756871461868,
    -0.0792316123843193, 0.06499860435724258, 0.0022567007690668106, 0.02508494257926941,
    0.08663082867860794, 0.051552463322877884, -0.07272304594516754, 0.048208508640527725,
    -0.034115277230739594, -0.01049831137061119, -0.021252132952213287, -0.017642106860876083,
    0.013970390893518925, -0.09300917387008667, -0.047143448144197464, -0.023185953497886658,
    -0.061835359781980515, 0.06978758424520493, -0.025703012943267822, 0.06134504824876785,
    -0.03474338352680206, 0.06680519133806229, 0.0474211648106575, 0.05275370925664902,
    -0.0233575701713562, 0.0969410315155983, -0.08951690047979355, -0.09635651111602783,
    -0.04447367414832115, -0.016344264149665833, 0.08040832728147507, 0.06417859345674515,
    -0.023350730538368225, 0.023739323019981384, -0.03927677869796753, -0.024184010922908783,
    -0.061888840049505234, 0.08552233129739761, -0.007852435111999512, 0.09322493523359299,
    -0.01563218981027603, 0.043595679104328156, 0.007468856871128082, 0.05822654813528061,
    -0.012320265173912048, 0.06284637004137039, -0.05863389000296593, -0.056727588176727295,
    -0.0672922432422638, 0.0650438591837883, 0.07568243891000748, -0.0737709179520607,
    -0.08229068666696548, -0.03256326913833618, 0.05634903162717819, 0.05968024581670761,
    -0.022569358348846436, -0.01627647876739502, 0.012706734240055084, 0.09998191148042679,
    0.009183146059513092, -0.034772250801324844, 0.03777432069182396, -0.09562833607196808,
    0.08026379346847534, 0.09768350422382355, -0.06618683785200119, -0.04795173928141594,
    -0.01611090637743473, -0.06529800593852997, 0.0796053558588028, 0.007370979990810156,
    0.02913857251405716, -0.10031330585479736, 0.07857020944356918, 0.03215480595827103,
    -0.06769929826259613, 0.04659198969602585, -0.007183445151895285, 0.01294284500181675,
    0.03946386277675629, 0.020707447081804276, -0.01800493896007538, 0.08217308670282364,
    -0.062392450869083405, 0.08852267265319824, 0.06226857751607895, 0.02637392468750477,
    -0.09717045724391937, 0.03606574237346649, 0.05559469014406204, 0.016847774386405945,
    -0.042275939136743546, -0.08817671984434128, -0.04051607847213745, 0.05781782045960426,
    0.05509331822395325, -0.07689999043941498, -0.050626594573259354, -0.10123368352651596,
    0.07578766345977783, -0.07503247261047363, -0.025695981457829475, -0.10176320374011993,
    -0.030351247638463974, 0.020552784204483032, -0.01181741151958704, -0.09189821779727936,
    0.06274409592151642, 0.012648213654756546, 0.05554495379328728, 0.04984758421778679,
    0.04882807657122612, 0.004259930457919836, 0.07950356602668762, 0.08860646933317184,
    -0.02066659927368164, -0.08183314651250839, -0.0660410225391388, 0.044501252472400665,
    -0.05039011314511299, -0.021927550435066223, -0.03642792999744415, 0.00361613929271698,
    0.05290871113538742, 0.04879651218652725, 0.022925056517124176, -0.020065605640411377,
    0.0013025030493736267, -0.012105345726013184, -0.009344935417175293, -0.09914302080869675,
    -0.07948023080825806, 0.07806961983442307, -0.07444807142019272, -0.03487881273031235,
    0.05605775862932205, 0.03140770643949509, 0.05650625377893448, 0.007238507270812988,
    0.03381311148405075, 0.006881736218929291, -0.08467304706573486, 0.04843481630086899,
    -0.08696649223566055, -0.021822556853294373, -0.05219680070877075, 0.0800706222653389,
    -0.06366275250911713, 0.09457150846719742, -0.05419185385107994, 0.006921924650669098,
    0.003918372094631195, 0.06847121566534042, 0.059517450630664825, -0.03065885603427887,
    0.07726610451936722, 0.014671072363853455, -0.005302116274833679, 0.015212282538414001,
    0.0033064272720366716, 0.08283647894859314, 0.04019320383667946, 0.025367550551891327,
    0.003448847681283951, -0.032637063413858414, -0.010086441412568092, -0.03490758687257767,
    0.022732354700565338, 0.06486020982265472, 0.004490845836699009, -0.049560487270355225,
    -0.10245458781719208, 0.00908979494124651, -0.04566408693790436, -0.060504768043756485,
    -0.053272973746061325, -0.06981301307678223, 0.08819247037172318, 0.07895193994045258,
    0.07184705883264542, -0.003209222573786974, 0.08089376240968704, -0.016055945307016373,
    -0.033715616911649704, 0.09867618978023529, -0.0455891489982605, -0.0743517130613327,
    -0.09296050667762756, 0.046473871916532516, -0.03245823457837105, -0.013100741431117058,
    0.07022752612829208, -0.06686218827962875, 0.08221592754125595, -0.039227548986673355,
    0.06533505767583847, 0.08664494007825851, -0.010499686934053898, -0.017327241599559784,
    0.08716809004545212, 0.021343182772397995, 0.023082420229911804, 0.01328941062092781,
    0.058591555804014206, -0.032141175121068954, -0.0773911401629448, 0.08102686703205109,
    0.0016196186188608408, 0.05944228917360306, 0.06732296943664551, 0.06541091948747635,
    0.05497463047504425, -0.043410755693912506, -0.03210550546646118, 0.08426717668771744,
    0.05275111645460129, -0.021197915077209473, -0.014276102185249329, -0.06658639013767242,
    -0.06688487529754639, 0.022490859031677246, -0.06274888664484024, -0.06710109859704971,
    -0.009183332324028015, 0.03673017770051956, 0.020102307200431824, 0.0825425460934639,
    0.03860228508710861, 0.08796108514070511, 0.02001357078552246, -0.018761560320854187,
    -0.08246491849422455, 0.06203842908143997, -0.02583390474319458, 0.02462802827358246,
    0.036266572773456573, -0.0505361333489418, -0.03143469989299774, -0.0891331359744072,
    0.02473752200603485, -0.026826120913028717, -0.0701516717672348, 0.04501352459192276,
    0.09013225883245468, -0.05159367248415947, -0.0363781601190567, 0.028666503727436066,
    0.003526650369167328, 0.08002590388059616, 0.006323911249637604, 0.055031828582286835,
    -0.07748345285654068, -0.058326076716184616, -0.01374361664056778, 0.07798374444246292,
    -0.09768877178430557, -0.0018907636404037476, 0.057732321321964264, 0.04264042526483536,
    0.032295405864715576, -0.040520284324884415, -0.07767435163259506, 0.08690198510885239,
    -0.005325779784470797, 0.00599700165912509, 0.04438807815313339, -0.06284352391958237,
    -0.023388566449284554, -0.07747276872396469, -0.03496205806732178, 0.014018415473401546,
    -0.030149051919579506, 0.0661388710141182, 0.017173543572425842, -0.0632917657494545,
    0.07172674685716629, 0.026984240859746933, -0.09562238305807114, -0.08416847884654999,
    -0.07253555208444595, -0.05990568548440933, -0.0021855607628822327, -0.07962334156036377,
    0.054403163492679596, 0.08437719196081161, -0.08613214641809464, -0.027190640568733215,
    0.048996858298778534, -0.08948013931512833, 0.039748139679431915, 0.07248052209615707,
    0.005339086055755615, -0.09456207603216171, -0.027677729725837708, 0.06820756942033768,
    -0.012419034726917744, -0.07790759950876236, 0.0189337357878685, -0.05425387620925903,
    -0.07082898914813995, -0.003430187702178955, 0.024199053645133972, -0.06775126606225967,
    -0.0736909955739975, -0.05789361149072647, -0.0642339363694191, 0.016798505559563637,
    -0.02719043754041195, -0.09183362126350403, 0.03840809315443039, 0.024354565888643265,
    -0.08625268191099167, -0.03754384443163872, -0.047933485358953476, -0.019175663590431213,
    0.05442935973405838, 0.012194573879241943, -0.07563476264476776, 0.03485005348920822,
    0.02508082240819931, -0.049138832837343216, -0.008618198335170746, 0.05969942361116409,
    0.05265956372022629, -0.027650073170661926, -0.052428461611270905, 0.0790964737534523,
    -0.015271760523319244, 0.08392975479364395, 0.06706326454877853, -0.005678072571754456,
    -0.021761201322078705, -0.02101808786392212, -0.056199636310338974, -0.04699820280075073,
    -0.020105503499507904, 0.0020348206162452698, -0.04829315096139908, -0.013823486864566803,
    -0.006674125790596008, 0.05111856013536453, -0.09818681329488754, 0.006529271602630615,
    0.06591977924108505, 0.09417890757322311, 0.09003054350614548, 0.05696595460176468,
    -0.05322117730975151, -0.08651312440633774, 0.09968932718038559, -0.09373833239078522,
    0.07132858783006668, 0.021716222167015076, 0.062471307814121246, -0.0694638341665268,
    -0.09889344125986099, -0.04289865493774414, -0.029203511774539948, 0.07786161452531815,
    -0.04227549210190773, 0.021499520167708397, -0.008685411885380745, 0.05458435043692589,
    0.009531295858323574, 0.07271124422550201, 0.09849144518375397, 0.008381870575249195,
    -0.08732905238866806, -0.019728152081370354, -0.03677557781338692, 0.08188662678003311,
    0.0025657229125499725, -0.07234642654657364, 0.005573295056819916, -0.002043652581050992,
    0.06391379237174988, 0.07826927304267883, -0.024829799309372902, 0.06299596279859543,
    0.05066052824258804, -0.034680742770433426, 0.06613767892122269, 0.0649152472615242,
    -0.04718177393078804, -0.007637980859726667, 0.07143876701593399, -0.08518080413341522,
    0.07541011273860931, -0.0526622012257576, -0.059249162673950195, -0.047077618539333344,
    0.03774347901344299, -0.04361116141080856, -0.05399535968899727, -0.05134931951761246,
    0.04861585423350334, -0.03206491842865944, 0.019971143454313278, 0.057360630482435226,
    0.08143866807222366, 0.05823507159948349, 0.03440828621387482, 0.046840324997901917,
    -0.005540899001061916, 0.07643207907676697, 0.022093193605542183, -0.005387116689234972,
    -0.08962076902389526, 0.037482913583517075, -0.016728341579437256, -0.032483648508787155,
    -0.014292716048657894, 0.013649765402078629, 0.0023900694213807583, -0.08161326497793198,
    -0.09016209840774536, -0.012141421437263489, -0.007139421999454498, -0.018071159720420837,
    -0.09259500354528427, 0.023444078862667084, -0.01511584222316742, -0.07912886142730713,
    -0.0988747626543045, -0.0213899165391922, 0.011694148182868958, -0.06335306167602539,
    0.090721495449543, -0.04080035910010338, 0.001249171793460846, -0.026037968695163727,
    -0.03610886633396149, -0.02235572040081024, 0.01252058893442154, -0.03011639416217804,
    0.04989611357450485, 0.042381174862384796, 0.08921074122190475, 0.07725716382265091,
    0.047801293432712555, -0.03914246708154678, 0.062167875468730927, -0.018005013465881348,
    -0.014667272567749023, -0.018961213529109955, -0.05504559352993965, -0.07390956580638885,
