{
  "value_weights": [
    0.12791813910007477, -0.02149999514222145, 0.093014657497406, -0.12451164424419403,
    0.02019832469522953, 0.009269524365663528, 0.09282795339822769, -0.022181766107678413,
    -0.02197336219251156, 0.02136031724512577, 0.04847808554768562, 0.012268619611859322,
    -0.15758182108402252, -0.11539646238088608, -0.010503066703677177, -0.1210179403424263,
    -0.06084372103214264, 0.041807204484939575, -0.1320468783378601, -0.0026569347828626633,
    -0.10312273353338242, 0.07608380913734436, -0.14071448147296906, -0.09521817415952682,
    -0.009405635297298431, -0.10944964736700058, -0.0032096581999212503, 0.055614035576581955,
    -0.14416465163230896, -0.0314197763800621, -0.040846627205610275, -0.004366711713373661,
    -0.1761540174484253, -0.0443008616566658, -0.038526859134435654, 0.08856503665447235,
    -0.043063078075647354, 0.04666592925786972, 0.1954875886440277, -0.14864331483840942,
    -0.0468314029276371, 0.006967023015022278, 0.0570085383951664, -0.07444023340940475,
    -0.09907370060682297, 0.055309467017650604, -0.08649881929159164, -0.042942848056554794,
    -0.040738459676504135, 0.0035519194789230824, 0.03699105605483055, 0.030099667608737946,
    0.08741097897291183, 0.04499145597219467, -0.02063002623617649, -0.08810309320688248,
    0.00419684499502182, -0.07762730121612549, -0.002901613712310791, -0.016283869743347168,
    0.08095849305391312, 0.09965241700410843, 0.005932554602622986, 0.02988675981760025,
    0.004803158342838287, 0.01036592572927475, 0.09823594242334366, 0.0354081466794014,
    0.028060443699359894, 0.08237683027982712, -0.013870380818843842, 0.09433404356241226,
    0.019815102219581604, -0.04140448570251465, -0.010521456599235535, -0.017393171787261963,
    -0.04696575552225113, -0.07165072113275528, -0.04608489200472832, -0.05140317603945732,
    -0.08292008936405182, 0.047015853226184845, -0.08583350479602814, -0.011155806481838226,
    -0.08674720674753189, -0.06485090404748917, 0.021907031536102295, 0.0041141510009765625,
    -0.02452477067708969, -0.0008173957467079163, 0.08388295024633408, -0.029572144150733948,
    -0.008492991328239441, -0.0014166012406349182, 0.058289118111133575, -0.00797705352306366,
    -0.05242970213294029, -0.013586178421974182, 0.08525907248258591, -0.07449869811534882,
    -0.04608698934316635, 0.05276639759540558, -0.09366609901189804, 0.05605020001530647,
    -0.05075185373425484, -0.11168879270553589, 0.010692667216062546, 0.028729703277349472,
    0.05548906326293945, -0.029378725215792656, 0.10356935858726501, -0.022154532372951508,
    -0.024370964616537094, -0.06879513710737228, 0.011207574978470802, -0.058730222284793854,
    0.04571657255291939, 0.06129675731062889, -0.02030479907989502, -0.10594607889652252,
    -0.07228073477745056, -0.07487711310386658, 0.11116208881139755, -0.04497716203331947,
    -0.010021587833762169, -0.021842429414391518, 0.07368423044681549, -0.09507215768098831,
    -0.038432054221630096, 0.00951831042766571, -0.06563698500394821, 0.11295221745967865,
    0.01661650650203228, -0.03051980771124363, 0.028934665024280548, 0.03951824828982353,
    0.057494260370731354, 0.058064017444849014, -0.04960066080093384, -0.05645496025681496,
    -0.02219243347644806, 0.03280884400010109, 0.09663709253072739, -0.094267837703228,
    0.07886283844709396, -0.029406238347291946, -0.0020344010554254055, 0.045797187834978104,
    0.06285066902637482, 0.01965213567018509, 0.09517936408519745, 0.07265745848417282,
    0.00041757008875720203, -0.02956760860979557, -0.05090353265404701, 0.08988470584154129,
    -0.06015700101852417, -0.09352653473615646, -0.02048635482788086, 0.006468415260314941,
    0.09482050687074661, -0.09695149958133698, 0.04281660169363022, -0.046961355954408646,
    -0.09378576278686523, 0.02721620351076126, 0.053529538214206696, 0.07717699557542801,
    -0.07800741493701935, 0.09184419363737106, -0.08448459953069687, -0.09687602519989014,
    -0.09302138537168503, 0.08568406850099564, 0.027227886021137238, 0.09890633076429367,
    -0.08580074459314346, 0.06558120995759964, -0.0010842904448509216, 0.09435898810625076,
    0.01457425206899643, 0.06762490421533585, 0.09649693220853806, -0.06301470100879669,
    0.09003733843564987, 0.04470481723546982, 0.05854284018278122, -0.09275370836257935,
    0.01987546682357788, 0.055114515125751495, -0.02550669014453888, 0.057114191353321075,
    0.09625840932130814, -0.02225515991449356, -0.02933446317911148, 0.05296417325735092,
    0.02655128389596939, -0.020521067082881927, -0.08648373931646347, 0.08317673951387405,
    0.060921039432287216, -0.017490096390247345, -0.0793340727686882, 0.05361587554216385,
    0.05871284380555153, 0.023973612114787102, 0.0034279469400644302, 0.0843701958656311,
    0.09104487299919128, -0.10100527852773666, -0.07867548614740372, -0.060157667845487595,
    0.034852784126996994, 0.03231167048215866, 0.08804844319820404, 0.012338057160377502,
    -0.042694199830293655, -0.07319586724042892, -0.08530984073877335, 0.0973539724946022,
    0.05794128030538559, -0.018645260483026505, -0.012523584999144077, -0.07088802754878998,
    -0.00676746666431427, -0.02410118281841278, -0.004241786897182465, -0.08400926738977432,
    -0.05273643881082535, 0.004878580570220947, -0.08342912793159485, 0.036440618336200714,
    0.056780941784381866, -0.04577661678195, -0.012138918042182922, 0.07524683326482773,
    -0.01162025798112154, 0.01544854324311018, -0.08385699987411499, 0.009791653603315353,
    -0.04097674414515495, -0.014945518225431442, 0.020957989618182182, 0.00435648625716567,
    -0.034334696829319, -0.020342906937003136, -0.0769481360912323, 0.09280750900506973,
    -0.045534323900938034, -0.02054055966436863, -0.03640269488096237, -0.0852862298488617,
    -0.07686880230903625, -0.04407798871397972, -0.05473123863339424, 0.036262743175029755,
    -0.017247214913368225, -0.06064881011843681, 0.08216222375631332, -0.002779945731163025,
    0.06384658068418503, 0.08078988641500473, 0.0425233319401741, -0.05252784490585327,
    0.004732146859169006, 0.023577257990837097, -0.04020809009671211, -0.01156327873468399,
    -0.03187207132577896, 0.08470850437879562, 0.07561744004487991, -0.065276600420475,
    -0.09166504442691803, 0.07056353241205215, 0.08522409945726395, -0.033976949751377106,
    0.019367001950740814, -0.014568105340003967, 0.06814011186361313, -0.0006851404905319214,
    -0.08142099529504776, 0.06539485603570938, -0.02325703203678131, 0.008065715432167053,
    -0.06469811499118805, -0.09049089252948761, -0.0783483013510704, -0.06801155209541321,
    -0.08340994268655777, 0.09522377699613571, -0.07394806295633316, 0.0934976115822792,
    -0.07368569076061249, 0.09655309468507767, -0.03516807407140732, -0.016887463629245758,
    -0.032870806753635406, 0.00801762193441391, -0.03347267955541611, 0.09056652337312698,
    -0.1396593451499939, 0.022457672283053398, 0.023630771785974503, -0.08583073318004608,
    -0.02671012654900551, -0.11254306137561798, 0.02961578406393528, 0.062096837908029556,
    0.05973187834024429, -0.06241171061992645, 0.03399590402841568, -0.008480397053062916,
    0.08756354451179504, 0.05409641191363335, 0.050832826644182205, 0.04867362976074219,
    0.08533909171819687, 0.12082359194755554, -0.04539034143090248, 0.09939194470643997,
    0.056547947227954865, -0.04733351245522499, 0.053526271134614944, -0.07059432566165924,
    0.03869917616248131, -0.047339558601379395, 0.09811696410179138, 0.12306495755910873,
    0.10468243807554245, 0.004354533273726702, 0.06605079025030136, 0.1425916850566864,
    0.07226033508777618, 0.04704228416085243, 0.0797349289059639, -0.00017737246525939554,
    0.04208678752183914, -0.07142258435487747, 0.008238769136369228, 0.11557936668395996,
    -0.02737925387918949, 0.097957544028759, -0.03716139495372772, 0.003644834738224745,
    0.06683582067489624, -0.05633825808763504, 0.013263189233839512, -0.09566124528646469,
    -0.04051494598388672, 0.019098008051514626, 0.002910683397203684, 0.04272717982530594,
    0.09532468020915985, -0.06776020675897598, 0.0004130239540245384, -0.04521600157022476,
    -0.07389466464519501, 0.05325505882501602, 0.026281259953975677, 0.014203190803527832,
    -0.010068535804748535, 0.08515798300504684, -0.09145212173461914, 0.06097457557916641,
    0.024308323860168457, 0.02751312404870987, -0.09450757503509521, -0.05319258198142052,
    0.07887909561395645, -0.038426078855991364, 0.030267275869846344, 0.07519752532243729,
    -0.06815282255411148, -0.09924979507923126, -0.038839198648929596, 0.08011896163225174,
    -0.04422498866915703, -0.0040246471762657166, -0.051763951778411865, 0.02113984525203705,
    -0.0002045854926109314, -0.0039013177156448364, 0.08093679696321487, -0.04868236929178238,
    -0.024147793650627136, 0.025208093225955963, 0.0004733949899673462, -0.05724812671542168,
    0.09073782712221146, 0.08356446772813797, 0.09602836519479752, 0.03282090276479721,
    -0.08690062910318375, 0.06835771352052689, 0.05077148228883743, -0.008359946310520172,
    -0.08975956588983536, -0.01606886088848114, 0.05372387915849686, -0.03118978440761566,
    -0.0403287298977375, -0.02350381389260292, 0.05792958289384842, -0.03492756187915802,
    -0.038578953593969345, -0.07361803948879242, 0.03845730423927307, 0.17022795975208282,
    0.07890002429485321, -0.000897701655048877, 0.12079548090696335, 0.08809427171945572,
    0.06212648004293442, 0.006302515510469675, 0.030775343999266624, 0.08712708204984665,
    0.025966549292206764, 0.055306851863861084, -0.033685315400362015, 0.11690030246973038,
    -0.04886288195848465, -0.02899731509387493, 0.03321797400712967, 0.044719524681568146,
    -0.04189503937959671, 0.05830638110637665, 0.023965220898389816, 0.027112584561109543,
    0.10515502840280533, 0.003977024462074041, -0.055747874081134796, 0.09105725586414337,
    0.006932905875146389, 0.11616671830415726, 0.08890057355165482, 0.04429031163454056,
    0.08513326942920685, -0.026249857619404793, -0.05874141305685043, 0.0011656596325337887,
    -0.0193481482565403, 0.09059382230043411, 0.01714089699089527, -0.0009224895038641989,
    0.061968185007572174, -0.045553844422101974, -0.08315649628639221, -0.06756245344877243,
    0.09496564418077469, 0.023965127766132355, 0.10707021504640579, -0.11206274479627609,
    0.043698083609342575, -0.06569993495941162, -0.036257777363061905, -0.07919998466968536,
    0.03718603402376175, 0.06720732897520065, 0.08059991151094437, -0.08828835934400558,
    -0.037480428814888, 0.03707965463399887, -0.03911559656262398, 0.03457791358232498,
    -0.028613708913326263, -0.010767042636871338, 0.09135504812002182, -0.06912978738546371,
    -0.027610644698143005, -0.028533920645713806, -0.05277912691235542, 0.09437421709299088,
    0.019446268677711487, 0.04686255007982254, 0.05889666825532913, 0.05060214549303055,
    -0.0564274899661541, -0.060343947261571884, 0.010773934423923492, -0.0029090791940689087,
    -0.03294847160577774, 0.04406621307134628, 0.08662901073694229, 0.029360361397266388,
    0.0962919369339943, 0.04144003242254257, 0.0988398864865303, -0.08055029064416885,
    -0.004665449261665344, -0.05669433996081352, 0.04528593271970749, -0.07411585003137589,
    -0.020712390542030334, 0.07880357652902603, 0.08824361115694046, 0.09993968158960342,
    -0.03875374794006348, 0.0773703083395958, 0.06538373976945877, 0.09361059218645096,
    0.07177970558404922, 0.1640709936618805, 0.17910943925380707, -0.08999720960855484,
    0.13911907374858856, 0.05198346823453903, 0.04574556276202202, -0.0034921527840197086,
    -0.13185186684131622, -0.14178091287612915, -0.08432687819004059, 0.008345072157680988,
    -0.07241484522819519, -0.08873748034238815, 0.07025043666362762, -0.04180960729718208,
    -0.004851879086345434, -0.03192494809627533, 0.0413096584379673, 0.0024319984950125217,
    -0.03183511272072792, 0.019849933683872223, -0.01564614474773407, -0.03036598674952984,
    -0.16589312255382538, -0.10352982580661774, 0.01549449935555458, -0.026423007249832153,
    -0.05269867181777954, -0.09592488408088684, -0.07875291258096695, -0.06066033989191055,
    -0.09970656782388687, -0.14251554012298584, -0.06014750152826309, 0.1530362367630005,
    -0.014923959970474243, 0.10029223561286926, 0.22191449999809265, -0.13000433146953583,
    0.07481104880571365, -0.0535358190536499, -0.025079257786273956, 0.042809560894966125,
    -0.07467950880527496, 0.001849937834776938, -0.01963905803859234, 0.058098629117012024,
    -0.055986203253269196, 3.0237366445362568e-5, -0.06375924497842789, 0.029796985909342766,
    0.05703341215848923, 0.07683120667934418, -0.10425853729248047, -0.003754332661628723,
    0.08199144154787064, 0.08655128628015518, 0.070902980864048, -0.08486173301935196,
    0.0026685968041419983, -0.033492766320705414, 0.019606150686740875, 0.07109380513429642,
    0.09389767795801163, 0.014219000935554504, 0.03557879477739334, -0.01780553162097931,
    0.08153846114873886, -0.055345989763736725, 0.013737007975578308, 0.049818091094493866,
    -0.020888663828372955, 0.06465744227170944, 0.09694472700357437, -0.09382981061935425,
    -0.023987650871276855, -0.016490861773490906, -0.036270663142204285, -0.023637093603610992,
    0.018586158752441406, -0.03834768757224083, 0.05467342585325241, -0.08776196092367172,
    -0.028961680829524994, -0.08648119121789932, 0.06907296925783157, -0.09500497579574585,
    -0.007222652435302734, 0.029185600578784943, -0.02690674364566803, -0.06331048160791397,
    -0.09250010550022125, -0.047491252422332764, -0.09425081312656403, 0.09306227415800095,
    -0.027181267738342285, 0.05048181861639023, -0.03301577270030975, 0.04230470210313797,
    0.12120284140110016, 0.05029936507344246, 0.07184826582670212, 0.10479682683944702,
    0.08573517203330994, 0.03180709481239319, 0.016629043966531754, -0.016530243679881096,
    0.08010336756706238, -0.01745954528450966, -0.12506407499313354, -0.014227167703211308,
    -0.06572146713733673, -0.08923543989658356, -0.014488762244582176, -0.07138795405626297,
    -0.05805293843150139, -0.006912840064615011, -0.00666974438354373, -0.07979919016361237,
    -0.14513899385929108, 0.02198539301753044, 0.08669140189886093, -0.0136657590046525,
    -0.11535586416721344, -0.03383159264922142, -0.13961511850357056, -0.07136020064353943,
    -0.03811061009764671, 0.047042977064847946, 0.03977988287806511, -0.015456265769898891,
    0.017830608412623405, -0.11376479268074036, 0.009403526782989502, 0.06857118010520935,
    -0.007302313111722469, 0.13682937622070312, 0.059850990772247314, -0.12122181057929993,
    0.08702868968248367, 0.050713539123535156, -0.02476227469742298, -0.004933361429721117,
    0.039519522339105606, -0.013064676895737648, -0.039942417293787, 0.10781756788492203,
    -0.013627742417156696, 0.1183844581246376, -0.020199734717607498, 0.04940832778811455,
    -0.09739641845226288, 0.07089667022228241, -0.026156915351748466, -0.07660196721553802,
    0.08761133998632431, 0.09013526886701584, 0.0389704629778862, -0.047486163675785065,
    -0.03745526075363159, -0.059961773455142975, -0.053202856332063675, 0.0877930298447609,
    0.09665397554636002, -0.09613639116287231, -0.02808558940887451, -0.09019332379102707,
    -0.09341695159673691, -0.018621884286403656, -0.07846774160861969, -0.07650472223758698,
    -0.06751687824726105, 0.02118861675262451, 0.09787400811910629, 0.005471549928188324,
    0.0030986517667770386, 0.09605560451745987, -0.04970691353082657, -0.037012264132499695,
    -0.011834636330604553, 0.002762436866760254, 0.029215045273303986, 0.023809276521205902,
    0.028914548456668854, -0.043172504752874374, -0.06682399660348892, 0.08085953444242477,
    0.04745573550462723, 0.05263591557741165, 0.09318793565034866, -0.08655549585819244,
    -0.04387792572379112, 0.01479405164718628, -0.09911420196294785, -0.06761393696069717,
    0.02046159654855728, 0.006807588040828705, -0.03448972851037979, -0.010384783148765564,
    -0.059805069118738174, -0.04815295711159706, -0.0876893624663353, -0.053075216710567474,
    -0.08203215152025223, -0.13602042198181152, -0.13118843734264374, 0.1388949602842331,
    0.008581296540796757, -0.027470896020531654, 0.14003635942935944, 0.13471867144107819,
    0.15389396250247955, 0.13839037716388702, -0.022230010479688644, 0.1274735927581787,
    -0.015186501666903496, 0.031195776537060738, -0.03125139698386192, 0.009898403659462929,
    0.06665800511837006, 0.03212391212582588, -0.02649777941405773, 0.08611681312322617,
    0.062154289335012436, 0.1559421718120575, 0.08487250655889511, 0.023299269378185272,
    0.13776087760925293, 0.04108605906367302, -0.044675152748823166, 0.04596910998225212,
    -0.011550752446055412, 0.13688841462135315, 0.08334992080926895, 0.012172382324934006,
    0.15119527280330658, -0.05727868154644966, -0.0856623724102974, 0.07616021484136581,
    -0.04781215637922287, 0.06640404462814331, 0.10439808666706085, 0.07744543999433517,
    0.13262474536895752, 0.05773859843611717, -0.08028798550367355, 0.10587641596794128,
    0.09695129841566086, -0.10377178341150284, 0.08737761527299881, 0.037561506032943726,
    0.0064928787760436535, 0.06121491268277168, 0.15803813934326172, -0.018396779894828796,
    0.09292889386415482, 0.050845615565776825, 0.0012418776750564575, 0.09209006279706955,
    -0.002280019223690033, -0.00039802491664886475, 0.05461815744638443, -0.02783578634262085,
    -0.008341863751411438, 0.011506438255310059, 0.06672468036413193, 0.03735613077878952,
    0.020539268851280212, 0.06878312677145004, -0.018426522612571716, -0.006082117557525635,
    0.08633274585008621, -0.07533033937215805, 0.031423456966876984, 0.08608181029558182,
    -0.015934109687805176, 0.03333470970392227, -0.014193989336490631, 0.02905271202325821,
    -0.04487667232751846, -0.08478539437055588, 0.04287160187959671, -0.015015721321105957,
    -0.07216094434261322, -0.09099411219358444, -0.05945901945233345, 0.012998029589653015,
    -0.09610133618116379, -0.06387833505868912, -0.07238607108592987, 0.035166047513484955,
    0.08135873824357986, -0.031110361218452454, -0.0867924839258194, 0.015424534678459167,
    0.044850774109363556, 0.08814830332994461, 0.04807829111814499, 0.07580871134996414,
    0.006806997116655111, -0.03709368780255318, -4.403383354656398e-5, 0.039606235921382904,
    0.04203813895583153, 0.09051105380058289, 0.017643317580223083, -0.1211809515953064,
    -0.013232286088168621, 0.06257331371307373, 0.009280307218432426, -0.08173471689224243,
    0.05330616608262062, -0.10980299860239029, 0.03502387925982475, 0.06158747896552086,
    -0.06379832327365875, 0.07723284512758255, 0.03975624218583107, -0.006466952618211508,
    -0.016255119815468788, -0.029826289042830467, -0.06051834672689438, -0.09095996618270874,
    0.03392324596643448, 0.07886988669633865, -0.049128640443086624, -0.04811669886112213,
    0.07482081651687622, 0.09363867342472076, -0.05963581055402756, 0.014450007118284702,
    0.07407395541667938, 0.028492890298366547, 0.042331285774707794, 0.01719057373702526,
    0.01137356087565422, 0.04721907526254654, -0.04946030303835869, 0.058892615139484406,
    0.03443866968154907, -0.053043439984321594, -0.021467501297593117, -0.09033321589231491,
    0.011616881005465984, -0.03122822567820549, -0.07775744050741196, -0.11223436892032623,
    -0.01371452584862709, -0.07764412462711334, 0.02581270970404148, -0.009177769534289837,
    -0.0674990862607956, -0.0657537505030632, -0.09422016143798828, 0.07137518376111984,
    0.048652611672878265, 0.033905185759067535, 0.021130695939064026, 0.03302229195833206,
    -0.06944449245929718, -0.08919396251440048, -0.07690702378749847, -0.028330184519290924,
    -0.02126685529947281, 0.057670362293720245, 0.07399535924196243, -0.077792689204216,
    -0.010988369584083557, 0.02787620574235916, -0.0579833984375, -0.08222389221191406,
    -0.04795743152499199, 0.049168042838573456, -0.050475120544433594, -0.07757358253002167,
    -0.031443655490875244, 0.09908325225114822, -0.06276383996009827, -0.0957808867096901,
    0.02367401123046875, -0.08339881896972656, 0.09424685686826706, -0.008569896221160889,
    -0.00222991406917572, 0.001456931233406067, -0.09797873347997665, -0.08837062120437622,
    -0.07015712559223175, -0.02263559401035309, 0.0284745916724205, 0.08789069205522537,
    -0.08999486267566681, 0.05924057215452194, -0.07277852296829224, 0.0226362943649292,
    0.03133375197649002, -0.042978525161743164, -0.04414008930325508, -0.049858417361974716,
    0.030181536450982094, 0.044050510972738266, -0.05841555446386337, 0.03256110101938248,
    0.018559936434030533, 0.04674895107746124, 0.004307379946112633, -0.06749733537435532,
    -0.09404264390468597, -0.05332111567258835, -0.12853342294692993, -0.025348102673888206,
    -0.04805012792348862, 0.0943278819322586, 0.03603941202163696, -0.018866239115595818,
    -0.05264716222882271, -0.039255280047655106, 0.08279627561569214, 0.055492352694272995,
    -0.050030604004859924, -0.0064849345944821835, -0.002470040461048484, -0.045599065721035004,
    0.02912185527384281, -0.02568330615758896, 0.01680140569806099, -0.07092247158288956,
    0.02910199947655201, -0.09134331345558167, -0.06751114130020142, -0.08551868796348572,
    0.07901807874441147, -0.035031188279390335, 0.021009601652622223, 0.048822127282619476,
    0.011734710074961185, 0.09710253775119781, 0.03652635216712952, 0.022934086620807648,
    -0.11246923357248306, -0.010041649453341961, 0.0032012329902499914, -0.013813415542244911,
    0.050010211765766144, 0.09506403654813766, 0.08089616149663925, -0.027795495465397835,
    0.04051041603088379, 0.05562305450439453, 0.008740758523344994, 0.03038903884589672,
    -0.022131789475679398, -0.02679174765944481, 0.045073896646499634, -0.07212083041667938,
    0.07844778150320053, -0.03314187377691269, 0.03303191810846329, -0.006428375840187073,
    -0.05334256961941719, 0.09188511222600937, -0.0025862902402877808, -0.05657872185111046,
    -0.06668011099100113, 0.04116446524858475, 0.039257682859897614, 0.02052595466375351,
    -0.028338707983493805, 0.049636803567409515, 0.09086859971284866, 0.016669869422912598,
    -0.0985584631562233, 0.038016609847545624, 0.09362847357988358, 0.022779427468776703,
    -0.028926372528076172, -0.0033705681562423706, 0.03078388422727585, -0.08227188885211945,
    -0.020684383809566498, -0.09948430210351944, 0.05306590348482132, 0.019386135041713715,
    -0.035798847675323486, -0.005665741860866547, 0.048121385276317596, -0.09186086803674698,
    -0.07758180052042007, -0.07812099158763885, 0.07262972742319107, -0.043339576572179794,
    0.008080795407295227, 0.05441050976514816, 0.06838766485452652, -0.09164295345544815,
    -0.0478382371366024, 0.043790675699710846, -0.09791193157434464, -0.08180131763219833,
    0.04312212020158768, 0.10280542820692062, -0.0171252079308033, 0.1314033418893814,
    0.0015129175735637546, 0.03827343136072159, 0.0471036359667778, 0.01627396047115326,
    -0.027072424069046974, -0.023659950122237206, -0.03618333488702774, -0.06653287261724472,
    -0.16529110074043274, -0.07028372585773468, 0.02986915037035942, -0.04260983690619469,
    -0.049016740173101425, 0.04896111041307449, -0.020919768139719963, -0.02797844260931015,
    -0.07948388159275055, 0.10216773301362991, -0.08789588510990143, -0.016847657039761543,
    0.024476254358887672, -0.005436870735138655, -0.07621019333600998, 0.055821310728788376,
    -0.058492764830589294, -0.05739488825201988, -0.02100374922156334, -0.006248089484870434,
    -0.08215948939323425, -0.18354269862174988, 0.012178316712379456, 0.057014793157577515,
    0.019819090142846107, 0.17947107553482056, 0.17705334722995758, -0.1341867595911026,
    -0.06979212909936905, 0.018068647012114525, 0.015080525539815426, 0.08070788532495499,
    -0.053321026265621185, 0.13882187008857727, -0.0711231380701065, 0.07408304512500763,
    -0.014331641606986523, 0.12445644289255142, 0.06601526588201523, -0.04024539887905121,
    -0.08297652751207352, 0.16899189352989197, -0.14149712026119232, -0.09914501756429672,
    0.013235852122306824, -0.006335891783237457, 0.005396068096160889, -0.08201085031032562,
    -0.08945988863706589, 0.04624990373849869, -0.04483833536505699, 0.04589707404375076,
    0.038277171552181244, -0.020141616463661194, -0.04767681285738945, 0.014082454144954681,
    0.037276990711688995, 0.042588479816913605, -0.09631140530109406, -0.010975494980812073,
    -0.03466339409351349, -0.06253279745578766, 0.07499069720506668, 0.013902582228183746,
    0.09094313532114029, 0.07520359009504318, 0.060413964092731476, 0.033274732530117035,
    0.01782543957233429, -0.08240024000406265, -0.09575166553258896, -0.03655441850423813,
    -0.011684730648994446, 0.03712255507707596, 0.015147723257541656, 0.09320323914289474,
    0.09407151490449905, 0.05101212114095688, -0.02414579689502716, 0.09385956078767776,
    0.011712625622749329, -0.01783595234155655, -0.006974361836910248, -0.0643111914396286,
    -0.059178199619054794, 0.06554842740297318, 0.03277454525232315, 0.03822087496519089,
    0.032147400081157684, 0.08602709323167801, 0.07391908019781113, -0.021826092153787613,
    -0.12705641984939575, -0.1449642926454544, -0.00026026414707303047, 0.08292435854673386,
    -0.06468496471643448, 0.04114336520433426, 0.0018548067891970277, 0.03979899361729622,
    0.042046476155519485, 0.05499982088804245, 0.015067517757415771, 0.0942084938287735,
    0.12845662236213684, 0.0731130838394165, 0.002943578874692321, 0.09566431492567062,
    0.04915149137377739, -0.07252828776836395, -0.09009325504302979, 0.08096905797719955,
    0.06727041304111481, -0.02996709756553173, 0.017891332507133484, 0.04427208751440048,
    -0.0443262904882431, 0.09953922778367996, -0.05577031895518303, 0.1110888123512268,
    0.017047638073563576, 0.11020171642303467, 0.04940057545900345, 0.04418563097715378,
    -0.029309868812561035, -0.04360948130488396, -0.07438261806964874, 0.1604682356119156,
    0.014575818553566933, 0.10741357505321503, 0.0017982054268941283, -0.011626153253018856,
    -0.04060051962733269, -0.012227381579577923, 0.04896281287074089, -0.06027873232960701,
    -0.03073187544941902, -0.08970170468091965, -0.008573740720748901, 0.019204378128051758,
    0.12262983620166779, -0.06186826527118683, 0.05187366530299187, 0.043145306408405304,
    -0.05399053171277046, -0.010947741568088531, 0.062435902655124664, -0.04635677486658096,
    0.053250767290592194, -0.013538815081119537, -0.049826979637145996, -0.07925449311733246,
    -0.01645772159099579, 0.07749203592538834, 0.07019875198602676, -0.02086050808429718,
    -0.09344164282083511, 0.030022032558918, -0.026354871690273285, -0.061254847794771194,
    -0.03338676691055298, 0.04314764589071274, 0.05157094448804855, -0.09818736463785172,
    0.08646831661462784, 0.05649656802415848, 0.08469810336828232, 0.05526966601610184,
    -0.008357323706150055, 0.06115961819887161, 0.0900253877043724, 0.05935830622911453,
    -0.07450820505619049, -0.035894691944122314, -0.03426365554332733, 0.040403299033641815,
    -0.051696229726076126, -0.06917421519756317, -0.04337571933865547, 0.09685146063566208,
    0.008290782570838928, -0.025387383997440338, -0.05435993894934654, 0.06239552050828934,
    0.01886327564716339, 0.050783298909664154, 0.019366227090358734, 0.09294118732213974,
    -0.09229028970003128, 0.01588083617389202, -0.039995573461055756, -0.07801651954650879,
    -0.1142859011888504, -0.1668156534433365, -0.10147614777088165, 0.06401244550943375,
    0.030326036736369133, 0.028637293726205826, 0.1167832762002945, 0.11724182218313217,
    0.08462785929441452, 0.07953153550624847, -0.019063880667090416, 0.026589402928948402,
    0.13070687651634216, 0.06491368263959885, -0.044415127485990524, -0.05786747485399246,
    0.12844455242156982, -0.1056981310248375, -0.016128718852996826, 0.09608297795057297,
    0.15641197562217712, 0.05873643979430199, 0.1573263257741928, 0.03929954767227173,
    0.017529305070638657, 0.08040671795606613, -0.10281144082546234, 0.06493193656206131,
    0.12406051903963089, 0.045267097651958466, 0.08487553149461746, -0.1395852118730545,
    0.0400439091026783, -0.039698053151369095, -0.09869036823511124, 0.17706653475761414,
    0.1058838814496994, 0.10634069889783859, -0.05112558230757713, -0.004004680551588535,
    -0.009332282468676567, 0.023978183045983315, 0.03432542458176613, 0.000600237981416285,
    0.06800083816051483, -0.0025217693764716387, -0.00439064996317029, -0.02221820317208767,
    -0.011796134524047375, 0.03662881255149841, 0.07582607120275497, 0.09330954402685165,
    0.007039666175842285, -0.047352444380521774, -0.06791406869888306, -0.03802774101495743,
    0.0840681865811348, 0.0572269931435585, -0.0024539977312088013, 0.03675983101129532,
    0.004301190376281738, -0.09449269622564316, -0.035456717014312744, 0.06573378294706345,
    0.04936672002077103, 0.048440657556056976, -0.07658364623785019, 0.021033860743045807,
    0.052099891006946564, -0.04647381231188774, -0.022493228316307068, 0.059021107852458954,
    -0.0584842823445797, -0.02619089186191559, -0.04945087432861328, -0.012762248516082764,
    -0.023773670196533203, 0.014045573770999908, -0.06582082808017731, 0.0378902330994606,
    0.027644984424114227, 0.09168446809053421, -0.03987946733832359, -0.03429260104894638,
    0.07343702763319016, 0.08158717304468155, 0.053048424422740936, 0.04471608251333237,
    0.06871769577264786, -0.09179866313934326, -0.0993211418390274, 0.018071532249450684,
    0.09931886941194534, 0.0648629292845726, -0.004434846341609955, 0.05699978023767471,
    -0.01839614100754261, 0.05550605431199074, 0.053581736981868744, -0.07776514440774918,
    -0.07350043952465057, -0.11017131805419922, 0.011180363595485687, 0.12686406075954437,
    0.08158103376626968, 0.11661502718925476, 0.04878172278404236, -0.006552957929670811,
    0.10893384367227554, 0.043122660368680954, 0.020881066098809242, 0.10340461134910583,
    -0.03187951445579529, -0.021998530253767967, -0.05584673210978508, -0.03117557056248188,
    -0.02632061578333378, 0.03461684286594391, -0.06295755505561829, -0.046279508620500565,
    -0.05074027553200722, 0.1365152895450592, 0.145590141415596, -0.004906219430267811,
    0.09600447863340378, -0.04383902996778488, 0.003415375482290983, -0.034395478665828705,
    0.04248901084065437, -0.02038758061826229, 0.00943051278591156, 0.02919459156692028,
    0.06093441694974899, 0.02771318145096302, -0.09583397954702377, 0.017298780381679535,
    -0.06501098722219467, -0.056770626455545425, -0.09438616037368774, -0.03441012650728226,
    0.07594893127679825, 0.0484289824962616, 0.04201149940490723, 0.04079761356115341,
    0.08946732431650162, 0.0343647263944149, 0.10365474224090576, -0.05310716852545738,
    0.0714709460735321, -0.08443447947502136, 0.04940945282578468, -0.05850331857800484,
    0.07035636156797409, 0.006727114319801331, 0.005696013569831848, -0.06917492300271988,
    -0.08354039490222931, -0.049516547471284866, 0.018999315798282623, -0.07980003207921982,
    0.013535216450691223, 0.001306489109992981, -0.04433272033929825, 0.021875202655792236,
    0.07876097410917282, 0.0731179341673851, 0.0878763273358345, 0.09182540327310562,
    -0.0007690414786338806, -0.07313142716884613, -0.032556913793087006, -0.0880516991019249,
    0.017105519771575928, 0.09804155677556992, 0.02878177911043167, -0.05275235325098038,
    0.09124500304460526, 0.02857515960931778, -0.06505420804023743, 0.00991048663854599,
    0.056885190308094025, 0.08132187277078629, 0.026051439344882965, 0.007478877902030945,
    0.011931382119655609, 0.003397323191165924, -0.032096847891807556, -0.06426268815994263,
    -0.07155857235193253, -0.04745055362582207, -0.04667997360229492, 0.09903491288423538,
    0.06646928936243057, 0.0007493123412132263, 0.07549989968538284, -0.015384651720523834,
    -0.09456822276115417, 0.08544667065143585, 0.026591772213578224, -0.0816437229514122,
    -0.012600654736161232, -0.10259266197681427, 0.03297405689954758, 0.15459036827087402,
    -0.04389262571930885, 0.14276765286922455, 0.1295625865459442, 0.09547805786132812,
    -0.019670331850647926, 0.001980421831831336, 0.10245518386363983, 0.05771944671869278,
    0.09284491091966629, 0.0036028472241014242, 0.06936086714267731, -0.05619404837489128,
    -0.06489870697259903, 0.0418606773018837, 0.0037944840732961893, 0.10319691896438599,
    0.022345857694745064, 0.038886647671461105, 0.08625553548336029, 0.09125753492116928,
    0.04842084273695946, 0.08207249641418457, -0.1313648670911789, 0.08823242783546448,
    -0.02671324834227562, -0.05959329381585121, 0.007415689527988434, -0.08031505346298218,
    0.022302180528640747, -0.08183431625366211, -0.11374694854021072, 0.057604506611824036,
    0.09417342394590378, -0.024598240852355957, 0.00790708139538765, -0.013024593703448772,
    0.06836632639169693, -0.020794156938791275, -0.0266262274235487, 0.08367136120796204,
    -0.024713361635804176, -0.03985799476504326, 0.06487327069044113, -0.029566220939159393,
    0.13851813971996307, 0.0717267394065857, 0.03888063132762909, -0.022362492978572845,
    0.02426135540008545, 0.0054832324385643005, 0.06471819430589676, 0.035440750420093536,
    -0.014297232031822205, 0.0724998190999031, 0.08190799504518509, -0.015918180346488953,
    0.018957853317260742, 0.0015163421630859375, 0.003108583390712738, 0.06750337034463882,
    0.016257360577583313, 0.08421338349580765, 0.02599325031042099, -0.012521184980869293,
    -0.006275750696659088, 0.06393105536699295, -0.03141069412231445, 0.06039615720510483,
    0.036171115934848785, 0.07360421866178513, 0.08316800743341446, -0.06767190992832184,
    -0.09649824351072311, 0.013440236449241638, -0.0807565227150917, 0.05128788203001022,
    -0.06365088373422623, -0.09779226034879684, 0.019742287695407867, 0.04611555486917496,
    -0.04934224113821983, 0.0871901586651802, 0.09899438172578812, -0.0629333034157753,
    0.07092434912919998, 0.05389367789030075, 0.07640861719846725, 0.0775112584233284,
    0.05810873955488205, 0.07701543718576431, -0.007640734314918518, -0.07651921361684799,
    -0.033520594239234924, 0.019664796069264412, -0.012524478137493134, 0.00294188573025167,
    -0.005478422623127699, -0.03897256776690483, -0.008590067736804485, -0.01697729155421257,
    0.13376043736934662, -0.02103530429303646, -0.01896262913942337, 0.11217991262674332,
    0.11356144398450851, 0.027605194598436356, -0.008610881865024567, -0.031216664239764214,
    0.0002943068102467805, 0.08753985911607742, -0.009609761647880077, 0.06688128411769867,
    0.01812475360929966, -0.0007014855509623885, 0.045702725648880005, 0.029310403391718864,
    0.06532202661037445, 0.08216406404972076, 0.06967707723379135, 0.0986780971288681,
    0.08042449504137039, 0.0357760488986969, -0.04814283922314644, -0.03158845379948616,
    -0.04738723486661911, 0.014985130168497562, -0.0779755711555481, -0.07933761924505234,
    0.16990448534488678, -0.04941996932029724, -0.005095700267702341, 0.16624034941196442,
    -0.019091663882136345, -0.036137424409389496, 0.06392661482095718, 0.09165101498365402,
    0.14452339708805084, 0.02346944622695446, 0.03806475177407265, 0.07600966840982437,
    -0.027661679312586784, -0.061025265604257584, 0.13790947198867798, -0.03392646834254265,
    0.14282408356666565, -0.029571544378995895, 0.07548987120389938, -0.034338608384132385,
    -0.05270267650485039, -0.0889357253909111, -0.0733446255326271, 0.06604091078042984,
    -0.061912667006254196, -0.007779039442539215, -0.032740518450737, -0.06928889453411102,
    -0.025323793292045593, -0.055758263915777206, 0.02276746928691864, -0.08326514810323715,
    0.05404122918844223, 0.02818470448255539, -0.05800968408584595, 0.01653345674276352,
    -0.06713826954364777, -0.06360286474227905, -0.03350665420293808, -0.008662045001983643,
    0.03369180113077164, 0.07389982789754868, 0.06805752962827682, -0.018516577780246735,
    -0.014898017048835754, 0.003148093819618225, -0.08174844831228256, -0.09704528003931046,
    0.025577910244464874, -0.050391461700201035, -0.06281659007072449, 0.023357614874839783,
    0.0006158724427223206, -0.005574621260166168, -0.019932225346565247, -0.006470605731010437,
    -0.06082581356167793, -0.023711860179901123, 0.03745497018098831, 0.05270693451166153,
    0.008876122534275055, 0.02501150220632553, 0.07728052884340286, 0.002201572060585022,
    0.022542571648955345, 0.12106318026781082, 0.02485167421400547, -0.031705256551504135,
    0.13573957979679108, 0.06807519495487213, 0.12260670959949493, -0.02999430149793625,
    -0.07527591288089752, -0.031225595623254776, -0.0907103568315506, -0.09734754264354706,
    -0.1615741103887558, 0.0057094162330031395, 0.12551799416542053, 0.07413669675588608,
    0.07119791209697723, -0.08328267931938171, -0.06900133937597275, -0.019688082858920097,
    -0.061276815831661224, 0.022689102217555046, 0.04796382412314415, -0.006310987286269665,
    -0.10322386026382446, -0.12814708054065704, -0.01625165157020092, -0.06630483269691467,
    -0.023112673312425613, 0.028242094442248344, -0.014189757406711578, -0.08178025484085083,
    -0.1602063626050949, -0.054513588547706604, -0.07511918246746063, 0.10161756724119186,
    -0.08916424214839935, 0.17538456618785858, 0.11858604103326797, -0.11641920357942581,
    0.09290412068367004, 0.06319989264011383, -0.058713220059871674, 0.021115398034453392,
    -0.061660073697566986, 0.11733923107385635, 0.015433032065629959, -0.020722026005387306,
    0.10050995647907257, -0.022263377904891968, 0.047574903815984726, 0.06931842863559723,
    -0.09322192519903183, -0.010928531177341938, 0.009482761844992638, -0.031839050352573395,
    0.014154933393001556, -0.03740142285823822, 0.03493171185255051, 0.09017416089773178,
    -0.09749933332204819, 0.052938587963581085, 0.07797688990831375, -0.021350502967834473,
    -0.09261643141508102, 0.013583600521087646, -0.010403454303741455, -0.06234893947839737,
    0.07370395213365555, -0.02859266847372055, 0.03346502035856247, -0.05737962946295738,
    -0.016747497022151947, 0.005216524004936218, 0.06016869097948074, -0.045381199568510056,
    0.078490249812603, -0.090889573097229, -0.0006456002593040466, -0.07522936910390854,
    0.0390893891453743, 0.0932912603020668, -0.05196675285696983, -0.04241020604968071,
    0.0860639289021492, -0.03930126503109932, 0.0018150359392166138, -0.04616284370422363,
    0.017815351486206055, 0.03569265455007553, 0.0841517522931099, -0.09484300762414932,
    0.050549931824207306, 0.08971505612134933, -0.011919401586055756, 0.025081835687160492,
    0.01993783563375473, 0.07520603388547897, -0.07683978229761124, -0.014317810535430908,
    0.13546673953533173, 0.0409296490252018, -0.07873181998729706, 0.065154530107975,
    0.00772238289937377, 0.03530099615454674, -0.03886103257536888, 0.03965850919485092,
    0.07617239654064178, 0.008982010185718536, -0.07895223796367645, 0.01883130893111229,
    -0.03021138906478882, -0.01771118864417076, -0.004326191730797291, -0.017908547073602676,
    0.007827489636838436, -0.05447583273053169, 0.031932368874549866, 0.030606912449002266,
    -0.037066370248794556, 0.10384517908096313, 0.02562168799340725, -0.08803663402795792,
    -0.0022558774799108505, -0.10878997296094894, 0.04813750088214874, 0.005356877110898495,
    0.06392481178045273, 0.023903438821434975, 0.07959669828414917, -0.12575629353523254,
    0.00724717415869236, -0.10889239609241486, -0.09703707695007324, 0.048297032713890076,
    0.05907823517918587, 0.10542356967926025, -0.0287955179810524, -0.014301471412181854,
    -0.11843962222337723, 0.04022229090332985, -0.024529706686735153, -0.0647120475769043,
    -0.0035197993274778128, 0.02552201598882675, 0.024248801171779633, -0.09695271402597427,
    0.07086291909217834, 0.09840890020132065, -0.10700532793998718, 0.014745940454304218,
    0.04503894969820976, -0.03557000309228897, 0.035773370414972305, -0.0664774626493454,
    0.08132971078157425, -0.036014243960380554, 0.09332715719938278, 0.07481247931718826,
    0.09184444695711136, -0.005831226706504822, -0.0351167693734169, 0.00133446604013443,
    -0.03943988308310509, 0.06741409748792648, -0.021589182317256927, -0.05056118965148926,
    -0.08390899747610092, -0.03335781395435333, -0.05095672607421875, -0.03773282840847969,
    -0.02955019474029541, 0.0014169365167617798, -0.0034194216132164, 0.07995957881212234,
    0.05128609389066696, -0.07117476314306259, -0.034622035920619965, -0.018631555140018463,
    -0.043187107890844345, -0.07276928424835205, -0.045159805566072464, 0.006031587719917297,
    -0.08398356288671494, 0.07325524836778641, -0.04579632356762886, -0.06402923166751862,
    -0.021279096603393555, -0.07784601300954819, -0.01645199954509735, -0.04057446867227554,
    0.03486209362745285, -0.047983136028051376, 0.059767864644527435, -0.07855331897735596,
    -0.06369626522064209, -0.017479918897151947, 0.07138947397470474, -0.08171415328979492,
    0.005173710640519857, 0.17432768642902374, 0.19388309121131897, -0.09173008054494858,
    0.1527577042579651, -0.08695568144321442, -0.10535559058189392, -0.004660612903535366,
    0.0047544995322823524, -0.031163698062300682, -0.028714265674352646, -0.11680777370929718,
    -0.10559145361185074, -0.044106438755989075, 0.06404589861631393, -0.01979866810142994,
    0.004576983395963907, 0.0696442648768425, -0.016837431117892265, 0.0006386548629961908,
    -0.1544577181339264, 0.013005901128053665, -0.16002489626407623, 0.036585982888936996,
    -0.15215294063091278, 0.028382571414113045, -0.060367219150066376, -0.12350919842720032,
    -0.05988180264830589, -0.13708890974521637, -0.0025912090204656124, -0.18613842129707336,
    -0.06784248352050781, -0.09743091464042664, -0.020776227116584778, 0.04013416916131973,
    -0.015467077493667603, 0.18459215760231018, 0.10202780365943909, -0.15036144852638245,
    -0.06886152923107147, -0.028194494545459747, -0.0035209027118980885, -0.09714299440383911,
    -0.07806114852428436, 0.06507028639316559, 0.04244188964366913, -0.033615101128816605,
    -0.044451627880334854, -0.006091954652220011, 0.08089916408061981, -0.012548845261335373,
    0.03884773328900337, 0.19794893264770508, -0.013118748553097248, -0.083152636885643,
    0.08324045687913895, -0.01752026379108429, 0.0016715899109840393, 0.0065402016043663025,
    -0.088286854326725, 0.04475773125886917, 0.08400837332010269, 0.031375057995319366,
    -0.03356603533029556, 0.020525790750980377, 0.07414395362138748, -0.04244660213589668,
    -0.06928686797618866, -0.011526122689247131, -0.020279191434383392, -0.09084919840097427,
    0.04582936316728592, -0.02476823329925537, 0.06509757786989212, 0.006917454302310944,
    -0.06754504144191742, -0.03446829319000244, -0.014844976365566254, 0.09203312546014786,
    -0.06666436791419983, -0.0831616073846817, 0.05842623859643936, -0.025809109210968018,
    0.07780469208955765, 0.07665682584047318, 0.01599191129207611, -0.0638887882232666,
    -0.0793081745505333, -0.06690926849842072, 0.0006913989782333374, 0.006923601031303406,
    0.047725431621074677, 0.08239424973726273, -0.08613240718841553, 0.055055685341358185,
    -0.0608515739440918, -0.04448982700705528, 0.0006042569875717163, -0.08895915001630783,
    -0.05491574853658676, 0.06041703373193741, -0.08761261403560638, -0.04083479568362236,
    -0.0936831682920456, -0.14624755084514618, -0.013631945475935936, 0.04950161650776863,
    0.10946586728096008, 0.051512181758880615, 0.13375993072986603, -0.0043330383487045765,
    0.021004850044846535, 0.020053589716553688, 0.06519439071416855, -0.004561951383948326,
    0.09344553202390671, 0.0782201960682869, 0.03723663464188576, -0.055799998342990875,
    -0.05194411054253578, -0.07596583664417267, -0.07933398336172104, 0.10861712694168091,
    -0.067695252597332, -0.040472522377967834, -0.027424076572060585, 0.05436553433537483,
    0.028198376297950745, 0.06819207221269608, -0.031687214970588684, 0.027118559926748276,
    0.09121715277433395, -0.07608895748853683, -0.058373309671878815, -0.037596408277750015,
    0.023883452638983727, -0.04336666315793991, -0.052982404828071594, 0.16708128154277802,
    -0.0016836576396599412, 0.044193729758262634, -0.018909715116024017, 0.05710247904062271,
    0.03630810230970383, -0.07545016705989838, -0.034048594534397125, 0.06792998313903809,
    0.029148589819669724, 0.049809541553258896, 0.004433923866599798, 0.046782929450273514,
    0.05518971383571625, -0.05611414089798927, -0.01931222528219223, 0.07260099798440933,
    0.07275276631116867, 0.052415184676647186, -0.039732541888952255, 0.03677063435316086,
    -0.056991755962371826, -0.09955666214227676, 0.06732373684644699, 0.04969296604394913,
    0.04986288398504257, 0.008259475231170654, -0.015021704137325287, -0.043759237974882126,
    -0.012115955352783203, 0.0030563846230506897, 0.01808420568704605, -0.008913673460483551,
    0.026521630585193634, 0.03017059713602066, 0.056248344480991364, 0.00476393848657608,
    -0.0010040774941444397, -0.009828723967075348, -0.008485294878482819, 0.023547731339931488,
    0.059226103127002716, 0.01271822303533554, -0.00877436250448227, -0.044894684106111526,
    0.04374922066926956, -0.09234984964132309, 0.03291779011487961, 0.006010971963405609,
    -0.09311425685882568, 0.04204719513654709, 0.008377432823181152, -0.09304151684045792,
    -0.014091670513153076, -0.07914380729198456, 0.09609859436750412, -0.01581142097711563,
    0.015459932386875153, -0.09608940035104752, 0.011131569743156433, 0.071604885160923,
    0.0188937708735466, -0.012773904949426651, -0.08597034960985184, -0.12497662752866745,
    -0.10169871896505356, -0.05508142337203026, -0.0642334595322609, 0.09877090156078339,
    -0.07109078764915466, -0.04493223875761032, 0.021799858659505844, 0.096531443297863,
    0.06729408353567123, -0.009943071752786636, -0.06750476360321045, 0.0046640075743198395,
    0.10286235064268112, -0.03695793077349663, 0.018727216869592667, 0.07563049346208572,
    0.040162112563848495, -0.024505548179149628, -0.10122007876634598, -0.06107877194881439,
    -0.03515039384365082, -0.06251318007707596, 0.006119817495346069, 0.043099116533994675,
    0.002242959337309003, 0.06573215872049332, 0.05650830268859863, -0.007541660685092211,
    -0.021956367418169975, -0.053210869431495667, -0.04041104391217232, -0.06273479014635086,
    -0.06042351946234703, 0.027893414720892906, 0.023239489644765854, -0.04644739255309105,
    -0.06058486923575401, 0.06140895560383797, -0.047737058252096176, 0.00870167464017868,
    -0.008948354050517082, 0.041859593242406845, 0.096004419028759, 0.032765377312898636,
    0.053496770560741425, -0.024007733911275864, 0.03751593083143234, -0.017691966146230698,
    0.1097051277756691, 0.02680383063852787, 0.12086581438779831, 0.09913838654756546,
    0.07114122062921524, 0.0326114222407341, 0.0832238718867302, 0.09929991513490677,
    -0.09083359688520432, -0.02245025336742401, -0.03460576385259628, -0.023174382746219635,
    0.06480897217988968, 0.035819120705127716, 0.0827435776591301, -0.022802986204624176,
    -0.014787591993808746, -0.013444982469081879, 0.016176126897335052, -0.05460150167346001,
    0.014748074114322662, -0.031645551323890686, 0.020879283547401428, 0.03197383135557175,
    -0.025310732424259186, 0.05700654536485672, 0.07551831752061844, -0.03469725698232651,
    -0.022646233439445496, -0.04837348684668541, 0.07697819918394089, -0.09583541005849838,
    -0.037589337676763535, -0.06175145134329796, 0.041596658527851105, 0.04487784951925278,
    -0.04876469448208809, 0.08324141055345535, 0.09050901979207993, -0.011330164968967438,
    -0.03254654258489609, 0.025077946484088898, -0.009964026510715485, 0.04817567020654678,
    0.02052764594554901, -0.015215516090393066, 0.028032653033733368, -0.08499433845281601,
    0.10178416967391968, -0.05203349143266678, 0.11238640546798706, -0.02344001643359661,
    -0.0464891716837883, 0.05980895832180977, 0.15072590112686157, 0.04256279766559601,
    -0.04354582354426384, -0.11469019949436188, 0.039373356848955154, 0.036187347024679184,
    0.018869083374738693, 0.06152892857789993, 0.07805608212947845, -0.0133436294272542,
    0.023139487951993942, 0.022931968793272972, 0.08534380048513412, 0.07197539508342743,
    0.05418550595641136, 0.03992485627532005, 0.05077839270234108, 0.09436533600091934,
    -0.016917651519179344, -0.01785888522863388, 0.05787108466029167, 0.04798183962702751,
    0.007192982826381922, -0.026205353438854218, 0.08015290647745132, -0.1361616551876068,
    -0.125560462474823, -0.02873770147562027, 0.0490790531039238, -0.09648653119802475,
    0.02525204047560692, 0.0181653443723917, 0.04921445623040199, -0.019753094762563705,
    0.07669990509748459, 0.03329211473464966, -0.0944388136267662, 0.062294650822877884,
    -0.07208137959241867, -0.024848729372024536, -0.05996716767549515, 0.04103773459792137,
    -2.9515224014176056e-5, 0.06370451301336288, -0.056725259870290756, -0.06116978079080582,
    -0.07361777126789093, 0.09944111853837967, 0.06480786204338074, -0.004674896597862244,
    -0.08087523281574249, -0.08044508844614029, 0.03691045194864273, -0.022967062890529633,
    0.010320566594600677, 0.03848930448293686, -0.028803445398807526, -0.07221849262714386,
    -0.0018490925431251526, 0.03590961545705795, 0.08015760034322739, -0.09993888437747955,
    -0.09622490406036377, 0.09051292389631271, -0.07605799287557602, 0.08179206401109695,
    -0.02871505171060562, 0.009757742285728455, -0.04625663906335831, -0.09511251747608185,
    0.02945757657289505, -0.03101484477519989, 0.00010232627391815186, 0.01515420526266098,
    -0.07318611443042755, -0.02407292276620865, 0.003354310989379883, 0.06965672224760056,
    -0.05432773754000664, -0.05751631408929825, 0.09895253926515579, -0.08219794183969498,
    -0.08755394071340561, -0.05794193968176842, 0.008541345596313477, -0.09162308275699615,
    0.06144631654024124, 0.024327412247657776, -0.022882506251335144, 0.05842984467744827,
    0.07836341112852097, 0.06193280965089798, 0.0411391481757164, 0.029713429510593414,
    0.05913762003183365, 0.028161438181996346, 0.02255212515592575, -0.09503169357776642,
    -0.007664160802960396, -0.0038594980724155903, -0.07409422099590302, 0.11074154824018478,
    -0.0011381279909983277, 0.01475626789033413, 0.08865246921777725, 0.08925027400255203,
    -0.013110971078276634, -0.013090168125927448, 0.0482340008020401, -0.045291587710380554,
    0.057818617671728134, 0.010712359100580215, 0.02102186344563961, 0.024736177176237106,
    0.12040746957063675, -0.04259850084781647, 0.07398863136768341, 0.050646379590034485,
    0.0073054819367825985, 0.11205895245075226, 0.13076429069042206, 0.07880016416311264,
    0.07144056260585785, 0.023315610364079475, -0.008408484980463982, -0.03535966947674751,
    0.001436520367860794, 0.0741945132613182, -0.06379684805870056, -0.11901801824569702,
    0.09071185439825058, -0.059721820056438446, -0.1515239030122757, 0.0967433825135231,
    0.07859697192907333, 0.004629236645996571, 0.005947008728981018, -0.06400375813245773,
    -0.022822285071015358, 0.035819198936223984, -0.038307033479213715, -0.00935960654169321,
    0.07055672258138657, -0.0459170863032341, 0.12797515094280243, 0.0549139603972435,
    -0.06125358119606972, -0.09885135293006897, 0.012269357219338417, 0.06293389946222305,
    0.047549523413181305, -0.06760600209236145, 0.08634612709283829, -0.04422894865274429,
    -0.0990559384226799, 0.06814486533403397, 0.0835772380232811, -0.07414986938238144,
    -0.0011953562498092651, 0.07555950433015823, -0.03192351013422012, 0.007754884660243988,
    0.0303800031542778, -0.020120128989219666, 0.046944908797740936, 0.08126430958509445,
    -0.06579980254173279, 0.050794489681720734, 0.02432459592819214, -0.08423535525798798,
    0.06983288377523422, 0.008699551224708557, -0.03101353347301483, -0.026674233376979828,
    0.06457044929265976, -0.017848528921604156, -0.07583458721637726, -0.060522448271512985,
    -0.07181604206562042, -0.07859859615564346, 0.026276446878910065, 0.016097068786621094,
    0.0742090716958046, 0.04141087085008621, 0.08041713386774063, 0.06519127637147903,
    -0.037042103707790375, 0.07548586279153824, 0.09136853367090225, -0.0004772990942001343,
    0.07633674889802933, -0.08997378498315811, -0.07197000831365585, 0.04359859973192215,
    0.046383537352085114, 0.05342218279838562, 0.06511533260345459, 0.11671540886163712,
    0.15932175517082214, 0.09741196036338806, 0.04342333599925041, -0.11436215788125992,
    0.07763054221868515, -0.1007676050066948, -0.04599886015057564, -0.020768096670508385,
    -0.05869679898023605, -0.11298342794179916, 0.02349640056490898, -0.11303792148828506,
    -0.11809713393449783, -0.050289303064346313, -0.006345014087855816, -0.08506841957569122,
    -0.08562566339969635, 0.02783481776714325, -0.05679619684815407, 0.016735708341002464,
    -0.01841922290623188, -0.048454683274030685, -0.06638383865356445, -0.011158332228660583,
    -0.1509932577610016, 0.009364244528114796, -0.05305914580821991, 0.012928564101457596,
    0.029166219756007195, -0.14965730905532837, -0.06298837065696716, 0.009020335972309113,
    0.03812316805124283, 0.10425344109535217, 0.12857204675674438, -0.01709720678627491,
    0.008241207338869572, 0.08174455910921097, -0.0517335943877697, -0.0052020917646586895,
    -0.09031312167644501, 0.03904012590646744, -0.06262986361980438, 0.04030508175492287,
    0.0664186179637909, 0.14088276028633118, -0.03018554300069809, -0.035292256623506546,
    -0.0989706739783287, 0.10306282341480255, -0.09588976204395294, -0.041402436792850494,
    -0.043634772300720215, -0.03138399124145508, 0.004115760326385498, -0.09518152475357056,
    -0.05352107435464859, -0.03571723401546478, 0.0014809370040893555, -0.06839342415332794,
    0.012371674180030823, -0.016027726233005524, -0.0519481785595417, 0.049950845539569855,
    -0.011682584881782532, -0.049136508256196976, 0.02166900783777237, 0.0067918673157691956,
    0.06275586038827896, -0.05892341211438179, -0.04113803058862686, -0.03165712207555771,
    0.019473373889923096, -0.011691272258758545, -0.05876060947775841, -0.03242425620555878,
    -0.06026000902056694, 0.031316109001636505, -0.0761827826499939, 0.04794839769601822,
    0.07203372567892075, 0.010665260255336761, 0.053833626210689545, -0.07721453905105591,
    -0.04788053035736084, -0.021081842482089996, -0.04995189979672432, 0.041552625596523285,
    -0.09518598765134811, 0.025537841022014618, -0.016361914575099945, -0.0904015451669693,
    0.012813284993171692, -0.08695346117019653, 0.059844888746738434, -0.07879428565502167,
    0.04778118431568146, 0.15426164865493774, 0.022590527310967445, 0.05484563484787941,
    -0.01809530146420002, -0.008309961296617985, -0.027784651145339012, 0.012962318025529385,
    -0.09130992740392685, 0.022191498428583145, -0.11924437433481216, 0.05958440154790878,
    -0.034272700548172, -0.01717868447303772, 0.027731765061616898, 0.054959509521722794,
    -0.14788028597831726, 0.08641333878040314, -0.0191796887665987, 0.10211334377527237,
    0.007957803085446358, -0.043699607253074646, -0.06225273013114929, -0.09972357749938965,
    0.025249410420656204, -0.014242551289498806, -0.029505530372262, -0.021460019052028656,
    -0.18019992113113403, -0.044321209192276, 0.061030786484479904, -0.04318748787045479,
    -0.07224150002002716, -0.10683104395866394, 0.016402900218963623, -0.03394460678100586,
    0.06303198635578156, 0.040978044271469116, 0.054260674864053726, -0.15503129363059998,
    0.1003485694527626, -0.01579807884991169, 0.01410695444792509, 0.05406799912452698,
    0.011018216609954834, -0.10564445704221725, 0.023568229749798775, -0.03633860498666763,
    0.1080206111073494, -0.038675833493471146, -0.10734980553388596, 0.04116953909397125,
    -0.048873353749513626, 0.0019490976119413972, -0.04612905532121658, 0.061086393892765045,
    -0.05366241931915283, 0.06457234174013138, -0.0012448206543922424, 0.0445479080080986,
    -0.09415992349386215, 0.0706249549984932, -0.03397838771343231, 0.08548281341791153,
    -0.06477496027946472, 0.04003589600324631, 0.02497011423110962, -0.0075537413358688354,
    -0.05789992958307266, 0.05656828731298447, 0.09111351519823074, 0.08413661271333694,
    0.04069266468286514, 0.013844572007656097, 0.07441771775484085, -0.012606479227542877,
    -0.006915964186191559, -0.025162555277347565, 0.02568509429693222, -0.009971700608730316,
    0.007966041564941406, -0.02269458770751953, 0.08056516200304031, -0.05152633413672447,
    -0.027859807014465332, -0.037383340299129486, 0.03534770756959915, -0.05931093916296959,
    -0.025250636041164398, 0.09996289759874344, 0.055985428392887115, 0.06949817389249802,
    0.01693613827228546, 0.008155062794685364, 0.0985569879412651, 0.05793686956167221,
    0.03399970382452011, 0.08446113020181656, 0.033704109489917755, -0.05458733066916466,
    -0.09679827094078064, 0.06611066311597824, -0.048127736896276474, -0.09089376032352448,
    -0.11249474436044693, -0.12028975039720535, -0.0568431094288826, 0.022728215903043747,
    -0.03463643044233322, 0.10694967955350876, 0.04459391161799431, 0.10671789199113846,
    0.01690579578280449, -0.0352637954056263, -0.05068068206310272, -0.010201338678598404,
    0.056007932871580124, 0.06974118947982788, -0.03853059932589531, 0.005123171489685774,
    -0.00391649454832077, -0.13064518570899963, 0.09627100080251694, -0.05218924582004547,
    0.09165686368942261, 0.09160693734884262, 0.06072426587343216, -0.012234632857143879,
    0.1188887357711792, 0.014295569621026516, -0.03034328855574131, 0.08219857513904572,
    0.0804915726184845, 0.13437166810035706, 0.09663190692663193, -0.11448462307453156,
    0.07642219215631485, -0.003108420642092824, -0.06553042680025101, 0.13959042727947235,
    0.07000888139009476, 0.0007526113768108189, -0.050557926297187805, 0.04219744727015495,
    0.016486944630742073, -0.0731024444103241, 0.009226684458553791, -0.0184651929885149,
    -0.05576330050826073, -0.0340072363615036, 0.10883168876171112, -0.07405862212181091,
    0.0783417671918869, -0.07517711818218231, -0.015903858467936516, 0.06027466803789139,
    0.00471806526184082, 0.0617472305893898, -0.07230713218450546, -0.008910037577152252,
    0.031660981476306915, 0.05792080610990524, 0.015251651406288147, -0.048348318785429,
    0.07639949768781662, 0.00039865076541900635, 0.015418648719787598, 0.014249086380004883,
    -0.052159059792757034, 0.07137412577867508, 0.025740452110767365, -0.0439186692237854,
    -0.07669408619403839, -0.06525082886219025, 0.05388285964727402, 0.06966754049062729,
    -0.04146850109100342, 0.02444414049386978, -0.05054748058319092, -0.06152382120490074,
    0.06266395002603531, 0.08323749154806137, 0.0913504883646965, -0.0051209330558776855,
    -0.09640981256961823, 0.07313289493322372, -0.05125492811203003, -0.021576032042503357,
    -0.05804263427853584, 0.09377636760473251, -0.07654981315135956, -0.08225832879543304,
    0.015522442758083344, 0.08117590099573135, 0.08356297761201859, 0.07041969150304794,
    -0.05362321063876152, 0.07412789016962051, -0.0069219693541526794, -0.06446579843759537,
    0.02646823041141033, -0.06889110803604126, -0.07221142202615738, -0.007889230735599995,
    0.020212477073073387, -0.14180496335029602, 0.0022585864644497633, 0.12088800221681595,
    -0.005395276937633753, -0.03468604385852814, 0.12486505508422852, 0.11330758780241013,
    0.0035106150899082422, 0.07340288162231445, -0.01225075963884592, -0.06270239502191544,
    0.070574089884758, 0.09977968037128448, -0.033154070377349854, 0.007242606952786446,
    -0.042701978236436844, -0.04034578055143356, 0.049826059490442276, -0.02252837084233761,
    0.002773341489955783, 0.06879261881113052, 0.15784204006195068, 0.046720992773771286,
    0.032131146639585495, -0.03755773603916168, -0.10578763484954834, 0.0727732703089714,
    -0.04596143960952759, -0.02946479432284832, -0.0743689313530922, 0.014376773498952389,
    0.15947476029396057, -0.034130048006772995, -0.14140960574150085, 0.03280259668827057,
    0.00878101121634245, -0.0414237342774868, 0.07626239955425262, 0.08879855275154114,
    -0.014085711911320686, 0.005047046113759279, 0.0836464986205101, 0.07591969519853592,
    0.10514318943023682, -0.053711745887994766, 0.09203042834997177, 0.02125013805925846,
    0.12725183367729187, -0.0905253142118454, 0.033733781427145004, 0.07745898514986038,
    0.024301744997501373, -0.09686123579740524, 0.09618397802114487, 0.06225789338350296,
    0.016442082822322845, -0.01598300039768219, 0.07202442735433578, 0.014227703213691711,
    0.06108517199754715, -0.097483791410923, 0.019200488924980164, -0.032043397426605225,
    0.09367815405130386, -0.01987914741039276, -0.060029398649930954, 0.02075016498565674,
    0.023699380457401276, 0.07384314388036728, 0.006594575941562653, 0.08814730495214462,
    -0.06569048762321472, 0.07728084176778793, 0.06455808132886887, -0.07084516435861588,
    0.06112665683031082, -0.056093085557222366, -0.04949348047375679, 0.043841518461704254,
    0.07576704770326614, -0.0818902850151062, 0.006151236593723297, 0.011745736002922058,
    0.04253653436899185, -0.05488763004541397, -0.07032890617847443, 0.03013066202402115,
    0.0780617967247963, -0.04570746421813965, 0.053873054683208466, -0.09610377997159958,
    0.014857962727546692, 0.08227487653493881, 0.03998907655477524, -0.09360897541046143,
    -0.09373901784420013, -0.014619971625506878, -0.006971624214202166, -0.03541474789381027,
    -0.15883077681064606, -0.026302164420485497, -0.013992819003760815, 0.06564107537269592,
    0.01455693505704403, -0.012250581756234169, 0.13854782283306122, 0.13225369155406952,
    0.08720751106739044, -0.03384708613157272, 0.04151799902319908, 0.07366574555635452,
    0.09967344999313354, 0.02805500291287899, 0.09470294415950775, 0.054390206933021545,
    -0.03167198225855827, -0.08388479053974152, 0.00458152312785387, 0.11269637942314148,
    0.07026588171720505, 0.037390079349279404, 0.12960077822208405, -0.0735204815864563,
    0.11265074461698532, -0.016766006126999855, 0.03942985087633133, 0.13930049538612366,
    -0.01387840136885643, 0.1057991161942482, 0.05458623915910721, 0.058432772755622864,
    0.11692308634519577, -0.013022850267589092, 0.0120893819257617, 0.06022174656391144,
    -0.06963004171848297, 0.08085926622152328, -0.04248747229576111, 0.008579131215810776,
    0.01602323353290558, 0.027307040989398956, 0.0642663910984993, 0.025732465088367462,
    0.0747232437133789, 0.02584930509328842, 0.05904305726289749, -0.09596876800060272,
    -0.002350395545363426, 0.0454377606511116, -0.03386857360601425, -0.01226332038640976,
    -0.051690805703401566, -0.019503116607666016, 0.03243393450975418, -0.08991851657629013,
    0.011922895908355713, 0.03286001831293106, 0.0838581845164299, 0.07996632903814316,
    -0.043913066387176514, 0.011244311928749084, -0.042090654373168945, 0.03264125436544418,
    -0.042964424937963486, -0.014619424939155579, -0.030662022531032562, -0.07879112660884857,
    -0.011700108647346497, -0.09668723493814468, -0.0774603933095932, -0.01818450540304184,
    0.09295312315225601, -0.04396543651819229, -0.01871347427368164, -0.06773887574672699,
    0.04094088822603226, -0.0794481486082077, -0.05994361639022827, -0.09118858724832535,
    -0.06081196293234825, -0.023067712783813477, -0.08378390967845917, -0.08467397838830948,
    0.054895542562007904, -0.0739060789346695, 0.00983276218175888, -0.09334012120962143,
    -0.08798753470182419, -0.03247126191854477, -0.020714059472084045, 0.048866234719753265,
    -0.05689506605267525, -0.09287995100021362, -0.02416153997182846, 0.08708340674638748,
    -0.016163958236575127, 0.12352675944566727, -0.03540704771876335, -0.06689193099737167,
    0.01605278067290783, 0.050968822091817856, -0.019068507477641106, 0.02901078760623932,
    -0.08841895312070847, -0.10964315384626389, -0.02385065145790577, -0.09935232251882553,
    -0.0701044574379921, -0.15366066992282867, -0.04735155403614044, 0.01806441880762577,
    0.016814112663269043, 0.004226903896778822, -0.01979255862534046, 0.09224560856819153,
    0.0163351371884346, -0.00921651255339384, 0.020684335380792618, 0.0704878494143486,
    0.030631424859166145, 0.054304804652929306, 0.05565248802304268, 0.10997864603996277,
    -0.060828499495983124, 0.04672536253929138, -0.06981223076581955, 0.1303328424692154,
    -0.22007597982883453, 0.017061013728380203, -0.02899007499217987, 0.10350490361452103,
    0.025591479614377022, -0.11325644701719284, -0.07397358119487762, -0.04022493585944176,
    0.0036950481589883566, 0.0703326165676117, -0.010675465688109398, -0.05460105463862419,
    0.011866196990013123, 0.04694904759526253, -0.017011387273669243, 0.03667018562555313,
    -0.009883817285299301, -0.07163874059915543, -0.12498148530721664, -0.03442206606268883,
    -0.05220199376344681, -0.08653709292411804, 0.010221580974757671, -0.011411890387535095,
    -0.017339691519737244, -0.015299834311008453, -0.015669122338294983, -0.0913231372833252,
    0.000710703432559967, 0.07057025283575058, 0.09301020950078964, -0.034341320395469666,
    0.050316520035266876, -0.05866788700222969, -0.031144000589847565, -0.052699971944093704,
    0.03239382058382034, 0.0023349300026893616, -0.07746660709381104, -0.07302316278219223,
    -0.08719988912343979, 0.03704342991113663, -0.09634806215763092, -0.01571502536535263,
    0.06753727048635483, -0.031116165220737457, 0.015110395848751068, -0.09012583643198013,
    0.01973261684179306, -0.07014870643615723, -0.09196741878986359, 0.06547484546899796,
    -0.020556703209877014, 0.022989630699157715, -0.0740448385477066, -0.08398602157831192,
    0.07719578593969345, 0.00976341962814331, -0.010957673192024231, 0.0854184702038765,
    -0.07192828506231308, -0.06883104145526886, 0.09156305342912674, 0.04860494285821915,
    0.07458949834108353, 0.0758141502737999, 0.05276603251695633, 0.08951715379953384,
    -0.09457797557115555, -0.04265476018190384, -0.2833535075187683, -0.09295113384723663,
    -0.07183988392353058, -0.05401541665196419, -0.11494683474302292, -0.05533364415168762,
    -0.028155867010354996, 0.10576597601175308, 0.0695667639374733, 0.011226185597479343,
    -0.12914127111434937, -0.13565418124198914, -0.07740893959999084, 0.046130020171403885,
    0.06243773549795151, -0.012616678141057491, 0.02723749354481697, -0.07572455704212189,
    -0.09492053091526031, -0.010773220099508762, 0.14966632425785065, -0.061035171151161194,
    0.08569680154323578, 0.13112914562225342, 0.021087491884827614, -0.1918007880449295,
    0.00035043733078055084, -0.00165451318025589, -0.11298926174640656, -0.10980934649705887,
    -0.10025102645158768, 0.04925721138715744, -0.021052636206150055, -0.09048233181238174,
    -0.01543602254241705, 0.042674627155065536, -0.0594196580350399, -0.09750678390264511,
    0.042243048548698425, -0.04972047731280327, -0.2144785225391388, -0.06981286406517029,
    -0.02218315377831459, 0.056768350303173065, 0.047007765620946884, 0.01788274385035038,
    0.07208266854286194, -0.09084483236074448, 0.07915163040161133, -0.051631178706884384,
    -0.07385535538196564, -0.14855292439460754, 0.04181118309497833, -0.07535551488399506,
    -0.06982222944498062, -0.04137706756591797, -0.0168699249625206, -0.06352189183235168,
    -0.07370825856924057, 0.027340061962604523, 0.09082347899675369, -0.01855703443288803,
    0.05667249113321304, -0.06509692966938019, -0.001654401421546936, 0.04489096254110336,
    0.05630049854516983, 0.08337964862585068, 0.0790819302201271, -0.022353067994117737,
    -0.00930909812450409, 0.08094846457242966, 0.037870265543460846, -0.09681884199380875,
    0.06211931258440018, 0.0347207710146904, 0.06696385890245438, 0.07221951335668564,
    -0.013015888631343842, -0.054902948439121246, -0.0536520853638649, 0.04666177183389664,
    -0.025236092507839203, -0.056492067873477936, -0.040121544152498245, -0.03848041221499443,
    -0.009268127381801605, -0.007570646703243256, 0.09705949574708939, 0.011173628270626068,
    0.06341331452131271, 0.08985108882188797, -0.03218714892864227, 0.061488933861255646,
    0.039307959377765656, -0.0892569050192833, -0.09065748751163483, 0.08894235640764236,
    -0.03399050980806351, 0.06609546393156052, -0.04123004525899887, -0.09344015270471573,
    -0.13190585374832153, -0.14986006915569305, 0.002403214806690812, 0.052624620497226715,
    0.10773080587387085, 0.11382775008678436, -0.01736876554787159, 0.11591000854969025,
    0.1026892364025116, 0.025180410593748093, -0.07960904389619827, -0.021759308874607086,
    0.027415363118052483, -0.03955816105008125, 0.10233905166387558, 0.11869142204523087,
    0.05120135471224785, 0.08258435875177383, 0.06876355409622192, 0.029501894488930702,
    -0.015387158840894699, 0.0006254289764910936, -0.003802548162639141, -0.05759385600686073,
    0.030817903578281403, 0.07750310748815536, 0.0322430394589901, 0.015595050528645515,
    0.0032458945643156767, -0.032315026968717575, 0.07999161630868912, -0.015274281613528728,
    0.10343655198812485, 0.028651736676692963, -0.15146532654762268, 0.16887013614177704,
    0.10114330798387527, 0.10823311656713486, 0.07159023731946945, 0.08746358007192612,
    0.07596275210380554, 0.04909837618470192, 0.08549386262893677, 0.0871964544057846,
    -0.012443164363503456, -0.07696740329265594, 0.05700874701142311, -0.04045538231730461,
    0.01589280739426613, -0.01270352117717266, 0.15396174788475037, 0.05065067857503891,
    -0.0173521488904953, -0.010819830000400543, -0.07525110244750977, -0.015106841921806335,
    0.022840917110443115, -0.07783398777246475, -0.025338396430015564, 0.06128428131341934,
    -0.08396214246749878, 0.02583535760641098, -0.004608534276485443, 0.005693934857845306,
    0.011479958891868591, -0.0017319098114967346, -0.023550234735012054, 0.0410844162106514,
    -0.03489728271961212, 0.04855186492204666, 0.029719732701778412, -0.015491187572479248,
    0.08310390263795853, -0.08663684129714966, -0.08710595220327377, -0.027811549603939056,
    0.06083119660615921, -0.06689971685409546, 0.07988371700048447, -0.013500988483428955,
    0.020083464682102203, 0.009187720715999603, 0.06725957244634628, 0.044964663684368134,
    -0.035773277282714844, -0.007175460457801819, -0.09564744681119919, 0.03153971582651138,
    0.01212773472070694, 0.0061960965394973755, 0.06677188724279404, 0.05523372441530228,
    -0.0674380511045456, 0.06426485627889633, 0.05484694987535477, 0.08589407056570053,
    -0.05207780376076698, -0.06349006295204163, -0.028847333043813705, 0.01548085454851389,
    -0.09785935282707214, -0.16314268112182617, -0.03902552276849747, 0.12583957612514496,
    0.13813991844654083, -0.015092933550477028, 0.12107045948505402, 0.04332709684967995,
    0.04390956088900566, 0.06331368535757065, -0.04471106454730034, -0.0014607631601393223,
    0.10988321900367737, -0.003173619043081999, 0.11773638427257538, -0.017061427235603333,
    0.04075876250863075, -0.013242063112556934, -0.07721412181854248, -0.05791598558425903,
    -0.054159436374902725, -0.022733455523848534, 0.005185690242797136, 0.12435007095336914,
    0.13977545499801636, 0.02659153938293457, -0.045784395188093185, 0.03110455721616745,
    0.1359003782272339, 0.1619318425655365, -0.05780407413840294, -0.01270356960594654,
    0.14586548507213593, -0.07668758928775787, 0.01979348622262478, 0.17549201846122742,
    -0.02002013474702835, -0.02810487151145935, 0.1027611494064331, -0.014916500076651573,
    0.03606726974248886, 0.047581009566783905, -0.11416684836149216, -0.016058992594480515,
    -0.07014185935258865, -0.09239184111356735, 0.12675833702087402, 0.037528738379478455,
    0.029076872393488884, -0.010397241450846195, 0.16408726572990417, -0.05357623100280762,
    0.03228688985109329, -0.0845530554652214, -0.032133638858795166, -0.07357101142406464,
    0.04709116369485855, 0.030038081109523773, -0.04807892069220543, 0.06921035796403885,
    0.055876441299915314, -0.08521904796361923, -0.005853988230228424, 0.09701064974069595,
    0.09277268499135971, -0.08391690254211426, 0.06432951241731644, 0.047650523483753204,
    -0.02026256173849106, -0.048135485500097275, 0.032885126769542694, 0.04252494126558304,
    -0.018305957317352295, -0.04588905721902847, -0.012798473238945007, -0.00358591228723526,
    -0.0566539540886879, 0.04072488099336624, 0.030955307185649872, 0.07296086102724075,
    0.06309042125940323, -0.08707685768604279, -0.08131833374500275, -0.09531726688146591,
    0.0694994404911995, -0.013367317616939545, 0.005314365029335022, 0.028175152838230133,
    -0.009940996766090393, -0.043654609471559525, -0.03528384864330292, -0.014309033751487732,
    -0.0922011062502861, 0.09686750918626785, -0.03540770709514618, -0.04634522274136543,
    0.062393222004175186, 0.04074570909142494, -0.06292258203029633, -0.05829104036092758,
    0.029979299753904343, 0.09400123357772827, 0.03339686989784241, 0.0007879531476646662,
    -0.10391733795404434, -0.02046026848256588, -0.052689701318740845, -0.08960689604282379,
    0.0101833650842309, -0.08615536242723465, 0.04293506592512131, 0.0012863402953371406,
    -0.08622473478317261, -0.10883154720067978, 0.023345112800598145, -0.01786709390580654,
    -0.01741924323141575, 0.03311861678957939, -0.0969868078827858, 0.036304350942373276,
    0.008477069437503815, -0.008718839846551418, -0.0955432802438736, 0.007929578423500061,
    -0.041521117091178894, -0.016630632802844048, 0.03153304383158684, -0.09119690209627151,
    0.034643955528736115, -0.07082360982894897, 0.0341072604060173, 0.11012714356184006,
    0.07344159483909607, -0.028737502172589302, 0.0650191605091095, -0.05062471330165863,
    0.0929400846362114, 0.07886984199285507, -0.03646046668291092, 0.00951114296913147,
    -0.010492471046745777, 0.11089164763689041, -0.011319858953356743, 0.05497001111507416,
    0.04144331440329552, 0.06664426624774933, -0.08962646871805191, 0.11589454859495163,
    0.028274962678551674, -0.028890516608953476, 0.07826218008995056, -0.04992636665701866,
    -0.09383328258991241, 0.0908966138958931, 0.06840295344591141, 0.039427511394023895,
    -0.006054356694221497, -0.0563037283718586, 0.02256317436695099, -0.04432100057601929,
    0.041363008320331573, 0.02552712708711624, 0.0495821014046669, -0.05870901420712471,
    -0.03114912658929825, -0.007590338587760925, 0.05531784147024155, -0.03443014621734619,
    -0.05821247026324272, -0.03899744898080826, -0.09067352861166, -0.014306202530860901,
    0.016068540513515472, -0.04135943576693535, 0.07128997892141342, 0.040648482739925385,
    0.09828979521989822, -0.024527743458747864, 0.04627157002687454, 0.07081342488527298,
    -0.08722978830337524, -0.020080767571926117, 0.0847729817032814, -0.0835898146033287,
    0.06223193556070328, 0.01057840883731842, -0.0176093727350235, -0.004258736968040466,
    -0.05957648903131485, -0.038528408855199814, 0.07765527814626694, 0.0322684571146965,
    0.08043048530817032, -0.018949374556541443, 0.06341452151536942, -0.032150305807590485,
    -0.050482746213674545, -0.04196537658572197, 0.042685896158218384, 0.01714439131319523,
    -0.03629899024963379, -0.0182375218719244, -0.02771955356001854, -0.007616526912897825,
    0.048134490847587585, -0.012776588089764118, 0.06693587452173233, -0.07655294239521027,
    0.08559738099575043, 0.08257348090410233, -0.05745854601264, 0.07364662736654282,
    -0.01174208801239729, -0.003669167635962367, 0.04844895377755165, -0.013598376885056496,
    -0.06537716835737228, 0.0905282199382782, -0.024816811084747314, 0.04896853119134903,
    0.014165583066642284, -0.028930820524692535, -0.10972502827644348, -0.09345389157533646,
    0.08332783728837967, -0.04770461469888687, 0.0808086097240448, -0.06426309049129486,
    0.097823865711689, 0.04454614594578743, -0.042178500443696976, 0.06073422357439995,
    0.03497682511806488, -0.006563326809555292, 0.01716948114335537, -0.07556668668985367,
    -0.026626646518707275, -0.08757241815328598, -0.07986696064472198, -0.07789623737335205,
    0.07351054251194, 0.07701381295919418, -0.053211282938718796, -0.10510550439357758,
    0.07347027957439423, -0.07288295775651932, -0.06728009879589081, 0.06731855124235153,
    -0.028950748965144157, -0.10212713479995728, 0.0760984793305397, -0.08551682531833649,
    0.08454454690217972, 0.011369302868843079, 0.09246665984392166, 0.035401470959186554,
    -0.012603715062141418, 0.055963464081287384, -0.07588869333267212, -0.06860567629337311,
    0.09837769716978073, -0.052993107587099075, 0.07410360127687454, -0.07264959812164307,
    0.033915601670742035, -0.09455251693725586, 0.056676141917705536, 0.021110758185386658,
    0.0920112207531929, -0.0980139970779419, -0.014923736453056335, -0.00011993944644927979,
    0.07441719621419907, 0.029988788068294525, 0.02990175038576126, 0.02047862857580185,
    0.045830138027668, -0.07246633619070053, 0.0745200589299202, -0.09552139043807983,
    -0.011884167790412903, -0.06755167245864868, -0.05298084020614624, -0.09189661592245102,
    0.03839284926652908, 0.028336890041828156, 0.007516518235206604, -0.016485489904880524,
    -0.058202363550662994, 0.09503663331270218, 0.030236370861530304, 0.05940874665975571,
    0.09396187216043472, -0.005029335618019104, -0.024773284792900085, 0.004318639636039734,
    0.03908504545688629, 0.11193059384822845, 0.06599822640419006, 0.10650188475847244,
    0.04168842360377312, 0.12693825364112854, 0.15975190699100494, -0.07153908163309097,
    0.03581124544143677, -0.0649651512503624, 0.02763110026717186, -0.05006809160113335,
    -0.16457638144493103, -0.11933168023824692, -0.024481842294335365, -0.03864668682217598,
    -0.05144710838794708, 0.05442216247320175, -0.08250370621681213, -0.041571639478206635,
    -0.10103058815002441, -0.04171489551663399, 0.031834956258535385, 0.021339304745197296,
    -0.06889455020427704, -0.013161192648112774, -0.002519365632906556, 0.027179550379514694,
    -0.1223159059882164, 0.04141640290617943, -0.11645562946796417, -0.014724725857377052,
    -0.05708489194512367, -0.05892790108919144, 0.08897770196199417, -0.01516833808273077,
    0.048728328198194504, 0.009682497940957546, 0.13693960011005402, -0.060146916657686234,
    -0.019994623959064484, 0.028747128322720528, 0.0048021478578448296, 0.020643936470150948,
    -0.04295099526643753, 0.037828363478183746, -0.07115960121154785, -0.012035928666591644,
    0.046678099781274796, -0.02317894995212555, -0.025310302153229713, 0.09341023117303848,
    0.013413367792963982, 0.13866296410560608, 0.06997959315776825, 0.09987761825323105,
    -0.05047410726547241, -0.003776445984840393, -0.06716907024383545, 0.07189563661813736,
    -0.08629025518894196, 0.002673126757144928, -0.06802282482385635, 0.07170634716749191,
    -0.04759291559457779, -0.011600688099861145, 0.07624991983175278, -0.01997002214193344,
    -0.09035176038742065, 0.02719416469335556, -0.03178524971008301, -0.048260997980833054,
    0.046849630773067474, 0.08722538501024246, 0.09257162362337112, 0.04005511850118637,
    0.07454634457826614, -0.01005774736404419, 0.06281676143407822, -0.010544560849666595,
    -0.018295027315616608, -0.0228935107588768, -0.07704200595617294, -0.06707624346017838,
    0.017660342156887054, 0.06130585819482803, 0.024352625012397766, 0.06357752531766891,
    0.03413846343755722, 0.06655634194612503, -0.0367034450173378, 0.05996648222208023,
    0.05092913657426834, -0.07109363377094269, -0.09736298769712448, -0.07628414779901505,
    0.09932822734117508, -0.07610304653644562, -0.050302304327487946, -0.00765661895275116,
    0.11625287681818008, 0.009258821606636047, 0.07194662094116211, 0.06185587868094444,
    0.013496816158294678, 0.11811012774705887, 0.1339796483516693, -0.12043587118387222,
    0.01374761387705803, 0.033075667917728424, -0.03891171142458916, 0.004904651083052158,
    -0.1644158512353897, 0.026406370103359222, -0.01335459016263485, 0.01675410009920597,
    -0.05576835572719574, -0.07651545107364655, 0.016857177019119263, -0.009049417451024055,
    -0.10031015425920486, 0.09280284494161606, 0.02218061313033104, -0.021764764562249184,
    -0.01971324160695076, -0.13347965478897095, -0.041178856045007706, 0.06128436699509621,
    -0.0674649178981781, -0.11412475258111954, 0.023028865456581116, -0.02277415618300438,
    -0.16901972889900208, -0.051245175302028656, -0.01022561639547348, 0.05485428869724274,
    -0.03806453198194504, 0.02961246483027935, 0.13900430500507355, -0.12880955636501312,
    0.020794445648789406, 0.084352508187294, 0.008330032229423523, 0.05749192461371422,
    0.0650455579161644, 0.03085458092391491, 0.051220428198575974, -0.01487058401107788,
    0.09035376459360123, 0.02677053213119507, -0.012741870246827602, 0.08174571394920349,
    -0.05075693503022194, 0.12018956989049911, -0.008610711432993412, 0.04135582596063614,
    -0.04369257763028145, 0.08315687626600266, 0.09768926352262497, 0.08095479756593704,
    0.03959909826517105, -0.0688605085015297, -0.035542070865631104, -0.06098359823226929,
    0.024784520268440247, -0.0008982270956039429, -0.008568719029426575, 0.058066196739673615,
    -0.018732652068138123, 0.012744888663291931, -0.029299296438694, 0.027679823338985443,
    -0.038703978061676025, 0.08990443497896194, -0.012654401361942291, 0.050786830484867096,
    -0.061729468405246735, 0.08213558048009872, 0.024356499314308167, -0.06750718504190445,
    0.08131181448698044, -0.06351649761199951, 0.04285552352666855, -0.051705218851566315,
    -0.09369727224111557, -0.09455617517232895, 0.04002775996923447, -0.03408201038837433,
    0.07783151417970657, -0.06177645921707153, -0.013146840035915375, 0.06759398430585861,
    0.010047294199466705, 0.04038507491350174, 0.03176169842481613, -0.08294655382633209,
    0.06824941188097, 0.02747703343629837, 0.09372580796480179, -0.08402256667613983,
    0.03338881954550743, -0.05047454312443733, 0.03261227160692215, -0.06350730359554291,
    -0.055194854736328125, -0.023668311536312103, 0.025827156379818916, -0.06972475349903107,
    0.05159821733832359, -0.08678625524044037, 0.08249872922897339, 0.007253866642713547,
    0.009615722112357616, -0.049846481531858444, 0.02071758359670639, 0.027947915717959404,
    0.08903199434280396, 0.05727751925587654, -0.06908924132585526, -0.07390616834163666,
    -0.08591718226671219, -0.05166226997971535, 0.06753671914339066, 0.003956779837608337,
    0.0668705403804779, 0.05596465617418289, 0.08776252716779709, -0.036655962467193604,
    0.03154280036687851, 0.002296946942806244, -0.004593328572809696, -0.08966509252786636,
    0.10507915169000626, 0.06966322660446167, 0.08297032862901688, 0.05147348344326019,
    -0.05999830737709999, -0.019421137869358063, -0.029663709923624992, 0.06101614981889725,
    -0.08041998744010925, -0.047389473766088486, 0.07028467208147049, 0.0037064761854708195,
    -0.04221436008810997, -0.0426427498459816, 0.05283001810312271, 0.03447958081960678,
    0.034312739968299866, -0.007960038259625435, -0.0654311552643776, 0.04372958093881607,
    -0.043882567435503006, 0.06730398535728455, 0.025587445124983788, 0.04053833335638046,
    -0.09785633534193039, -0.09829182922840118, -0.039949167519807816, 0.05204138904809952,
    -0.021089985966682434, 0.030034057796001434, 0.07765223830938339, 0.022170163691043854,
    0.04471292346715927, 0.03530024737119675, 0.07912947982549667, -0.05608329921960831,
    0.07459398359060287, -0.0373716726899147, 0.09857874363660812, -0.04824571684002876,
    -0.08079776912927628, 0.0843244418501854, -0.004009164869785309, -0.012906491756439209,
    0.07487411051988602, 0.06275815516710281, -0.05192912742495537, 0.06126571446657181,
    0.011475123465061188, -0.0874825045466423, -0.037827279418706894, -0.01463763415813446,
    0.016239427030086517, 0.09537146240472794, -0.08691462129354477, 0.030531056225299835,
    0.012693904340267181, 0.07540365308523178, 0.06426060944795609, 0.05285712331533432,
    -0.05819378048181534, -0.08462928980588913, -0.026966430246829987, -0.08914168924093246,
    0.09931955486536026, 0.04191609472036362, 0.03418431431055069, -0.07945764064788818,
    0.01558002457022667, -0.09111053496599197, 0.042571816593408585, 0.03149424120783806,
    -0.022256072610616684, -0.0038566412404179573, -0.01974344626069069, -0.050659772008657455,
    0.0290298443287611, 0.0029834453016519547, -0.0016276839887723327, -0.026375941932201385,
    -0.03216482326388359, -0.04934372380375862, 0.06980526447296143, -0.05316237732768059,
    0.0015466362237930298, -0.04088382050395012, -0.04202345758676529, 0.07569689303636551,
    -0.08066445589065552, 0.03180878609418869, 0.050327397882938385, -0.05161884054541588,
    -0.0569356232881546, -0.003227924695238471, 0.023862002417445183, 0.0016894345171749592,
    0.015205205418169498, -0.06588268280029297, -0.12099383026361465, 0.05037804692983627,
    -0.1021781787276268, -0.11699271202087402, 0.05189008265733719, -0.09418732672929764,
    0.07581599056720734, -0.034165024757385254, -0.030500497668981552, -0.004768154118210077,
    0.09778404235839844, 0.07186000049114227, 0.026791049167513847, 0.09022118896245956,
    0.13163109123706818, -0.0016424250788986683, 0.054741401225328445, -0.010794819332659245,
    0.024700673297047615, 0.027890974655747414, 0.030348120257258415, 0.10616599768400192,
    0.0636606216430664, -0.0072143469005823135, -0.04046846553683281, -0.0443461649119854,
    -0.02947676181793213, 0.007836006581783295, -0.040320515632629395, 0.0817730501294136,
    0.025923125445842743, -0.07337218523025513, -0.002608858048915863, 0.03937102109193802,
    0.03163280338048935, -0.006588973104953766, -0.0008318200707435608, 0.09163927286863327,
    -0.09750843048095703, -0.002366170287132263, 0.0647062286734581, -0.018459759652614594,
    -0.041229166090488434, 0.05758530646562576, -0.04405432939529419, -0.02589106559753418,
    0.03736383467912674, 0.07813692837953568, -0.03756241872906685, 0.03155266493558884,
    0.0924677774310112, 0.04802360385656357, 0.029969342052936554, -0.048409488052129745,
    0.011431649327278137, 0.05167529731988907, -0.07433734834194183, -0.0688399076461792,
    0.008646346628665924, 0.006989762187004089, -0.030170634388923645, -0.011318579316139221,
    0.08817105740308762, -0.02344401925802231, 0.006086766719818115, 0.08312202244997025,
    0.05782768875360489, 0.082478366792202, 0.04951276630163193, 0.04092378169298172,
    -0.014636334963142872, 0.16353490948677063, 0.006016915198415518, -0.040727194398641586,
    0.11467263847589493, -0.07297110557556152, 0.05092863738536835, -0.008790683932602406,
    -0.06608486920595169, -0.09319673478603363, -0.0569225549697876, -0.12814059853553772,
    0.013686617836356163, 0.04981399327516556, 0.016618167981505394, 0.06836403161287308,
    -0.10324335843324661, 0.055847980082035065, 0.07848389446735382, 0.003607087302953005,
    -0.10487307608127594, 0.11328503489494324, -0.03618370741605759, 0.05562584474682808,
    -0.15954101085662842, -0.06598371267318726, 0.04319893568754196, 0.052180215716362,
    -0.126441091299057, -0.105179063975811, -0.030146868899464607, -0.11780200898647308,
    -0.022392449900507927, -0.14625388383865356, -0.0737171322107315, 0.09368189424276352,
    -0.07119464874267578, 0.15702927112579346, 0.054687220603227615, -0.06715819239616394,
    -0.001692604273557663, 0.09536759555339813, 0.10045155137777328, -0.05032781884074211,
    -0.05021149292588234, 0.08000966161489487, 0.012268614955246449, 0.10619911551475525,
    0.011194502003490925, 0.02936394326388836, -0.04599963501095772, 0.1004769504070282,
    -0.07608658820390701, 0.09588064253330231, -0.11655299365520477, -0.005550004541873932,
    -0.04729070886969566, -0.0024064630270004272, -0.08925435692071915, 0.07471408694982529,
    -0.09886827319860458, 0.04538611322641373, 0.06040746718645096, -0.065800741314888,
    -0.07279030978679657, -0.09591738134622574, 0.08933288604021072, -0.020765580236911774,
    -0.033084310591220856, -0.06019200012087822, -0.01747230440378189, -0.0714757889509201,
    -0.04510488733649254, 0.054272256791591644, -0.024762094020843506, -0.06979198753833771,
    0.08529961854219437, 0.06987398117780685, 0.058083511888980865, 0.044258199632167816,
    0.0216703861951828, 0.034093521535396576, 0.00802314281463623, -0.025920413434505463,
    0.011061884462833405, 0.09073258191347122, -0.007654629647731781, 0.04289165884256363,
    -0.09381438791751862, -0.013702355325222015, -0.0035233274102211, -0.08507978916168213,
    -0.05807485803961754, 0.035088010132312775, -0.012768842279911041, -0.03164176642894745,
    0.02545691281557083, 0.04550892859697342, 0.03247792273759842, 0.04902572184801102,
    0.038955993950366974, 0.11631528288125992, 0.0730196088552475, -0.044978659600019455,
    0.1668235957622528, 0.08065874874591827, 0.041140664368867874, 0.0557074137032032,
    0.09754630923271179, 0.04552718997001648, -0.03540505841374397, -0.1191418319940567,
    -0.09248215705156326, -0.1101612076163292, -0.022212503477931023, -0.056197065860033035,
    -0.06156047061085701, 0.00904314685612917, -0.006922213826328516, -0.08780915290117264,
    0.030029473826289177, 0.12708695232868195, -0.1005806028842926, -0.04943392425775528,
    -0.14952675998210907, -0.08574867248535156, -0.028844116255640984, 0.034401826560497284,
    0.006944033317267895, -0.1286279261112213, 0.05970711633563042, -0.012309559620916843,
    -0.16408559679985046, -0.07123249769210815, 0.0015404224395751953, 0.07666818052530289,
    -0.0605909526348114, 0.11812296509742737, 0.06736781448125839, -0.03470129147171974,
    -0.0655125305056572, 0.03473617136478424, 0.07376556098461151, 0.008865192532539368,
    0.06370711326599121, 0.11753052473068237, 0.029197392985224724, 0.016025422140955925,
    0.0759388878941536, 0.14895670115947723, -0.08535957336425781, 0.05874745920300484,
    -0.0341518260538578, 0.11759926378726959, -0.015971224755048752, 0.03109874576330185,
    -0.059935808181762695, 0.02587965875864029, 0.03518667072057724, 0.08798206597566605,
    -0.08359520137310028, 0.08423040062189102, 0.020374372601509094, -0.09917372465133667,
    0.0433560386300087, -0.08439953625202179, 0.0893864706158638, -0.08444350212812424,
    -0.019346989691257477, -0.016080893576145172, -0.0062567442655563354, 0.09274161607027054,
    0.00985647737979889, -0.09764803946018219, -0.05246734619140625, -0.05984107404947281,
    -0.07114650309085846, -0.021644212305545807, -0.00958240032196045, -0.08257360756397247,
    -0.057577501982450485, 0.03279910236597061, 0.026810236275196075, -0.09304822981357574,
    0.05413351207971573, 0.05004047602415085, 0.0573795810341835, -0.009212717413902283,
    -0.039940476417541504, 0.09971075505018234, 0.05396229773759842, -0.0193847194314003,
    -0.047334518283605576, -0.05990948900580406, -0.09986471384763718, 0.08429310470819473,
    -0.07742619514465332, 0.08676908165216446, 0.05266053229570389, 0.02293018251657486,
    0.082381471991539, 0.0011843692045658827, -0.0014333510771393776, 0.07968156039714813,
    0.037988726049661636, -0.03395796939730644, 0.006284112576395273, -0.011791624128818512,
    -0.004012731369584799, 0.08950190246105194, -0.07394567131996155, -0.00010202130943071097,
    0.007306952960789204, 0.0836045891046524, 0.0749850794672966, -0.07297191768884659,
    0.0870664045214653, -0.04243849962949753, -0.056855689734220505, -0.02722875028848648,
    -0.05584312602877617, 0.09030130505561829, -0.01812920719385147, 0.04927314072847366,
    0.06607163697481155, 0.0010033026337623596, 0.09981132298707962, -0.009103000164031982,
    0.01672901213169098, 0.03703589737415314, 0.0912170335650444, 0.022463522851467133,
    -0.07520541548728943, -0.03013685904443264, -0.09398011118173599, 0.004557168111205101,
    0.019463567063212395, 0.044670023024082184, -0.005681594833731651, -0.00711415708065033,
    -0.09558048099279404, 0.03950494900345802, 0.01694411039352417, -0.08383561670780182,
    -0.057956207543611526, 0.05780588835477829, -0.015196261927485466, -0.03500724211335182,
    0.05599362775683403, -0.007477340288460255, -0.05104989930987358, -0.06478951871395111,
    -0.09119817614555359, 0.020300019532442093, -0.04193904250860214, -0.07471980154514313,
    0.009910106658935547, 0.055120788514614105, -0.08750472217798233, 0.09034063667058945,
    -0.01264190673828125, -0.07847670465707779, -0.03178565204143524, -0.0083746537566185,
    -0.07902506738901138, -0.08643018454313278, 0.010218396782875061, 0.0424746498465538,
    0.026276521384716034, 0.02167610079050064, 0.030732639133930206, -0.03852824121713638,
    0.09773147851228714, 0.08961986750364304, -0.09273648262023926, -0.05359239503741264,
    -0.058950018137693405, -0.05667104944586754, 0.0554470494389534, -0.040499307215213776,
    -0.0331905260682106, 0.008516788482666016, -0.057492446154356, -0.014809846878051758,
    -0.004968687891960144, 0.08252594619989395, 0.08908993750810623, 0.005243122577667236,
    -0.06999007612466812, -0.039181437343358994, -0.0915364995598793, -0.04487135633826256,
    -0.03856513649225235, 0.059404321014881134, -0.08811016380786896, -0.001959875226020813,
    0.024642422795295715, -0.027061939239501953, -0.07217656075954437, -0.010536745190620422,
    -0.12197540700435638, -0.06768465787172318, 0.078695148229599, 0.03315988928079605,
    0.007361580152064562, -0.07559046894311905, 0.02655581384897232, 0.1580130159854889,
    -0.06509979814291, 0.10814005136489868, 0.10913033038377762, 0.12628476321697235,
    0.05213405191898346, 0.0003671176091302186, -0.05718928202986717, 0.11735117435455322,
    0.08955185860395432, 0.11568861454725266, 0.044432494789361954, 0.022128254175186157,
    -0.020295370370149612, -0.018112704157829285, 0.05872981250286102, 0.09907107800245285,
    0.05181654542684555, 0.04692452773451805, 0.09542559832334518, -0.0371728241443634,
    0.006241030991077423, 0.023506786674261093, -0.04519091546535492, 0.07618539780378342,
    0.02157595567405224, 0.14849846065044403, 0.0325891450047493, 0.007564600091427565,
    0.029145589098334312, -0.15114663541316986, -0.12204235047101974, 0.01427261158823967,
    0.010189029388129711, 0.08148092776536942, 0.06920211017131805, 0.09625557065010071,
    0.05800268426537514, -0.009839578531682491, -0.06262075155973434, -0.05325404554605484,
    0.03205325827002525, -0.006738669704645872, 0.021063629537820816, 0.012113526463508606,
    0.1259646713733673, -0.06839416921138763, -0.01601162739098072, -0.047603558748960495,
    0.07589621096849442, -0.03999408707022667, 0.04814218729734421, -0.01051473617553711,
    0.016166411340236664, 0.0002158433198928833, 0.03679332882165909, -0.08842020481824875,
    0.04388441890478134, 0.03551691025495529, 0.03907621651887894, 0.012483477592468262,
    0.059404946863651276, 0.045443035662174225, -0.006434217095375061, -0.028595328330993652,
    0.03434864431619644, -0.03491421788930893, 0.05777288228273392, 0.038225509226322174,
    0.026450328528881073, -0.07906122505664825, -0.0034165158867836, -0.06998343765735626,
    0.007629655301570892, 0.08015792816877365, 0.08220287412405014, -0.04235202074050903,
    0.09950179606676102, -0.00820372998714447, 0.08556420356035233, 0.01486670970916748,
    -0.04051051288843155, -0.06189241632819176, -0.06865194439888, -0.07630471885204315,
    -0.06070907041430473, -0.08179090917110443, -0.024758264422416687, -0.029325172305107117,
    -0.02468957006931305, -0.08270708471536636, -0.05424848943948746, -0.06054246425628662,
    0.11239010840654373, 0.02606346271932125, 0.009139567613601685, 0.08359171450138092,
    0.14662715792655945, 0.052035849541425705, 0.1477780044078827, -0.16837510466575623,
    -0.10440479964017868, -0.054250676184892654, -0.08887563645839691, -0.03109683282673359,
    -0.1684684157371521, -0.06678297370672226, 0.12976913154125214, 0.03150534629821777,
    0.0024023675359785557, -0.058558568358421326, 0.016832096502184868, -0.018049275502562523,
    -0.005034557543694973, -0.025443710386753082, -0.05017653480172157, 0.027098601683974266,
    -0.0727422684431076, -0.13245826959609985, 0.028898602351546288, -0.0826866403222084,
    -0.09576184302568436, -0.15615329146385193, -0.09056112915277481, -0.17136968672275543,
    -0.15693436563014984, -0.062083203345537186, 0.07069695740938187, 0.05282890424132347,
    0.006083478685468435, 0.09731356054544449, 0.12917236983776093, -0.17836493253707886,
    0.07864563912153244, -0.022950250655412674, 0.05061197280883789, -0.053243488073349,
    -0.00923260860145092, -0.017931869253516197, 0.07891874015331268, 0.10449981689453125,
    0.10837824642658234, 0.05047838017344475, 0.05439059063792229, -0.010117439553141594,
    0.01881747879087925, 0.005307390354573727, -0.051166832447052, -0.0046067014336586,
    0.003133714199066162, -0.01866525411605835, 0.05475272983312607, 0.06033868342638016,
    0.08205456286668777, -0.08155497163534164, 0.004434071481227875, -0.004957452416419983,
    -0.09092425554990768, -0.008055731654167175, 0.06615366786718369, 0.060732461512088776,
    -0.031207479536533356, 0.03338327258825302, 0.07080186158418655, -0.03617153316736221,
    -0.00401286780834198, -0.015270091593265533, 0.048875801265239716, 0.02014833688735962,
    -0.011262215673923492, -0.002451680600643158, -0.09348475933074951, -0.06830385327339172,
    -0.05674070119857788, 0.035720400512218475, -0.04844992235302925, -0.06048760563135147,
    -0.00716090202331543, 0.018170222640037537, 0.08062040060758591, 0.08741600066423416,
    -0.01570446789264679, 0.06458879262208939, 0.012189231812953949, -0.0993141308426857,
    0.018349483609199524, -0.05416448041796684, -0.0632031261920929, 0.0727444514632225,
    0.07389108091592789, -0.08607768267393112, -0.05312521383166313, 0.014664754271507263,
    0.05307472124695778, 0.01995048113167286, -0.026130061596632004, 0.14296847581863403,
    0.007341706659644842, 0.0140438387170434, 0.1271921843290329, -0.04974230006337166,
    -0.04871055483818054, -0.10653764754533768, 0.06082466244697571, 0.004156764131039381,
    -0.03490005061030388, 0.020149247720837593, 0.10243586450815201, -0.07155791670084,
    0.012550795450806618, -0.01508310530334711, -0.10207753628492355, -0.05446844547986984,
    -0.10067358613014221, -0.03782447800040245, -0.04586990550160408, -0.10336457192897797,
    -0.11871989816427231, -0.038171179592609406, -0.07231191545724869, -0.029667727649211884,
    -0.036684028804302216, -0.08232616633176804, -0.10646167397499084, -0.1278628259897232,
    -0.15501216053962708, -0.008420564234256744, 0.06525886803865433, 0.04392727091908455,
    -0.10539987683296204, -0.0011521072592586279, 0.10818582028150558, -0.09186117351055145,
    0.035418570041656494, -0.014013263396918774, 0.023471539840102196, 0.08757378160953522,
    0.0889887660741806, -0.007231974508613348, -0.014846068806946278, 0.08665875345468521,
    0.05224476009607315, 0.09480847418308258, -0.03456663340330124, 0.11164649575948715,
    -0.023784872144460678, 0.17072901129722595, 0.013362552970647812, 0.07041443139314651,
    -0.0620257630944252, 0.03160644322633743, 0.08521347492933273, -0.05140601471066475,
    0.05934471637010574, 0.05593317002058029, -0.05913590267300606, -0.06293211132287979,
    -0.06844715774059296, -0.0025797039270401, 0.04409971088171005, -0.09749958664178848,
    -0.0541059635579586, -0.026809968054294586, -0.018900811672210693, 0.06178716570138931,
    0.09495841711759567, 0.039105869829654694, -0.029831692576408386, -0.07100363075733185,
    0.0652385726571083, 0.05070582777261734, 0.05610143393278122, -0.02690986543893814,
    0.06553495675325394, -0.07476396858692169, 0.08575297147035599, -0.07758371531963348,
    0.015175864100456238, 0.07885878533124924, 0.038287483155727386, 0.04639861732721329,
    -0.08303405344486237, 0.026421375572681427, -0.09304157644510269, 0.014321789145469666,
