{
  "value_weights": [
    -0.03322804719209671, 0.09619855880737305, 0.061736322939395905, -0.08706824481487274,
    -0.032036036252975464, -0.02177334576845169, 0.04918866604566574, -0.10038727521896362,
    -0.0168860275298357, 0.04838898032903671, 0.05457649379968643, 0.08598682284355164,
    0.06313103437423706, -0.0939505398273468, -0.001286625862121582, 0.04174914211034775,
    0.005838707089424133, 0.024578401818871498, -0.11071401834487915, 0.05945128947496414,
    -0.011144734919071198, 0.0014654546976089478, -0.025508247315883636, 0.0015019550919532776,
    0.05023229867219925, 0.07069826871156693, -0.06850019842386246, 0.10120187699794769,
    -0.002397201955318451, -0.06549784541130066, 0.10732709616422653, -0.03788305073976517,
    0.0451895073056221, -0.06059988960623741, -0.06297922134399414, -0.002979904180392623,
    -0.02122991345822811, 0.031825609505176544, 0.0826558992266655, 0.05491996556520462,
    0.017452901229262352, 0.03550726920366287, 0.007280860561877489, 0.06464793533086777,
    -0.08303426206111908, 0.026139982044696808, 0.01926896907389164, -0.044622354209423065,
    0.01470935344696045, -0.09160850942134857, 0.09857169538736343, -0.05814826488494873,
    0.05529136210680008, -0.0712566152215004, -0.09102047979831696, -0.08243797719478607,
    -0.09782954305410385, -0.06103755161166191, -0.04079320654273033, -0.0022431612014770508,
    0.07198738306760788, 0.017184928059577942, 0.025641895830631256, 0.04921469837427139,
    -0.0726836696267128, -0.0227217897772789, -0.023831620812416077, -0.06349524855613708,
    0.0261024609208107, 0.07073206454515457, -0.08248832076787949, -0.011105969548225403,
    0.08632247895002365, 0.0031779780983924866, 0.04155369848012924, -0.030480459332466125,
    0.09112115949392319, -0.03949114307761192, -0.07441455125808716, -0.049584295600652695,
    0.0025652870535850525, -0.047655560076236725, 0.006574556231498718, 0.09464959055185318,
    -0.09329228848218918, 0.04703255742788315, -0.09011586755514145, 0.0017512068152427673,
    -0.04220747947692871, 0.0011781007051467896, 0.04782713204622269, -0.055206071585416794,
    0.012231811881065369, -0.0026255622506141663, 0.08983886986970901, 0.019706450402736664,
    -0.008207499980926514, 0.0995069220662117, 0.08850624412298203, -0.05079085752367973,
    0.03515642508864403, -0.08090755343437195, 0.08969951421022415, -0.0707569345831871,
    0.04583123326301575, 0.10942048579454422, 0.005027908366173506, 0.07758530229330063,
    0.014676054939627647, 0.11109917610883713, 0.05232170224189758, 0.11222568899393082,
    -0.08479809015989304, -0.023333562538027763, -0.07539781928062439, -0.030234254896640778,
    -0.02822905220091343, 0.02618374489247799, -0.035570040345191956, 0.046748578548431396,
    -0.050762563943862915, 0.06142595782876015, -0.08534157276153564, 0.07471325993537903,
    0.0823867917060852, -0.09163497388362885, 0.05738577991724014, 0.059053827077150345,
    0.01757684536278248, 0.03643666207790375, 0.0447336882352829, 0.07525969296693802,
    -0.015887977555394173, 0.011516024358570576, -0.07167665660381317, 0.0016060766065493226,
    -0.07886184006929398, 0.052323244512081146, -0.07224141061306, 0.006714724004268646,
    0.06462417542934418, 0.03546427935361862, 0.0620301328599453, -0.08193310350179672,
    -0.058979012072086334, 0.03409183770418167, 0.00928221270442009, 0.0029770529363304377,
    0.06160696595907211, 0.053524065762758255, -0.024200282990932465, -0.09650678932666779,
    -0.02413003146648407, 0.05441012606024742, -0.05163475498557091, -0.054680850356817245,
    -0.062494825571775436, 0.03428579121828079, -0.021702885627746582, 0.06241203099489212,
    0.06284312158823013, -0.021770499646663666, -0.037571024149656296, -0.06916898488998413,
    -0.0541512630879879, 0.011981561779975891, 0.0347868874669075, 0.06709050387144089,
    0.017253533005714417, 0.05331297963857651, -0.07731430232524872, -0.061418939381837845,
    -0.08121468126773834, -0.09023519605398178, -0.04370242357254028, 0.0037997737526893616,
    -0.005814991891384125, -0.0679398626089096, -0.003487110137939453, -0.0857928916811943,
    0.011685177683830261, -0.0007927566766738892, 0.08004463464021683, 0.0069524794816970825,
    0.05782897025346756, 0.08962485939264297, 0.08839810639619827, -0.03027191013097763,
    -0.05696212127804756, 0.042650483548641205, -0.014435186982154846, -0.07640086114406586,
    -0.03953852877020836, 0.029817350208759308, 0.019273295998573303, -0.011017881333827972,
    0.08686006814241409, 0.03937096148729324, -0.08398491144180298, -0.036798834800720215,
    0.07723342627286911, -0.10085393488407135, -0.013381739147007465, -0.006097372621297836,
    -0.0021401725243777037, -0.08761453628540039, 0.10103921592235565, 0.029179608449339867,
    0.006470984313637018, -0.06776018440723419, -0.08426232635974884, 0.009387305937707424,
    0.03293869271874428, -0.07693678140640259, -0.06990032643079758, -0.039516180753707886,
    0.016764769330620766, 0.024556376039981842, 0.03823127970099449, 0.08222646266222,
    -0.040995776653289795, -0.07674300670623779, 0.03157726675271988, 0.06875200569629669,
    0.059933315962553024, 0.05143096297979355, 0.07746990025043488, 0.014314433559775352,
    -0.055152665823698044, -0.0631079375743866, 0.06480918079614639, 0.06299526989459991,
    -0.07316206395626068, 0.07859525829553604, -0.09270951896905899, -0.0074010686948895454,
    -0.04662259295582771, 0.047451622784137726, 0.027845166623592377, -0.07824144512414932,
    -0.04463323950767517, 0.09855446964502335, 0.09118146449327469, 0.026800788938999176,
    0.0908932238817215, 0.027087382972240448, 0.06658872961997986, 0.091515451669693,
    0.0939340814948082, -0.07281143963336945, 0.003452196717262268, -0.006151972804218531,
    0.06116987019777298, -0.09766115993261337, 0.034679897129535675, -0.06709161400794983,
    -0.09874408692121506, -0.050743427127599716, -0.08970167487859726, -0.0727987065911293,
    0.06417570263147354, 0.018264472484588623, 0.015169605612754822, 0.03146275132894516,
    0.015698716044425964, -0.02580460160970688, -0.07882173359394073, 0.08646083623170853,
    0.0896998718380928, -0.029169335961341858, -0.051590051501989365, -0.008428595960140228,
    0.09682122617959976, -0.045013703405857086, -0.08419299125671387, -0.05540350824594498,
    0.01572813093662262, -0.013604365289211273, 0.07222598046064377, 0.0677652433514595,
    0.08582254499197006, -0.005071535706520081, -0.05123543739318848, 0.08592546731233597,
    -0.08364982903003693, 0.043428145349025726, -0.0033999308943748474, 0.061126090586185455,
    -0.026656314730644226, -0.09099888056516647, -0.08845875412225723, -0.05421821027994156,
    -0.01779993623495102, 0.09555620700120926, -0.0172417014837265, 0.023025035858154297,
    -0.06114472076296806, -0.0750071182847023, -0.049828898161649704, -0.046411991119384766,
    -0.08746922016143799, 0.05308445543050766, 0.04411156475543976, 0.08254077285528183,
    0.012647094205021858, -0.008269271813333035, -0.012231062166392803, -0.004488381091505289,
    0.04539291188120842, 0.07163643836975098, 0.033795472234487534, -0.07282524555921555,
    0.08587116003036499, -0.04876616969704628, -0.05648526921868324, 0.027721185237169266,
    -0.11475472897291183, 0.0476098470389843, 0.0029741786420345306, -0.060902077704668045,
    -0.05030084401369095, -0.06740346550941467, -0.0136271882802248, 0.10384184867143631,
    0.10802744328975677, 0.05746447667479515, -0.009172032587230206, -0.03417343273758888,
    0.027849024161696434, -0.04480762034654617, 0.09025095403194427, 0.04074203595519066,
    0.04837543144822121, 0.014320260845124722, -0.09894418716430664, 0.04848874360322952,
    -0.041259415447711945, -0.04625416919589043, 0.015380360186100006, -0.051739275455474854,
    0.032059259712696075, 0.061380334198474884, -0.00904205720871687, -0.024381041526794434,
    0.0908566266298294, 0.005353294312953949, 0.08515533804893494, 0.005643336568027735,
    -0.06667379289865494, -0.029558958485722542, -0.09834414720535278, 0.02594008296728134,
    -0.05131807550787926, -0.06580173224210739, -0.015654467046260834, -0.06040297821164131,
    0.06332147866487503, -0.06257395446300507, 0.04283212870359421, 0.0338396355509758,
    -0.015238523483276367, 0.07338958233594894, -0.09262242168188095, 0.05985947698354721,
    0.038596875965595245, -0.026397086679935455, 0.07958722859621048, -0.0107179656624794,
    0.08991724997758865, 0.036280952394008636, 0.07133933156728745, 0.04789971560239792,
    -0.07889878749847412, -0.016031160950660706, -0.09100234508514404, 0.09704578667879105,
    -0.09810632467269897, -0.006407991051673889, 0.0075544267892837524, 0.05768609791994095,
    -0.09822425991296768, 0.09386111050844193, -0.07826875150203705, -0.09219515323638916,
    0.07951321452856064, 0.09001273661851883, 0.08396265655755997, -0.04744565486907959,
    -0.00555882602930069, -0.003978833556175232, -0.0988057479262352, -0.030258797109127045,
    -0.059710025787353516, 0.0091157928109169, -0.001098528504371643, 0.036402978003025055,
    0.017990626394748688, 0.06680608540773392, -0.07906623929738998, 0.06047511845827103,
    -0.06898557394742966, -0.065951868891716, -0.06408034265041351, 0.10278332978487015,
    -0.004636510740965605, 0.006906184833496809, 0.05383969098329544, -0.015903620049357414,
    0.08244006335735321, -0.0256881732493639, 0.0008910003816708922, 0.09008616209030151,
    -0.06586363911628723, -0.0738431066274643, 0.005795489996671677, -0.07708737999200821,
    -0.07210548967123032, 0.05676913261413574, -0.10657449066638947, -0.029492871835827827,
    0.05663708969950676, 0.06575022637844086, 0.026414349675178528, -0.034558605402708054,
    0.0113370968028903, -0.005953827872872353, -0.09856820851564407, -0.03048967383801937,
    0.034526679664850235, -0.06782236695289612, -0.03272369131445885, -0.06073300912976265,
    -0.10171840339899063, 0.03204457461833954, -0.03847181797027588, -0.05003650486469269,
    -0.03333071991801262, 0.012429699301719666, -0.03981577232480049, 0.0635283812880516,
    0.03913513943552971, -0.06385535001754761, 0.02776062674820423, -0.08608045428991318,
    0.05622924491763115, -0.09357166290283203, -0.045423753559589386, -0.01018974743783474,
    -0.01265878975391388, 0.08606535941362381, -0.051303185522556305, -0.023631084710359573,
    -0.044135987758636475, 0.015430290251970291, 0.033008404076099396, -0.0007688179612159729,
    0.058512575924396515, -0.03313150256872177, -0.018132373690605164, -0.08361446857452393,
    0.0007515773177146912, 0.04396582394838333, 0.05389720946550369, -0.014338314533233643,
    0.06863569468259811, -0.04289032146334648, 0.027429871261119843, 0.07965578883886337,
    0.01724538952112198, -0.0009498372673988342, 0.03660803288221359, -0.02304825931787491,
    -0.053311076015233994, -0.030773356556892395, -0.016985908150672913, -0.05943583324551582,
    0.07479498535394669, 0.06992164999246597, -0.06256736814975739, -0.022750698029994965,
    0.06297754496335983, 0.03509315103292465, -0.06624554097652435, 0.04155803471803665,
    -0.07196293026208878, -0.07222757488489151, -0.0995459333062172, -0.02466064691543579,
    0.03384167701005936, -0.08639613538980484, -0.010563567280769348, -0.028479717671871185,
    0.05783482640981674, -0.0560392402112484, -0.036563143134117126, -0.017596974968910217,
    -0.08211734145879745, -0.08067182451486588, -0.0537380687892437, 0.09809080511331558,
    0.0887356773018837, 0.07720077782869339, 0.032807357609272, 0.06648976355791092,
    -0.06865842640399933, 0.04820927232503891, 0.09184537082910538, 0.003314778208732605,
    0.042985327541828156, 0.010475888848304749, -0.06013413891196251, 0.07190363854169846,
    0.0039481520652771, -0.002411559224128723, 0.016340211033821106, -0.09599784761667252,
    0.006520189344882965, 0.0015970021486282349, -0.0645998865365982, 0.05679265409708023,
    0.07908495515584946, -0.09525998681783676, 0.019524753093719482, 0.016486190259456635,
    -0.06355893611907959, 0.02511579543352127, 0.06830456107854843, -0.09100396931171417,
    -0.05031704902648926, 0.05163910239934921, -0.01694352924823761, 0.03330818563699722,
    0.09692660719156265, -0.005044654011726379, -0.09725860506296158, -0.07000578939914703,
    -0.0975131168961525, 0.025235585868358612, -0.018527068197727203, -0.0577954426407814,
    -0.07265468686819077, 0.09117377549409866, -0.09413697570562363, 0.06375227123498917,
    0.0052955299615859985, -0.09040720760822296, 0.006220616400241852, -0.05055776983499527,
    0.07869616895914078, -0.067888543009758, 0.05089782923460007, 0.013066805899143219,
    0.08920872956514359, 0.07877031713724136, -0.021188989281654358, -0.003150738775730133,
    0.00467132031917572, -0.07573000341653824, 0.05874139815568924, -0.05470658466219902,
    -0.01145857572555542, -0.08201932907104492, -0.05119221284985542, -0.08785911649465561,
    0.07628882676362991, -0.010690927505493164, -0.019189253449440002, -0.09747590124607086,
    -0.0186714306473732, 0.09143806248903275, 0.04846677929162979, -0.062433160841464996,
    0.011701211333274841, -0.0486617349088192, -0.004847429692745209, -0.07103327661752701,
    0.03938884288072586, -0.057972777634859085, -0.07746981084346771, -0.03181998431682587,
    0.08007156103849411, 0.060491807758808136, 0.03555571287870407, 0.034654729068279266,
    0.036353059113025665, 0.038860566914081573, -0.02514958381652832, 0.03742056339979172,
    0.049011342227458954, -0.06607083976268768, -0.026542961597442627, -0.08427438884973526,
    -0.021006479859352112, 0.004911638796329498, 0.04262954741716385, -0.018644466996192932,
    -0.0800967589020729, 0.05273469537496567, -0.0333065390586853, 0.040729738771915436,
    -0.020362254232168198, -0.005092074163258076, 0.0625341609120369, -0.09018617868423462,
    -0.03443210572004318, -0.03666824474930763, 0.017409328371286392, -0.029955755919218063,
    -0.053200140595436096, 0.0398380272090435, 0.10438230633735657, -0.022921543568372726,
    -0.08243478089570999, -0.08701995015144348, 0.049406684935092926, 0.033707134425640106,
    0.005235149059444666, -0.08391544967889786, -0.028951510787010193, 0.04264146834611893,
    -0.09880789369344711, 0.011169180274009705, 0.03145662695169449, -0.0909266248345375,
    -0.09149675071239471, -0.0697874203324318, -0.026001133024692535, 0.009154058992862701,
    -0.05901743099093437, -0.025525331497192383, 0.03368208557367325, 0.08864022046327591,
    -0.08694203197956085, -0.07590912282466888, -0.03267256170511246, 0.013222716748714447,
    -0.039475828409194946, -0.047179341316223145, -0.0514056459069252, -0.09285082668066025,
    -0.0664362832903862, -0.00945599377155304, 0.05199909955263138, -0.08315275609493256,
    -0.04765143617987633, -0.008219525218009949, -0.0025279417168349028, 0.05367492884397507,
    0.057598911225795746, 0.027678826823830605, 0.04336053878068924, -0.05196131020784378,
    0.07483405619859695, 0.05370333790779114, 0.042795173823833466, 0.017663851380348206,
    -0.056140221655368805, -0.09568425267934799, 0.006173178553581238, -0.04222900792956352,
    0.02071140706539154, -0.05574207380414009, 0.0020793676376342773, -0.005440428853034973,
    0.0919542983174324, -0.05141150951385498, 0.06248097866773605, -0.07118184864521027,
    -0.02939063310623169, -0.08261008560657501, -0.06622971594333649, 0.09840155392885208,
    -0.003331422805786133, -0.049768295139074326, 0.03531181067228317, -0.07911704480648041,
    0.060479409992694855, 0.08458272367715836, -0.04238591343164444, -0.059055961668491364,
    0.0867803767323494, 0.045001767575740814, 0.05939943343400955, -0.0768836960196495,
    -0.05908386781811714, -0.006456449627876282, -0.08898935467004776, -0.0882391557097435,
    0.09845208376646042, 0.03255189210176468, -0.07425049692392349, -0.05059465393424034,
    -0.07707023620605469, 0.07276716083288193, 0.06003522127866745, -0.026351116597652435,
    0.0423516109585762, 0.06785107403993607, -0.005106881260871887, -0.040327753871679306,
    0.014628218486905098, -0.06739741563796997, 0.045299530029296875, -0.051397573202848434,
    -0.002617020858451724, 0.10500417649745941, 0.016051843762397766, -0.0439407043159008,
    0.04742242395877838, -0.01563461311161518, -0.0442320741713047, 0.08289750665426254,
    -0.05027907341718674, 0.0924251452088356, -0.07151415944099426, 0.06218070536851883,
    0.040048930794000626, -0.02694317325949669, -0.007822244428098202, -0.05897340551018715,
    0.09047030657529831, 0.05468545854091644, -0.033547114580869675, 0.04325496405363083,
    -0.007886108942329884, 0.079671211540699, -0.061641234904527664, -0.032297324389219284,
    -0.019134139642119408, -0.04449380934238434, 0.051078781485557556, 0.07771217823028564,
    -0.017983850091695786, 0.038004070520401, -0.05809814855456352, 0.023034140467643738,
    0.036511510610580444, 0.05576329678297043, 0.06306793540716171, 0.08086264878511429,
    -0.0014668466756120324, -0.04263117536902428, -0.0939980149269104, 0.0983954593539238,
    0.02108134515583515, -0.08539090305566788, -0.09438852220773697, -0.08896493166685104,
    -0.03938812017440796, 0.0066123162396252155, 0.05272967368364334, 0.04286755621433258,
    0.03997804969549179, 0.054117657244205475, 0.024603866040706635, -0.08510662615299225,
    0.046740226447582245, -0.06648579239845276, 0.01748882234096527, 0.07055053859949112,
    0.0009493231773376465, 0.07133417576551437, 0.03761807829141617, 0.08884274214506149,
    0.08747867494821548, 0.023249171674251556, 0.04747966676950455, 0.055466584861278534,
    0.038700170814991, 0.024268068373203278, 0.04446741193532944, -0.0021786242723464966,
    -0.04772375896573067, -0.08747158199548721, 0.09608689695596695, -0.06528627872467041,
    -0.06955307722091675, 0.06020040065050125, -0.056310247629880905, 0.016789771616458893,
    -0.043658722192049026, -0.0970056876540184, -0.02254648506641388, -0.05308159813284874,
    0.07621286064386368, 0.053531892597675323, -0.08704183250665665, 0.08127511292695999,
    0.08556223660707474, -0.006906390190124512, -0.06456267833709717, -0.030046865344047546,
    0.042012400925159454, 0.09676521271467209, 0.06225914508104324, -0.027369484305381775,
    -0.010358907282352448, -0.08217553049325943, -0.01023101806640625, 0.042100585997104645,
    -0.036868657916784286, 0.04812229424715042, 0.010629989206790924, -0.0596873015165329,
    0.020654086023569107, 0.05469309538602829, -0.015601043589413166, -0.046218302100896835,
    0.07569223642349243, -0.06796121597290039, -0.019878719002008438, 0.086937814950943,
    -0.048467330634593964, 0.05940248817205429, -0.07131078094244003, 0.08061013370752335,
    -0.016329072415828705, 0.06817258149385452, -0.08425508439540863, -0.054524268954992294,
    -0.021395884454250336, 0.07155963033437729, -0.06643668562173843, 0.08674667030572891,
    0.05546990782022476, 0.06508130580186844, -0.014457091689109802, -0.00045136362314224243,
    -0.04991304874420166, 0.09539573639631271, -0.04004209116101265, 0.06967020779848099,
    -0.07305379211902618, -0.006385743618011475, -0.07512067258358002, -0.025936223566532135,
    0.001201033592224121, 0.034865014255046844, 0.03306735306978226, 0.03153260797262192,
    -0.0837770327925682, 0.04087764769792557, 0.06636614352464676, -0.020341575145721436,
    -0.05587045103311539, -0.050746072083711624, -0.10325288772583008, 0.04208849370479584,
    -0.04846743494272232, -0.09323430061340332, -0.08847011625766754, 0.006509184837341309,
    -0.03495226055383682, -0.049788426607847214, 0.02088893949985504, -0.019168995320796967,
    0.038984574377536774, -0.05325758457183838, -0.05086341127753258, 0.015690550208091736,
    0.06267563253641129, -0.03395070880651474, 0.08135151118040085, -0.033628903329372406,
    0.052363522350788116, 0.047098226845264435, -0.04145389795303345, -0.012815937399864197,
    -0.001583889126777649, -0.08529829978942871, -0.07079784572124481, 0.04063033312559128,
    0.07368236035108566, 0.023082375526428223, 0.0579998716711998, -0.032604143023490906,
    0.0016837939620018005, -0.09681808948516846, 0.01992039382457733, 0.04325484484434128,
    0.0557030513882637, 0.033776454627513885, -0.013975754380226135, 0.07524902373552322,
    -0.09095912426710129, 0.02030843496322632, 0.03194790333509445, -0.0153312087059021,
    0.06791358441114426, -0.09216263145208359, -0.005757495760917664, 0.06878937035799026,
    0.007715798914432526, -0.0653781071305275, 0.06122351437807083, 0.05222565680742264,
    -0.08634328097105026, 0.0010742545127868652, -0.0628526508808136, 0.0943806990981102,
    -0.053465284407138824, 0.09897396713495255, -0.014781375415623188, -0.03808468580245972,
    -0.06690588593482971, 0.025391265749931335, 0.07944568991661072, -0.02116532251238823,
    -0.017173925414681435, 0.030674533918499947, 0.033516377210617065, 0.01486976444721222,
    -0.10159683227539062, -0.07135627418756485, -0.04682573676109314, 0.013129026629030704,
    -0.08288034796714783, 0.11671263724565506, -0.0555272251367569, 0.05844283849000931,
    -0.025482751429080963, 0.052647314965724945, -0.057554446160793304, -0.016607459634542465,
    0.09074033796787262, 0.034926630556583405, 0.058016180992126465, -0.03632216528058052,
    -0.02662375010550022, 0.053241729736328125, 0.1048414409160614, 0.11167623847723007,
    0.026265785098075867, -0.0670907273888588, 0.08078058809041977, -0.022127225995063782,
    -0.06812158226966858, -0.026017770171165466, 0.009420238435268402, 0.08565089851617813,
    0.09585331380367279, -0.07425644248723984, 0.007590221706777811, 0.06087537854909897,
    0.021338477730751038, 0.09740810841321945, 0.03074118308722973, 0.015345637686550617,
    -0.07291731983423233, 0.06345362961292267, 0.05614805966615677, -0.05193048715591431,
    -0.08427274227142334, -0.050463203340768814, -0.08281303942203522, 0.08404020220041275,
    0.09142252057790756, -0.015490256249904633, 0.02403862774372101, 0.06763314455747604,
    0.04917629808187485, 0.0328337624669075, -0.09050510078668594, 0.04622267931699753,
    0.03560031205415726, 0.040966130793094635, -0.07526043802499771, -0.022415176033973694,
    0.08930269628763199, -0.0693630799651146, -0.018125079572200775, 0.07139245420694351,
    -0.02172251045703888, 0.05265524238348007, -0.09942416101694107, -0.08301334083080292,
    -0.06826150417327881, 0.0039021149277687073, 0.014358781278133392, -0.06067383289337158,
    -0.06237918138504028, -0.05534878000617027, 0.0917878970503807, -0.04957477003335953,
    0.04837227612733841, 0.055895499885082245, -0.018613561987876892, -0.03471022844314575,
    0.023549363017082214, 0.06412217766046524, 0.09695053845643997, 0.03281191736459732,
    -0.03545711934566498, -0.09532009810209274, -0.09996282309293747, -0.0711030587553978,
    -0.0036819428205490112, 0.019672594964504242, -0.06777824461460114, 0.0804867222905159,
    0.07511353492736816, -0.1019972488284111, -0.09664808958768845, -0.007761899381875992,
    0.041606202721595764, -0.04335981234908104, -0.1036711111664772, -0.07642385363578796,
    -0.08554452657699585, -0.06651395559310913, 0.05508335307240486, 0.01881066896021366,
    -0.01978655904531479, 0.033644091337919235, 0.005556918680667877, 0.059887923300266266,
    -0.058773986995220184, 0.06200992316007614, -0.06250051409006119, -0.07295328378677368,
    -0.07102497667074203, 0.09411274641752243, -0.04917849227786064, -0.057824671268463135,
    -0.09111186116933823, 0.026047416031360626, -0.03720788657665253, 0.02246347814798355,
    0.015099089592695236, -0.0321492999792099, 0.019793391227722168, 0.02415541559457779,
    -0.09668344259262085, -0.06159688159823418, 0.05046171694993973, -0.07186724990606308,
    -0.07344356179237366, -0.020030975341796875, -0.0686950832605362, 0.08919218927621841,
    -0.061061255633831024, -0.05030381679534912, -0.0662427693605423, -0.01881154626607895,
    -0.02339114248752594, 0.09526381641626358, -0.009739872068166733, -0.06267078220844269,
    0.003505900502204895, -0.0989101231098175, 0.032166965305805206, -0.10975095629692078,
    -0.016824841499328613, 0.01847674511373043, -0.007150307297706604, 0.02030348777770996,
    -0.04317681863903999, -0.0024021118879318237, 0.06205720454454422, 0.03961222618818283,
    0.003918685019016266, -0.08681561052799225, 0.054150693118572235, -0.05802514776587486,
    -0.007446348667144775, -0.017692506313323975, 0.009501419961452484, -0.06032445654273033,
    0.07174532860517502, 0.044836245477199554, 0.08829105645418167, -0.03281606733798981,
    0.02698066085577011, 0.06705430895090103, -0.01127767562866211, -0.016687870025634766,
    -0.0803571343421936, 0.09840751439332962, -0.052654970437288284, 0.026101090013980865,
    -0.023491166532039642, 0.03323233872652054, 0.024198457598686218, -0.058477260172367096,
    -0.0680442750453949, -0.016634024679660797, -0.0701664462685585, -0.04648066684603691,
    0.056225456297397614, 0.04830015450716019, -0.09436420351266861, 0.018091216683387756,
    -0.07798038423061371, 0.09670036286115646, -0.04234817251563072, -0.0060505494475364685,
    -0.010555006563663483, -0.0770765095949173, 0.029204510152339935, 0.030583493411540985,
    0.039994072169065475, 0.04947470873594284, -0.06392275542020798, -0.08199045807123184,
    -0.024972131475806236, 0.05036061629652977, 0.07768788188695908, -0.03573350980877876,
    0.039749208837747574, -0.058148305863142014, -0.08606742322444916, -0.07136304676532745,
    0.08287768810987473, -0.06370631605386734, 0.06773439794778824, 0.05562155321240425,
    0.09016285091638565, -0.03597055748105049, 0.07344180345535278, -0.015058685094118118,
    -0.020675746724009514, 0.01839316450059414, -0.018899062648415565, -0.021148882806301117,
    0.06287795305252075, -0.06706070154905319, -0.016435956582427025, 0.05666132643818855,
    0.01917410083115101, 0.008388504385948181, -0.037118203938007355, 0.02595335990190506,
    0.0751180425286293, 0.024629080668091774, 0.0256124809384346, 0.1110730990767479,
    0.09809724986553192, -0.04089367389678955, -0.05917976051568985, -0.07139762490987778,
    -0.05481646582484245, 0.07255298644304276, -0.053334373980760574, -0.05379996448755264,
    0.07356993108987808, 0.05089511722326279, -0.04899780452251434, 0.10509300976991653,
    0.022827982902526855, -0.0388278029859066, -0.011303387582302094, 0.026048803701996803,
    0.04952245205640793, 0.011680838651955128, 0.08244321495294571, -0.08188080787658691,
    0.029779084026813507, -0.030543647706508636, -0.020189248025417328, 0.004759505391120911,
    -0.07978637516498566, 0.009246326982975006, 0.04055238515138626, 0.059942521154880524,
    -0.03775391727685928, 0.06738229840993881, 0.030032940208911896, -0.07333189249038696,
    -0.08869960159063339, 0.011437714099884033, -0.04434550926089287, 0.07657039910554886,
    -0.05184583738446236, 0.014759622514247894, 0.04623632878065109, 0.04018575698137283,
    0.03611382097005844, 0.009183906018733978, 0.05809169262647629, 0.04960832744836807,
    0.04849869757890701, 0.0638500526547432, -0.007171668112277985, -0.010190650820732117,
    0.07616075128316879, 0.020637109875679016, -0.00856238603591919, -0.0798957571387291,
    -0.07268186658620834, 0.018436908721923828, -0.07583282142877579, -0.06919257342815399,
    -0.03812915086746216, 0.02466757595539093, -0.09491508454084396, -0.0067363157868385315,
    0.06209225207567215, -0.06945697963237762, 0.06070870906114578, -0.05178898572921753,
    0.03953805938363075, -0.03881288319826126, -0.045507509261369705, 0.09135190397500992,
    0.04370011016726494, 0.023775380104780197, -0.07834258675575256, -0.0686863586306572,
    -0.017066193744540215, -0.10420554131269455, 0.07389875501394272, -0.07656434923410416,
    0.003372915554791689, -0.047572921961545944, 0.023564664646983147, -0.08852583914995193,
    -0.030592845752835274, -0.05961846187710762, -0.04328816756606102, -0.07785486429929733,
    -0.09165872633457184, -0.07647860050201416, -0.0014052378246560693, 0.10592175275087357,
    0.06338731199502945, -0.02451327256858349, -0.025246404111385345, 0.07527840882539749,
    0.11011749505996704, -0.10031703114509583, 0.06779569387435913, 0.10230099409818649,
    0.04060203954577446, 0.019711114466190338, 0.05892563611268997, -0.006380107253789902,
    0.018619688227772713, 0.05437653511762619, -0.04766949638724327, 0.08833608776330948,
    0.059196121990680695, -0.07914748042821884, 0.04466976970434189, 0.09511920064687729,
    -0.038636673241853714, -0.08835428208112717, -0.047242943197488785, 0.0611192025244236,
    0.007870890200138092, 0.0671864002943039, -0.048622000962495804, -0.024034632369875908,
    -0.035090550780296326, 0.013530541211366653, -0.01772606372833252, -0.006111994385719299,
    -0.06507912278175354, -0.04758082702755928, 0.04850585013628006, 0.0777309462428093,
    -0.031013980507850647, 0.060828737914562225, 0.06541905552148819, -0.049254704266786575,
    -0.08163746446371078, -0.011610113084316254, 0.053153522312641144, 0.06315191835165024,
    -0.06076299026608467, 0.01783355325460434, 0.010332629084587097, 0.022679507732391357,
    0.023219920694828033, -0.02128702402114868, -0.08196675777435303, -0.07403761148452759,
    -0.05265932157635689, -0.07348199933767319, -0.07032123953104019, 0.015185393393039703,
    -0.04564504697918892, 0.03158169239759445, 0.02934437245130539, -0.0637739896774292,
    -0.08124028146266937, 0.0773581936955452, -0.01360408216714859, -0.08564402908086777,
    0.04942316561937332, -0.037610627710819244, -0.000047050416469573975, -0.011970959603786469,
    -0.03265225887298584, -0.029369831085205078, -0.055580783635377884, 0.0486895814538002,
    -0.07029028236865997, 0.05955495685338974, 0.004045829176902771, 0.026041187345981598,
    0.11843683570623398, -0.08622238785028458, -0.08586057275533676, 0.02412567287683487,
    0.04316220059990883, -0.013729159720242023, -0.030932066962122917, 0.006268400698900223,
    0.07855533063411713, 0.07358475029468536, 0.042669400572776794, 0.10179637372493744,
    0.04506219923496246, -0.09223262965679169, 0.032256610691547394, -0.07520555704832077,
    -0.06417880207300186, 0.09566475450992584, -0.061561428010463715, -0.07171102613210678,
    0.01128422748297453, -0.09386598318815231, 0.07923274487257004, 0.008900540880858898,
    0.05969371274113655, 0.023019462823867798, 0.03576374053955078, 0.015684699639678,
    0.03303905948996544, -0.09826714545488358, 0.034014053642749786, 0.09204244613647461,
    0.08924254029989243, -0.015069914981722832, -0.035305894911289215, -0.08735720813274384,
    -0.06768938153982162, -0.0903376117348671, 0.09742005914449692, -0.0538489930331707,
    0.03392871841788292, -0.06807258725166321, -0.05036069080233574, 0.08038722723722458,
    0.049553826451301575, -0.08382005989551544, 0.011603062972426414, 0.054729778319597244,
    0.026442088186740875, -0.035165030509233475, 0.07355823367834091, 0.08903398364782333,
    -0.050326693803071976, 0.02096305415034294, 0.02389005571603775, 0.0022254735231399536,
    0.04955918341875076, -0.02344268560409546, 0.04043104499578476, 0.04599887877702713,
    0.0712963119149208, 0.013938620686531067, -0.028402462601661682, -0.025991879403591156,
    -0.023730240762233734, -0.057667411863803864, 0.011404573917388916, -0.03867439180612564,
    0.08899474889039993, -0.0847272276878357, 0.02225498855113983, -0.0602329857647419,
    -0.02357351779937744, -0.04390043020248413, -0.01565460115671158, 0.018814384937286377,
    -0.06832293421030045, 0.017807021737098694, -0.014775238931179047, -0.011336110532283783,
    0.09095088392496109, -0.08991304785013199, 0.018115125596523285, -0.09148921072483063,
    0.06255311518907547, 0.005424834787845612, -0.024101927876472473, 0.09354119747877121,
    0.05746031552553177, 0.0662083849310875, 0.07348641008138657, -0.05565629154443741,
    0.06327346712350845, -0.06386665254831314, -0.03037513792514801, -0.06488320231437683,
    -0.09689255058765411, -0.005635403096675873, -0.04271269962191582, -0.06821168959140778,
    -0.03148464486002922, 0.08477780222892761, -0.035051651298999786, -0.0130930719897151,
    -0.07370118051767349, 0.10933374613523483, 0.0768602043390274, 0.041714876890182495,
    -0.08026979118585587, 0.04699505865573883, 0.04774099588394165, 0.008078553713858128,
    -0.014775232411921024, 0.06082664430141449, -0.004423811566084623, -0.00196770578622818,
    0.07958648353815079, -0.05910768732428551, 0.0631677657365799, 0.0702042505145073,
    -0.07230300456285477, 0.01375036220997572, 0.03785206004977226, -0.035882070660591125,
    -0.04281500726938248, 0.03571571037173271, -0.11145523190498352, -0.01800541579723358,
    -0.07889237999916077, -0.07086510956287384, -0.09547115862369537, -0.0070644267834723,
    -0.07079815119504929, -0.07219033688306808, 0.019009627401828766, 0.05969132110476494,
    0.020680248737335205, -0.05717049911618233, -0.028680838644504547, 0.023641012609004974,
    0.048705726861953735, 0.01884695142507553, -0.04372626170516014, -0.09500235319137573,
    0.019038181751966476, 0.09598686546087265, 0.04461653530597687, 0.08389975130558014,
    -0.012297429144382477, -0.05956322327256203, -0.07274184376001358, -0.04825663939118385,
    -0.07659664005041122, 0.08103400468826294, 0.09159622341394424, -0.04670276865363121,
    0.03645802289247513, -0.03505279868841171, -0.07308860868215561, 0.01883755624294281,
    -0.05085514858365059, -0.05969998985528946, 0.03192663937807083, 0.03963921219110489,
    -0.0847974345088005, 0.000738680362701416, -0.004950597882270813, 0.08639334887266159,
    0.010438784956932068, 0.03653187304735184, 0.012865446507930756, 0.03338513523340225,
    0.07332908362150192, -0.03824258968234062, -0.06787490844726562, 0.029053576290607452,
    0.07789192348718643, 0.012573860585689545, 0.060282252728939056, -0.048091042786836624,
    -0.09695080667734146, 0.04370982199907303, 0.07700873166322708, 0.09932786971330643,
    0.09658544510602951, 0.09500313550233841, -0.09965421259403229, -0.04858527332544327,
    0.06720111519098282, 0.09772718697786331, -0.06027417257428169, 0.0302768275141716,
    -0.04059584066271782, -0.05742698907852173, 0.09757649153470993, -0.06048237159848213,
    0.06990931183099747, 0.09571898728609085, 0.08911759406328201, -0.09712033718824387,
    -0.08178132027387619, 0.034254755824804306, 0.006836204789578915, -0.06273791939020157,
    -0.01759035512804985, 0.0012780356919392943, 0.08691657334566116, -0.0530780628323555,
    0.003950193524360657, 0.05561789497733116, 0.07682444155216217, -0.006166608538478613,
    0.10172468423843384, 0.10410633683204651, 0.06279546767473221, -0.07933537662029266,
    0.06074397265911102, 0.07460499554872513, 0.05703624337911606, 0.0874558761715889,
    -0.01666635274887085, -0.051099419593811035, 0.06656581908464432, -0.04391199350357056,
    -0.051696669310331345, 0.014026418328285217, -0.09351547062397003, 0.05113872140645981,
    -0.08995844423770905, -0.005112446844577789, 0.04943440109491348, 0.07780765742063522,
    0.0693800300359726, 0.001707509160041809, 0.09448658674955368, 0.06676457077264786,
    -0.04502822831273079, -0.056308578699827194, -0.07270640134811401, -0.08437901735305786,
    -0.06481211632490158, -0.07251642644405365, -0.028317473828792572, 0.044863469898700714,
    0.025355763733386993, 0.03936690837144852, 0.05798845365643501, -0.05200408771634102,
    -0.0811188593506813, 0.029070522636175156, 0.07060837000608444, -0.0599764883518219,
    -0.09637536853551865, -0.03609636425971985, -0.06340496242046356, 0.05694342404603958,
    -0.088348887860775, -0.05213675647974014, 0.07508546859025955, -0.012097910046577454,
    0.0328531339764595, -0.08962573111057281, 0.08521836251020432, 0.0838179960846901,
    0.05230943113565445, 0.0010193735361099243, 0.04934120923280716, 0.0010378137230873108,
    -0.06257633864879608, -0.03400466591119766, 0.03156893700361252, 0.0626915767788887,
    -0.08994542807340622, -0.036496780812740326, -0.012555815279483795, -0.005530953407287598,
    0.00915294885635376, 0.011324383318424225, 0.015431880950927734, 0.055542297661304474,
    0.024972915649414062, 0.09908787161111832, -0.08786159008741379, -0.0033133402466773987,
    0.0683010146021843, 0.016986452043056488, -0.005261778831481934, -0.09184940904378891,
    0.08047845214605331, -0.0792248398065567, 0.021984003484249115, 0.003971181809902191,
    0.09724684804677963, 0.043648310005664825, 0.0800878033041954, -0.04524048790335655,
    0.025335408747196198, 0.03316747397184372, 0.014520645141601562, -0.0013388171792030334,
    0.03014366887509823, -0.01794811338186264, 0.0731993168592453, -0.014370197430253029,
    0.031108280643820763, -0.027374086901545525, 0.018979180604219437, -0.02932247892022133,
    -0.08368790149688721, -0.022534029558300972, 0.07350393384695053, 0.08684874325990677,
    -0.09035345911979675, 0.042467255145311356, -0.11188030987977982, 0.08991336077451706,
    0.04026380553841591, 0.043944522738456726, -0.02608618326485157, -0.08571849018335342,
    -0.09053020179271698, -0.08105267584323883, 0.04246748611330986, -0.08835192024707794,
    0.0831935927271843, 0.031730860471725464, 0.09185690432786942, -0.004410937428474426,
    -0.06872857362031937, 0.01618129014968872, -0.012588120996952057, -0.09789466112852097,
    0.08934684097766876, 0.08259032666683197, -0.050827037543058395, -0.01641475036740303,
    0.07231379300355911, 0.06099843233823776, 0.039082132279872894, 0.0011923909187316895,
    -0.05888107046484947, 0.07509515434503555, -0.12130095809698105, 0.06152421981096268,
    0.03918509557843208, -0.04170854017138481, 0.039590220898389816, 0.030330950394272804,
    0.018307864665985107, -0.07220938801765442, 0.0952557846903801, 0.08718272298574448,
    0.031178243458271027, -0.034711070358753204, -0.0724290981888771, -0.09916143864393234,
    0.050245098769664764, -0.09109236299991608, -0.009510830044746399, 0.040857695043087006,
    -0.08336182683706284, -0.058799613267183304, -0.02939382940530777, -0.0661754384636879,
    -0.09074431657791138, -0.014497123658657074, 0.008658148348331451, 0.05523545295000076,
    -0.0790218859910965, -0.013376496732234955, -0.002628996968269348, -0.047320056706666946,
    -0.07392606884241104, 0.09699959307909012, 0.01390780508518219, 0.0782436653971672,
    -0.06200176477432251, 0.03436324745416641, 0.058905355632305145, 0.011152230203151703,
    0.03356187790632248, 0.08489850908517838, 0.06544793397188187, 0.006129957735538483,
    -0.08156665414571762, 0.0917678251862526, -0.024790465831756592, -0.047617580741643906,
    -0.025024428963661194, 0.023382022976875305, -0.03814131021499634, -0.042572882026433945,
    0.021178103983402252, 0.05387698858976364, 0.059440501034259796, 0.025757603347301483,
    0.042972393333911896, -0.08763336390256882, 0.06436731666326523, -0.023758448660373688,
    0.05511888489127159, 0.05569370463490486, 0.039262931793928146, 0.0240239929407835,
    0.0868959128856659, -0.05345717445015907, -0.017530830577015877, -0.004677359480410814,
    -0.03893037885427475, -0.016253042966127396, -0.08297841995954514, -0.08334799855947495,
    0.025745322927832603, 0.03551125526428223, -0.0707332193851471, -0.01887688599526882,
    -0.07989618927240372, -0.08900296688079834, -0.06400693953037262, -0.016594866290688515,
    0.005716376006603241, -0.06682123243808746, 0.11780203878879547, -0.06033182516694069,
    -0.058073412626981735, 0.08742352575063705, -0.049650076776742935, 0.09803034365177155,
    -0.10011602938175201, -0.049069225788116455, -0.042104192078113556, -0.08360399305820465,
    -0.002674385905265808, -0.014929424971342087, -0.09355231374502182, 0.028169963508844376,
    0.021502211689949036, 0.08167058974504471, -0.09960707277059555, 0.059977687895298004,
    -0.0060491375625133514, -0.0675148144364357, -0.09744083881378174, 0.06978016346693039,
    -0.011950109153985977, -0.06572163105010986, -0.00019416566647123545, 0.029582027345895767,
    0.030597008764743805, 0.04573661834001541, -0.048771776258945465, -0.03300344944000244,
    0.052203722298145294, 0.03917514905333519, 0.0012554079294204712, -0.04493063688278198,
    0.00432191789150238, 0.036715053021907806, 0.0917525365948677, -0.08763179928064346,
    -0.08659140020608902, -0.0794781818985939, 0.09686196595430374, 0.00040639936923980713,
    -0.02884843200445175, -0.055204715579748154, -0.0121140256524086, 0.056681133806705475,
    0.06594569236040115, 0.043770886957645416, 0.0861227735877037, 0.0760783776640892,
    0.0336272194981575, -0.05006682872772217, 0.028526149690151215, 0.010658368468284607,
    -0.010498568415641785, -0.0671824961900711, 0.01338416337966919, 0.008191384375095367,
    0.0004362836480140686, 0.07646169513463974, -0.09981539100408554, 0.03331594914197922,
    0.08298323303461075, -0.07538775354623795, -0.07957359403371811, 0.07455188781023026,
    -0.04718824848532677, -0.014244481921195984, 0.002842344343662262, 0.0642615333199501,
    -0.08412619680166245, -0.062380075454711914, -0.08477438986301422, -0.025347590446472168,
    -0.016489490866661072, 0.018031492829322815, 0.06637335568666458, -0.044310737401247025,
    0.032472141087055206, 0.10455459356307983, -0.00540411751717329, -0.008630174212157726,
    0.04136109724640846, 0.020355219021439552, -0.04464249312877655, 0.01258035283535719,
    -0.08783327043056488, -0.021483859047293663, 0.08415378630161285, -0.07993794977664948,
    0.07412834465503693, 0.005098481196910143, -0.012235559523105621, -0.021668948233127594,
    -0.017106667160987854, -0.030049102380871773, -0.06827564537525177, 0.012850604951381683,
    0.08064430952072144, -0.04505089670419693, 0.00345403328537941, -0.024154938757419586,
    -0.017291221767663956, 0.04741167649626732, 0.0484372153878212, 0.016515538096427917,
    -0.06080716848373413, -0.08887175470590591, 0.09843698889017105, 0.010382615029811859,
    -0.08348772674798965, -0.08010873943567276, -0.036467887461185455, -0.07842770963907242,
    -0.002775148255750537, 0.07225412875413895, 0.010128341615200043, 0.05832923203706741,
    -0.04474592208862305, -0.03603889048099518, 0.08316913992166519, -0.006063006818294525,
    -0.015224545262753963, -0.0921667218208313, -0.08074098080396652, -0.09952402114868164,
    -0.004351116716861725, -0.021987086161971092, -0.07624974101781845, 0.0848953053355217,
    0.0931602492928505, 0.09360398352146149, -0.06182826682925224, 0.07537949830293655,
    0.04926998168230057, 0.07656196504831314, 0.09165035933256149, 0.032205693423748016,
    0.08798139542341232, -0.07026161998510361, 0.07205615192651749, -0.08583267033100128,
    -0.08351907879114151, 0.0077471137046813965, -0.05637409910559654, -0.09478200972080231,
    0.08635153621435165, 0.09712935239076614, 0.047179169952869415, 0.01891930401325226,
    -0.006208524107933044, 0.07329351454973221, 0.09848076850175858, 0.06938596814870834,
    0.05091504007577896, 0.07070212811231613, -0.06699617207050323, 0.05276507884263992,
    0.02691567689180374, 0.021667636930942535, -0.01007632166147232, 0.07826300710439682,
    -0.06616729497909546, -0.06741036474704742, 0.029824264347553253, 0.02659756690263748,
    -0.07721249014139175, 0.02342899888753891, 0.009852871298789978, -0.043292928487062454,
    0.09730476886034012, 0.028851769864559174, 0.027939237654209137, -0.06691864877939224,
    -0.08971288055181503, -0.06534443795681, -0.07326066493988037, 0.056542880833148956,
    0.04102086275815964, 0.07261695712804794, 0.09329075366258621, 0.046806760132312775,
    0.0031884312629699707, -0.06274912506341934, -0.05893523618578911, 0.0413035973906517,
    0.009025871753692627, -0.018507644534111023, 0.08589334040880203, 0.06647995859384537,
    0.019705966114997864, 0.0018630623817443848, -0.07505206018686295, 0.011260710656642914,
    -0.007492758333683014, 0.0625312551856041, 0.013730093836784363, -0.07463481277227402,
    -0.01021651178598404, 0.03895232826471329, -0.009843945503234863, -0.08282195031642914,
    -0.01960073411464691, -0.04070448875427246, 0.03896991163492203, 0.06731469184160233,
    -0.052376557141542435, 0.042503856122493744, -0.06863993406295776, -0.003947757184505463,
    0.09970270842313766, 0.04783061891794205, -0.03927478939294815, -0.04667166620492935,
    0.07743731886148453, 0.03479994088411331, 0.08467333763837814, 0.08235573023557663,
    -0.079198457300663, 0.04239577800035477, 0.05247855931520462, 0.0029847249388694763,
    -0.07703932374715805, -0.05608392879366875, -0.07729808241128922, 0.08153743296861649,
    0.038979701697826385, 0.03214762359857559, 0.032149456441402435, -0.0487467423081398,
    -0.048092689365148544, 0.09256491810083389, -0.09659486263990402, 0.043190471827983856,
    -0.058177411556243896, 0.00852435827255249, 0.05406389385461807, -0.007641926407814026,
    -0.056999314576387405, -0.02723388373851776, -0.08595418184995651, -0.014354899525642395,
    0.06642470508813858, 0.07706350833177567, -0.09857647866010666, -0.09600957483053207,
    0.04008711129426956, -0.01715351641178131, -0.05141425132751465, -0.030807197093963623,
    -0.06691950559616089, -0.068534255027771, -0.019599273800849915, 0.037265338003635406,
    -0.07658004760742188, 0.016892097890377045, -0.03832811117172241, 0.08343901485204697,
    -0.054434824734926224, -0.09172522276639938, -0.09534423798322678, 0.04315779358148575,
    -0.02107088267803192, 0.04767192155122757, 0.023824825882911682, 0.08413810282945633,
    0.08920571953058243, 0.08909881860017776, -0.014673158526420593, 0.020321503281593323,
    -0.07416684925556183, 0.060997433960437775, -0.0663444995880127, -0.08875330537557602,
    0.005587145686149597, -0.07257606089115143, 0.08107198029756546, -0.01330951601266861,
    -0.00807980541139841, -0.012092435732483864, 0.10251864790916443, -0.057375892996788025,
    -0.10598470270633698, 0.030101776123046875, -0.029116705060005188, 0.09824944287538528,
    0.029684260487556458, 0.05183576047420502, -0.025814801454544067, -0.004125771578401327,
    -0.09657999873161316, -0.016985153779387474, -0.07001941651105881, 0.10732518881559372,
    -0.08852239698171616, -0.05679064989089966, 0.11859195679426193, 0.013223977759480476,
    0.06227828934788704, -0.054809462279081345, -0.06183488294482231, 0.0818709209561348,
    0.04160198196768761, 0.04987423121929169, -0.04104304313659668, 0.0660337507724762,
    0.04014326259493828, 0.01248156651854515, -0.043103672564029694, -0.05401987582445145,
    -0.05893629044294357, -0.03837820142507553, 0.09662923961877823, -0.01282139029353857,
    0.0739445835351944, -0.09418649971485138, -0.09592516720294952, -0.06426994502544403,
    0.05238455906510353, 0.03774527460336685, 0.08953657746315002, 0.036852069199085236,
    -0.07253836840391159, -0.00882597267627716, 0.008342034183442593, 0.06677643954753876,
    -0.005788423120975494, -0.07454863935709, -0.06996196508407593, 0.03277745842933655,
    0.05193156749010086, -0.08258997648954391, 0.01592092216014862, 0.09348743408918381,
    0.085115946829319, 0.01975325495004654, -0.03773796558380127, 0.09394244104623795,
    -0.029781244695186615, 0.005107544362545013, -0.0950491651892662, 0.05652987211942673,
    -0.012480154633522034, -0.014859244227409363, -0.00765528529882431, -0.032662585377693176,
    0.00818169116973877, 0.08107440918684006, -0.03947887569665909, 0.057174332439899445,
    -0.06744863092899323, 0.03427303582429886, -0.0962139368057251, 0.004755102097988129,
    0.060876019299030304, -0.004729904234409332, 0.08257222920656204, 0.08875680714845657,
    0.010199211537837982, -0.033125199377536774, 0.09645717591047287, 0.07747075706720352,
    0.03396499902009964, 0.08961749821901321, 0.022852882742881775, 0.09425503760576248,
    0.09331109374761581, -0.04412250593304634, -0.023696169257164, -0.08511263132095337,
    -0.019632384181022644, -0.03388829529285431, -0.09299715608358383, 0.0571029856801033,
    -0.03308888524770737, 0.0710260346531868, 0.028100617229938507, 0.016922377049922943,
    -0.0722617506980896, 0.009233571588993073, 0.02449117787182331, -0.023464452475309372,
    0.021611414849758148, 0.06845099478960037, 0.05735583230853081, -0.01633436046540737,
    0.019098646938800812, -0.05105673521757126, 0.06778345257043839, 0.02602411061525345,
    0.07507234811782837, -0.05811305344104767, 0.08651041984558105, 0.020692920312285423,
    0.046264514327049255, -0.0102181201800704, -0.03435135260224342, -0.10085124522447586,
    -0.013956825248897076, 0.06702135503292084, 0.0471046008169651, -0.05929732695221901,
    -0.006309390068054199, 0.02004854753613472, 0.07873614132404327, 0.0031549748964607716,
    -0.0338149331510067, -0.04701894149184227, 0.0670495256781578, 0.0199698805809021,
    -0.055904366075992584, -0.07528861612081528, -0.06089683994650841, 0.03165431693196297,
    0.07436315715312958, 0.07857806235551834, 0.08987117558717728, -0.008356049656867981,
    0.006822971161454916, 0.05674750357866287, -0.04914494976401329, 0.048791833221912384,
    0.08042678236961365, -0.06391024589538574, 0.06845159828662872, -0.09652984142303467,
    0.07126074284315109, -0.05567583069205284, 0.028808720409870148, 0.047380197793245316,
    0.03933722525835037, 0.08153709769248962, -0.023720204830169678, 0.00183182954788208,
    -0.04051201418042183, -0.05281251668930054, 0.07288970798254013, -0.025128483772277832,
    -0.046381425112485886, -0.027016624808311462, -0.08313064277172089, 0.0545860156416893,
    -0.08645329624414444, 0.08312136679887772, -0.04853096231818199, -0.025015845894813538,
    0.03234613686800003, -0.03500272333621979, -0.039497435092926025, -0.003055885434150696,
    -0.011190935969352722, -0.041231919080019, 0.0972694382071495, -0.0894194021821022,
    0.08860180526971817, -0.09612579643726349, -0.04564458131790161, -0.016905248165130615,
    -0.07771879434585571, -0.05430338531732559, 0.08132895082235336, 0.03359410911798477,
    0.06274618953466415, -0.07975522428750992, -0.06093917042016983, -0.00444493442773819,
    0.06783468276262283, -0.09927822649478912, 0.08491820842027664, -0.0644347071647644,
    0.015753164887428284, 0.08298207074403763, 0.008891090750694275, -0.08611515909433365,
    0.08357609063386917, -0.08553951978683472, -0.021141551434993744, -0.05694179609417915,
    0.08764141798019409, 0.019755108281970024, 0.0777839869260788, -0.05270250886678696,
    0.05646084249019623, 0.030307453125715256, -0.07256775349378586, 0.055404551327228546,
    -0.06733185797929764, 0.01712644472718239, 0.09186449646949768, -0.006783033721148968,
    0.029739825055003166, -0.06989894062280655, 0.10943743586540222, 0.04619118943810463,
    0.02754194475710392, 0.0424637533724308, 0.03259575739502907, -0.027135120704770088,
    -0.045877933502197266, 0.08494143187999725, -0.046448834240436554, -0.03449726477265358,
    0.0791250616312027, 0.06867661327123642, -0.08831048011779785, -0.03543509170413017,
    -0.06059214472770691, -0.00058323226403445, 0.014663208276033401, 0.11922622472047806,
    0.054162632673978806, 0.05106370523571968, 0.050902508199214935, -0.06998150050640106,
    0.05681745707988739, -0.06622866541147232, 0.03171239048242569, -0.06772015988826752,
    0.06316791474819183, 0.09482570737600327, -0.018381979316473007, -0.0713810920715332,
    0.09340199083089828, -0.06406769901514053, 0.07949972152709961, -0.056034255772829056,
    0.020862355828285217, -0.0522829033434391, -0.05748037248849869, -0.059433821588754654,
    -0.024323582649230957, 0.03252147510647774, -0.02929673343896866, 0.03309936076402664,
    0.0458255335688591, 0.09916692227125168, -0.00018312782049179077, 0.07427900284528732,
    -0.03330667316913605, -0.02099963277578354, 0.04853478819131851, -0.07774750888347626,
    0.0081876739859581, -0.066414475440979, 0.057397253811359406, -0.056623674929142,
    0.043117694556713104, 0.04612318426370621, -0.02405698597431183, 0.02098844200372696,
    0.002566918730735779, -0.02339956909418106, -0.015024915337562561, -0.07212843000888824,
    -0.09445511549711227, -0.008704066276550293, 0.03756202012300491, 0.03570006042718887,
    0.017997995018959045, -0.02528463304042816, -0.0990518108010292, 0.045425839722156525,
    -0.045381903648376465, -0.030037060379981995, 0.09806282073259354, 0.06048697978258133,
    -0.022284768521785736, -0.0016924887895584106, -0.0720704048871994, 0.007400348782539368,
    0.05454538017511368, 0.031843386590480804, -0.08880346268415451, -0.07092466205358505,
    0.057437993586063385, -0.012573465704917908, -0.04332839325070381, -0.031801626086235046,
    0.08950073271989822, -0.011600013822317123, 0.009851097129285336, -0.020022861659526825,
    0.007481148932129145, 0.07303775101900101, 0.04816128686070442, -0.09630022943019867,
    0.08782967925071716, 0.04642001911997795, -0.04050542041659355, -0.06681177765130997,
    -0.08832736313343048, -0.10742926597595215, -0.07180243730545044, -0.03554614633321762,
    -0.057618074119091034, 0.010153564624488354, 0.07350951433181763, -0.037438228726387024,
    -0.04794376343488693, -0.07868406921625137, 0.07349703460931778, 0.01986645720899105,
    0.07679450511932373, -0.017292501404881477, 0.08018447458744049, -0.00009595777373760939,
    0.11061365157365799, -0.017844485118985176, 0.09280053526163101, -0.008243300020694733,
    -0.08114780485630035, 0.009766614995896816, 0.01187211275100708, 0.03558183088898659,
    0.1025737002491951, -0.05451127514243126, 0.036311544477939606, -0.014910481870174408,
    -0.08424632251262665, 0.034194596111774445, 0.0921751856803894, 0.03988137096166611,
    0.018656568601727486, -0.09715142101049423, -0.041429001837968826, 0.012310471385717392,
    0.01788858324289322, -0.06229624152183533, -0.04207868501543999, -0.018933892250061035,
    0.08336836844682693, 0.08019678294658661, 0.08156701177358627, -0.09583904594182968,
    0.08152086287736893, -0.0004185810685157776, -0.06355170160531998, -0.08905436098575592,
    0.09620750695466995, 0.023387350142002106, 0.044747017323970795, -0.055470217019319534,
    -0.02921740710735321, 0.014284059405326843, -0.04151010513305664, -0.025346621870994568,
    0.09210029989480972, -0.01558675616979599, -0.02931983768939972, 0.09222126752138138,
    0.004137597978115082, 0.03438500314950943, -0.07066021859645844, 0.06623274832963943,
    -0.06014662981033325, 0.005358375608921051, -0.014280065894126892, 0.050295956432819366,
    0.026664339005947113, 0.017092265188694, -0.046811867505311966, 0.032503508031368256,
    0.049431003630161285, -0.08869286626577377, -0.04195767641067505, -0.03727136552333832,
    0.04495827108621597, -0.016036927700042725, 0.02579713612794876, 0.06156332045793533,
    0.09631740301847458, -0.07678965479135513, 0.021915972232818604, 0.044234879314899445,
    -0.03602632135152817, -0.04286471754312515, 0.062098197638988495, -0.03957417234778404,
    -0.0867314413189888, 0.044568195939064026, 0.10933223366737366, 0.10009174048900604,
    0.10014542192220688, -0.0720064714550972, 0.07386286556720734, 0.11041805148124695,
    0.08908975124359131, 0.001044222037307918, 0.06936725229024887, -0.08682984858751297,
    -0.07293814420700073, -0.01975063420832157, -0.06968586146831512, -0.09890371561050415,
    0.010470724664628506, -0.03772900998592377, -0.06487653404474258, 0.07666093111038208,
    -0.022039923816919327, 0.07117479294538498, 0.06250431388616562, 0.013882461003959179,
    -0.10856573283672333, -0.027035776525735855, 0.07668393850326538, 0.09055861085653305,
    -0.03367817401885986, 0.020120009779930115, 0.019432516768574715, -0.05422613024711609,
    0.038012679666280746, 0.0800362229347229, -0.022868752479553223, -0.031522635370492935,
    -0.03530609607696533, -0.09658005088567734, -0.0037492141127586365, 0.06344915181398392,
    -0.008231290616095066, -0.09536023437976837, -0.021388165652751923, 0.017142251133918762,
    0.03233092278242111, 0.030423320829868317, -0.042774707078933716, -0.010221675969660282,
    0.0018576383590698242, 0.07752399146556854, 0.08127526193857193, -0.030736034736037254,
    -0.09436066448688507, 0.03817373141646385, 0.054744310677051544, 0.053833238780498505,
    0.06959789246320724, -0.04209766536951065, 0.09568429738283157, -0.07460974156856537,
    -0.07563132047653198, 0.00085468590259552, -0.027249418199062347, 0.021595023572444916,
    0.08745280653238297, -0.06352284550666809, -0.05898066982626915, -0.09708628803491592,
    0.09590703994035721, -0.06270505487918854, -0.09332753717899323, 0.07332024723291397,
    -0.08996526151895523, 0.00455571711063385, -0.02760183811187744, 0.07644964009523392,
    0.04093616455793381, -0.07672884315252304, -0.07545430958271027, -0.060996901243925095,
    -0.08949699252843857, 0.00022041797637939453, -0.071308933198452, 0.014644898474216461,
    -0.016344904899597168, -0.04227440431714058, -0.08492010086774826, -0.0432383194565773,
    0.005943574011325836, -0.015551552176475525, 0.04548703879117966, 0.037325985729694366,
    -0.08569686859846115, -0.049526166170835495, -0.016206763684749603, 0.04728662222623825,
    -0.01790950447320938, -0.030970320105552673, -0.09452294558286667, -0.08355410397052765,
    0.09334591776132584, -0.04952211678028107, 0.0682193785905838, -0.06819405406713486,
    0.11548767238855362, -0.07098697870969772, -0.029186943545937538, -0.018407348543405533,
    0.0071319155395030975, 0.09402346611022949, -0.03284990042448044, -0.01883762702345848,
    -0.05553756281733513, -0.10227057337760925, 0.016070106998085976, -0.08661217242479324,
    0.10209154337644577, -0.0019903224892914295, 0.07050264626741409, 0.09078453481197357,
    -0.0546526201069355, 0.08641141653060913, 0.04861242324113846, -0.013430971652269363,
    -0.07400938868522644, -0.042958732694387436, -0.03125312924385071, 0.08035847544670105,
    0.09546972066164017, 0.08485031872987747, 0.06433256715536118, -0.07491865009069443,
    -0.06625143438577652, 0.06780867278575897, 0.015416130423545837, 0.11805237829685211,
    0.040901727974414825, -0.05680258199572563, -0.0735291838645935, 0.08443579822778702,
    -0.06311845779418945, -0.03528372943401337, -0.06848230957984924, -0.058064866811037064,
    -0.08967415988445282, -0.0806206688284874, -0.061944056302309036, 0.04514747112989426,
    -0.035621657967567444, 0.03014732524752617, -0.04199961572885513, 0.026785383000969887,
    -0.027910329401493073, -0.058185867965221405, -0.02357151359319687, -0.01956099271774292,
    -0.05892939493060112, -0.08584126085042953, -0.00362609326839447, 0.08121448010206223,
    -0.08474498987197876, 0.08195435255765915, 0.08286605030298233, -0.08015868812799454,
    0.06087452918291092, 0.091680146753788, 0.04175720363855362, 0.09211985021829605,
    0.024180933833122253, 0.08516969531774521, 0.016686536371707916, 0.031836532056331635,
    0.07922498136758804, -0.08359082788228989, 0.0728997066617012, 0.013357602059841156,
    -0.009167566895484924, -0.04122832044959068, -0.03309176117181778, -0.006348475813865662,
    0.026862062513828278, 0.028516359627246857, 0.03557368367910385, -0.050047945231199265,
    0.0035621896386146545, -0.08052440732717514, 0.07277149707078934, -0.0731387585401535,
    -0.01544477790594101, 0.08364851027727127, 0.003940582275390625, -0.021067284047603607,
    -0.09283790737390518, 0.028387151658535004, -0.06448639929294586, 0.030187852680683136,
    0.084437794983387, 0.006493672728538513, 0.0434638187289238, 0.07109064608812332,
    -0.03423868492245674, 0.0762023851275444, -0.0476161390542984, -0.009863493032753468,
    -0.08117879182100296, -0.004383488558232784, 0.07834869623184204, -0.012772070243954659,
    -0.05769205838441849, 0.021676016971468925, -0.10326039046049118, -0.10939434915781021,
    -0.07449626177549362, 0.0558008998632431, 0.05187390744686127, -0.032218512147665024,
    -0.038685865700244904, 0.0157416183501482, -0.005589882377535105, -0.059481047093868256,
    -0.03823394328355789, -0.06702221930027008, 0.07298577576875687, -0.03025929071009159,
    0.11457061022520065, -0.08807633817195892, 0.01644846424460411, 0.056470271199941635,
    0.10765504091978073, -0.03192147612571716, 0.03636998310685158, -0.007068989798426628,
    0.05841000750660896, -0.09850972890853882, -0.03756040334701538, 0.0037527019158005714,
    0.06957082450389862, -0.016292594373226166, -0.04621824249625206, 0.08693582564592361,
    0.08109784871339798, -0.04247056320309639, -0.09879274666309357, 0.06025288254022598,
    0.020246682688593864, 0.07248108834028244, -0.029196087270975113, 0.09213902056217194,
    0.016758576035499573, 0.04590638354420662, 0.04042286425828934, 0.09443871676921844,
    0.08186892420053482, -0.06809363514184952, -0.04372512176632881, -0.006879821419715881,
    0.04232967644929886, 0.036651261150836945, 0.04895520955324173, -0.04247263818979263,
    -0.0006023794412612915, 0.049360163509845734, 0.08195208758115768, 0.02825441211462021,
    0.014087222516536713, 0.05292854458093643, -0.016419529914855957, -0.006358228623867035,
    -0.0915767103433609, 0.015894852578639984, -0.015990935266017914, 0.09629995375871658,
    0.08541572839021683, -0.011061049997806549, -0.06772414594888687, -0.02124778926372528,
    0.09858245402574539, -0.05550665780901909, 0.059672869741916656, 0.0755353644490242,
    0.0860062912106514, -0.04889336973428726, -0.07611354440450668, 0.03808025270700455,
    0.04532410949468613, 0.04645157605409622, 0.004084527492523193, -0.0828155055642128,
    0.05622657388448715, -0.019119620323181152, -0.09191107004880905, -0.057189714163541794,
    -0.05911990627646446, -0.018655002117156982, -0.03372935950756073, -0.0495673306286335,
    0.08063549548387527, 0.057990558445453644, -0.031340159475803375, 0.060705967247486115,
    -0.06218843534588814, -0.03865400329232216, -0.0872240662574768, -0.07319020479917526,
    0.008520770817995071, -0.05086786299943924, 0.0022083467338234186, -0.013719460926949978,
    -0.019172918051481247, -0.05382673442363739, 0.013462090864777565, 0.04065738618373871,
    -0.01822284609079361, -0.1047312542796135, -0.0589887797832489, 0.016824666410684586,
    -0.002143976278603077, 0.012090576812624931, -0.0022893936838954687, 0.09530304372310638,
    0.08928737789392471, -0.04400837793946266, 0.03990061953663826, -0.01816955767571926,
    0.11563859134912491, -0.011935563758015633, -0.01966087892651558, 0.06607231497764587,
    0.0711635872721672, -0.03911270573735237, 0.013940202072262764, 0.025121064856648445,
    -0.013025213032960892, 0.03973720222711563, -0.0066716670989990234, 0.04749505594372749,
    -0.02198241464793682, -0.030952513217926025, 0.07123125344514847, -0.09364034235477448,
    0.07175012677907944, -0.0842500776052475, 0.08388759940862656, -0.001463674008846283,
    0.052817314863204956, -0.07167049497365952, 0.06949733942747116, -0.0734766349196434,
    -0.005496703088283539, 0.10228464007377625, 0.09721716493368149, -0.06669466942548752,
    0.07878712564706802, 0.08895941078662872, -0.06593306362628937, -0.09343333542346954,
    -0.040177036076784134, -0.09860824793577194, 0.07323718816041946, -0.0975780040025711,
    -0.07906700670719147, -0.03567086160182953, 0.07089556008577347, -0.06488583236932755,
    -0.07009066641330719, 0.08921762555837631, -0.06400291621685028, 0.03445810824632645,
    -0.06502930819988251, -0.09024293720722198, 0.0649731233716011, 0.018166840076446533,
    -0.018651463091373444, -0.07717166095972061, -0.021578632295131683, 0.04009497910737991,
    0.009233377873897552, 0.09530714899301529, -0.04833996295928955, -0.012971900403499603,
    -0.038558460772037506, 0.09380964189767838, 0.058363281190395355, 0.039296649396419525,
    -0.004363521933555603, 0.05821498483419418, -0.02976612001657486, 0.02566254884004593,
    0.011596515774726868, -0.008966222405433655, 0.03965411335229874, -0.09971528500318527,
    -0.07699739933013916, -0.09245458990335464, -0.005964241921901703, -0.07190229743719101,
    -0.0946531891822815, 0.03439608961343765, -0.044152285903692245, -0.047742810100317,
    -0.04340129345655441, -0.0005770872812718153, 0.09621305018663406, -0.014501634985208511,
    0.10029149800539017, -0.0758187398314476, -0.0682140365242958, 0.06465211510658264,
    0.03152504190802574, -0.04038752615451813, -0.017656290903687477, -0.014430921524763107,
    0.1026320606470108, -0.018849218264222145, 0.07976426929235458, -0.04523734003305435,
    -0.003294926369562745, -0.026049716398119926, -0.028343049809336662, 0.042564757168293,
    -0.010263044387102127, -0.040363870561122894, -0.07354381680488586, -0.044262778013944626,
    0.08034683018922806, 0.004836975131183863, 0.07834425568580627, -0.0003054336993955076,
    -0.005477593280375004, 0.08860598504543304, 0.032483309507369995, -0.10508705675601959,
    0.03533416613936424, -0.025826841592788696, -0.038733091205358505, 0.06956940144300461,
    -0.013350318185985088, 0.07840130478143692, 0.0626206174492836, -0.08704481273889542,
    -0.019590523093938828, -0.018770739436149597, -0.0786421149969101, -0.09282886236906052,
    0.0010988349094986916, 0.05472040921449661, -0.027427297085523605, -0.002452174434438348,
    0.02009671926498413, 0.057997748255729675, -0.0025235190987586975, -0.0030499743297696114,
    -0.08847781270742416, -0.0280882827937603, -0.023922786116600037, 0.07296942919492722,
    -0.06128770112991333, -0.032229162752628326, 0.03396710008382797, -0.015809878706932068,
    0.09858531504869461, 0.09596461802721024, 0.02540981024503708, 0.09201741963624954,
    0.06874484568834305, -0.03713430464267731, -0.025844775140285492, 0.03464514762163162,
    0.04688341170549393, -0.003964520990848541, 0.005889318883419037, 0.018720075488090515,
    0.05548163503408432, 0.050808437168598175, 0.05326252430677414, 0.09213367849588394,
    -0.0709942951798439, -0.014778628945350647, -0.07064155489206314, -0.022023916244506836,
    0.028981097042560577, -0.014411188662052155, 0.006850101053714752, 0.0566273108124733,
    0.07456464320421219, 0.014511600136756897, -0.043072380125522614, 0.08622532337903976,
    -0.08496743440628052, 0.02589324861764908, -0.03945061191916466, 0.021611131727695465,
    -0.007620908319950104, -0.08417906612157822, -0.084877148270607, -0.02763146162033081,
    -0.02335001528263092, 0.06386954337358475, -0.026611268520355225, -0.0730009526014328,
    -0.06530608981847763, 0.02350633591413498, -0.08856156468391418, 0.004994777496904135,
    -0.09926535189151764, 0.07447180896997452, -0.10766031593084335, 0.010804098099470139,
    -0.08046180754899979, 0.07984942197799683, 0.05637843534350395, 0.049728650599718094,
    0.07818064093589783, -0.10175706446170807, 0.034594591706991196, 0.12208481132984161,
    -0.05729086324572563, -0.09311611950397491, -0.033853378146886826, 0.017133105546236038,
    -0.06550965458154678, 0.008832564577460289, 0.07565950602293015, 0.05427059903740883,
    -0.09355836361646652, -0.029734866693615913, 0.04135730117559433, 0.0017648737411946058,
    -0.09353478252887726, 0.09693662077188492, 0.05190938711166382, -0.0730249211192131,
    0.004282854497432709, -0.0019710438791662455, -0.007190272212028503, -0.08592388033866882,
    -0.009083556942641735, 0.0887356773018837, 0.0024247318506240845, 0.08377661556005478,
    0.023785395547747612, -0.0870160236954689, 0.006052613258361816, -0.09148331731557846,
    -0.004927418660372496, -0.001540742814540863, -0.001548602944239974, -0.07472704350948334,
    -0.03552605211734772, 0.021311135962605476, 0.0497015044093132, 0.04509624093770981,
    0.030545838177204132, 0.039481934159994125, 0.009221777319908142, -0.0866369977593422,
    0.08151314407587051, 0.09158872812986374, 0.03861328214406967, -0.005955696105957031,
    -0.023579970002174377, 0.06130341440439224, 0.0339016392827034, -0.06094050407409668,
    -0.099945068359375, 0.08465655893087387, -0.018825054168701172, -0.08342671394348145,
    0.021306835114955902, -0.09437848627567291, 0.049833349883556366, -0.08103685081005096,
    -0.060775138437747955, 0.0058409422636032104, -0.0031735897064208984, -0.047866176813840866,
    -0.0721941590309143, 0.09861510246992111, -0.030676111578941345, -0.08483048528432846,
    -0.034122005105018616, 0.07250983268022537, 0.02554268389940262, -0.05573461204767227,
    0.02315358817577362, -0.027202412486076355, -0.018229462206363678, 0.03325711935758591,
    0.09704335778951645, 0.04972995072603226, 0.028269700706005096, 0.060503892600536346,
    0.010928846895694733, -0.06703242659568787, -0.019930660724639893, -0.08047904074192047,
    0.0976194515824318, -0.0789765864610672, 0.08513209968805313, 0.04856265336275101,
    -0.038764167577028275, -0.08965310454368591, -0.05415640398859978, 0.04883650317788124,
    -0.021769993007183075, -0.012245806865394115, -0.012437041848897934, 0.00649338960647583,
    -0.02095537818968296, -0.006299116183072329, 0.004701718222349882, -0.017157988622784615,
    -0.07257654517889023, 0.019428161904215813, -0.036283671855926514, 0.04545275494456291,
    -0.07357577979564667, 0.024231214076280594, 0.0932188406586647, 0.000030972936656326056,
    -0.08688510209321976, -0.05428239330649376, -0.06842343509197235, 0.020509803667664528,
    -0.02851168066263199, 0.007754860911518335, -0.0766327977180481, -0.004124172497540712,
    -0.006983822677284479, 0.05906246602535248, -0.10305904597043991, -0.045966994017362595,
    -0.05610052868723869, 0.0363367460668087, -0.009599506855010986, -0.04493613541126251,
    0.02610727958381176, -0.023737110197544098, 0.06046510487794876, 0.08406562358140945,
    0.09234143793582916, 0.06261266022920609, -0.019461503252387047, 0.02800419181585312,
    0.0628257468342781, 0.02794734388589859, -0.0917927473783493, -0.04650210589170456,
    -0.08844192326068878, -0.10329224169254303, 0.022687211632728577, -0.011505870148539543,
    -0.0645170658826828, -0.04898332059383392, 0.06928514689207077, 0.05621352046728134,
    -0.020803332328796387, -0.04951409250497818, 0.0558193102478981, 0.09522593766450882,
    0.018939830362796783, -0.08605896681547165, -0.09599269926548004, -0.06660737097263336,
    -0.04247380420565605, 0.032287321984767914, 0.08777222782373428, 0.0668608620762825,
    -0.07794655859470367, 0.057852648198604584, 0.05396801978349686, 0.011207818984985352,
    -0.053582072257995605, -0.05096156522631645, -0.07522882521152496, -0.027551651000976562,
    0.03397130221128464, 0.022350192070007324, -0.059572745114564896, 0.07062666863203049,
    -0.09733089059591293, 0.09721804410219193, -0.035360708832740784, 0.0833464041352272,
    0.005993686616420746, -0.01483287662267685, -0.0743972510099411, 0.0829581543803215,
    -0.02435256540775299, -0.047653522342443466, 0.07267319411039352, -0.057443346828222275,
    -0.03366825729608536, 0.05506504327058792, -0.050640951842069626, 0.044743604958057404,
    -0.09048675745725632, 0.023314401507377625, -0.023382745683193207, 0.08213996142148972,
    0.09004997462034225, 0.057191234081983566, -0.03781280666589737, 0.07199295610189438,
    -0.041195645928382874, -0.08442602306604385, 0.07975200563669205, -0.08728424459695816,
    -0.021003564819693565, -0.04434208944439888, 0.07792552560567856, -0.03997167572379112,
    0.090853251516819, -0.030788501724600792, 0.04354112595319748, 0.06825810670852661,
    0.03615982085466385, -0.003544284962117672, -0.09748686850070953, -0.01628001034259796,
    0.0825992003083229, -0.08377370983362198, -0.06062127277255058, 0.0669718086719513,
    0.06096111983060837, 0.02539687603712082, 0.08901850134134293, -0.09985940903425217,
    0.06812139600515366, 0.03568959981203079, -0.006642743945121765, 0.09476815909147263,
    -0.08216873556375504, -0.01872400939464569, 0.01440507173538208, -0.027113713324069977,
    -0.07298237085342407, -0.08780860900878906, 0.07965777069330215, -0.0827447921037674,
    -0.06717616319656372, -0.0529312863945961, 0.06480958312749863, -0.04303412511944771,
    -0.040393050760030746, -0.01916184276342392, -0.004018744919449091, 0.019842524081468582,
    -0.04666697978973389, -0.02069486863911152, -0.0179511159658432, 0.06621964275836945,
    -0.06713578850030899, 0.05520717799663544, 0.056781552731990814, -0.08637068420648575,
    -0.008245304226875305, -0.044957149773836136, -0.03811392933130264, -0.09980698674917221,
    -0.0005944147706031799, -0.010043010115623474, -0.0653785914182663, 0.07344099134206772,
    0.03429652005434036, 0.06474482268095016, -0.06529554724693298, 0.053197331726551056,
    0.061032749712467194, -0.059866227209568024, 0.04186166077852249, 0.014012515544891357,
    -0.08085610717535019, -0.09686160087585449, -0.0907539501786232, -0.08593505620956421,
    0.04122655838727951, -0.023788347840309143, 0.04671169072389603, -0.052204884588718414,
    -0.0719323381781578, -0.010628178715705872, 0.07850699871778488, 0.04168403893709183,
    -0.01548168808221817, 0.017644762992858887, -0.02375192940235138, -0.02826918661594391,
    -0.06531400978565216, 0.05689903348684311, 0.09490396827459335, -0.08489464968442917,
    -0.01786801964044571, 0.019062146544456482, -0.03797714784741402, 0.09048362821340561,
    0.01581452041864395, -0.03807830810546875, -0.04145092889666557, 0.005265451967716217,
    -0.0018805949948728085, -0.05363364890217781, -0.1038113683462143, 0.08298066258430481,
    0.04537353664636612, -0.0046755289658904076, -0.09745015949010849, 0.0977916568517685,
    0.06009914353489876, 0.05971482768654823, -0.05938837677240372, -0.06978914886713028,
    0.029878836125135422, -0.07272720336914062, -0.10251957178115845, -0.05572573095560074,
    -0.08484337478876114, -0.016199249774217606, 0.013437940739095211, 0.05487007275223732,
    0.0011247373186051846, -0.010799596086144447, 0.0898362398147583, 0.059354834258556366,
    -0.03464256972074509, -0.10093505680561066, -0.02030196785926819, 0.069700226187706,
    -0.07632055133581161, 0.05141516774892807, -0.09122180193662643, 0.07197614759206772,
    -0.02283625304698944, 0.006769567262381315, -0.07113746553659439, -0.06180746853351593,
    -0.04837736114859581, -0.07440339028835297, 0.031317733228206635, -0.07129497826099396,
    -0.0362621434032917, -0.09408718347549438, 0.02054704912006855, 0.010565415024757385,
    0.08572272956371307, 0.07209131866693497, -0.05067094415426254, -0.09785480052232742,
    0.0790453627705574, 0.08586649596691132, -0.03210669755935669, -0.04517339915037155,
    0.09463804215192795, -0.027156900614500046, 0.012882187962532043, -0.051774442195892334,
    0.06451476365327835, 0.055762968957424164, 0.047222040593624115, 0.03688419610261917,
    -0.05860701948404312, -0.03963896259665489, -0.05657241493463516, -0.055006541311740875,
    0.07647223025560379, 0.06808287650346756, -0.08648208528757095, -0.0012066513299942017,
    0.02428261935710907, 0.09317471832036972, 0.03303208202123642, 0.09696299582719803,
    0.052514053881168365, -0.03429563343524933, 0.03893627971410751, -0.04828384146094322,
    0.05484359711408615, 0.02819807082414627, -0.014774762094020844, 0.0252973809838295,
    -0.08542044460773468, 0.08123227208852768, -0.09487242996692657, -0.08066459000110626,
    -0.08396271616220474, -0.09690173715353012, -0.06553194671869278, -0.07805392891168594,
    0.0672990158200264, -0.07912353426218033, 0.040496401488780975, 0.006364122033119202,
    -0.03369375318288803, 0.09104789048433304, -0.09279374033212662, -0.032901130616664886,
    -0.016096435487270355, -0.02901788055896759, 0.09902169555425644, -0.08992575854063034,
    -0.011690936982631683, -0.0013790130615234375, -0.026183679699897766, 0.05623470991849899,
    -0.035374321043491364, 0.0693405494093895, 0.07392231374979019, 0.08450954407453537,
    -0.006812795996665955, 0.0690724179148674, 0.05817636102437973, 0.01728999614715576,
    0.03326144069433212, 0.06317659467458725, 0.013675332069396973, 0.03995922952890396,
    0.0035751312971115112, 0.05297204107046127, -0.007231459021568298, 0.0759405866265297,
    0.09619498997926712, 0.0009035021066665649, -0.0157545804977417, -0.025237224996089935,
    0.08967063575983047, 0.05010571330785751, 0.056130267679691315, 0.0660872831940651,
    -0.014526508748531342, 0.08836016803979874, -0.041628386825323105, -0.08364930003881454,
    0.011979624629020691, 0.08291987329721451, 0.06225592643022537, -0.012205362319946289,
    0.08363085240125656, 0.01693837344646454, -0.05654193088412285, -0.06501622498035431,
    -0.06274506449699402, -0.08151213079690933, -0.009877286851406097, 0.0055610984563827515,
    0.06739408522844315, 0.06338951736688614, -0.09906484186649323, 0.042936213314533234,
    -0.06941652297973633, 0.06415586918592453, 0.024929501116275787, -0.09810815006494522,
    -0.01515786349773407, -0.06299147009849548, 0.05589229613542557, 0.022728919982910156,
    0.057302482426166534, 0.09907235950231552, -0.0699043720960617, -0.06235722452402115,
    0.08951974660158157, 0.0534515455365181, 0.057842470705509186, 0.09521722048521042,
    0.054538048803806305, 0.06992466002702713, -0.07834009826183319, -0.04278996214270592,
    -0.0012117475271224976, -0.03825750574469566, 0.08850080519914627, -0.03892413526773453,
    0.08800222724676132, 0.033156849443912506, -0.07723822444677353, -0.00677412748336792,
    0.051262639462947845, 0.087393619120121, 0.039757438004016876, 0.007828019559383392,
    -0.038964178413152695, -0.0466313362121582, 0.027913473546504974, 0.09414155036211014,
    -0.060161590576171875, -0.06536655128002167, 0.034927405416965485, -0.04826953634619713,
    0.006086669862270355, 0.014299288392066956, -0.09032601118087769, -0.0672253966331482,
    -0.03812443092465401, 0.06383097916841507, 0.028806082904338837, 0.05488314479589462,
    0.0874830111861229, 0.04017125815153122, 0.014695465564727783, -0.08506035059690475,
    0.06487756967544556, -0.015735959634184837, 0.04470076039433479, -0.0056023383513092995,
    -0.09535661339759827, -0.03563056141138077, 0.040134940296411514, 0.07530981302261353,
    0.04170789197087288, 0.024565352126955986, 0.04171869531273842, 0.011873466894030571,
    -0.009025149047374725, -0.06729958206415176, 0.09246201068162918, -0.06367521733045578,
    0.07872987538576126, 0.11028136312961578, 0.044139564037323, 0.035541780292987823,
    -0.07572933286428452, -0.09327949583530426, -0.025789620354771614, 0.040079548954963684,
    0.07495797425508499, 0.046639423817396164, -0.0017863815883174539, -0.0032980593387037516,
    0.02802887000143528, -0.05300195515155792, -0.09527432173490524, 0.010585901327431202,
    -0.04771517217159271, -0.08493020385503769, -0.04655330255627632, -0.07121122628450394,
    0.000161208285135217, 0.053660355508327484, 0.0461137518286705, 0.01394854485988617,
    -0.00016482564387843013, -0.016994677484035492, 0.07340829074382782, 0.06518562883138657,
    -0.058112360537052155, 0.09670288115739822, 0.09037068486213684, -0.12093225121498108,
    -0.04195129871368408, 0.08741142600774765, -0.05957840755581856, 0.08366943150758743,
    0.07632499188184738, 0.07958508282899857, -0.05146108940243721, -0.03408093750476837,
    -0.035322561860084534, -0.015957437455654144, -0.0940922275185585, 0.020427152514457703,
    0.03676003962755203, -0.0915168896317482, 0.0613911971449852, 0.07402817159891129,
    0.00009995698928833008, 0.08120626956224442, -0.08954411000013351, 0.032325632870197296,
    0.060285620391368866, 0.052204109728336334, 0.0850491002202034, -0.06122305616736412,
    0.05957237631082535, -0.09318097680807114, 0.05407948046922684, -0.018159985542297363,
    -0.01486293226480484, -0.06394682079553604, 0.010417662560939789, -0.05586512014269829,
    -0.08344942331314087, -0.020707443356513977, 0.023561440408229828, 0.00967947393655777,
    0.009251341223716736, -0.015309572219848633, -0.007432699203491211, -0.04684628173708916,
    0.09446143358945847, -0.05362534523010254, 0.01355210691690445, 0.09279973059892654,
    -0.06916310638189316, 0.08839917927980423, 0.05582685023546219, 0.06986219435930252,
    -0.0825938805937767, 0.09971647709608078, 0.011637046933174133, -0.05982527881860733,
    0.09699486941099167, 0.03560056537389755, -0.04333975538611412, -0.00793079286813736,
    0.01998114585876465, 0.09339971095323563, 0.09542746096849442, 0.0262485072016716,
    -0.06880179792642593, 0.04130540043115616, -0.06076619774103165, -0.015108071267604828,
    -0.0728597491979599, 0.025538988411426544, -0.08708880096673965, -0.025075778365135193,
    -0.06499071419239044, 0.04695672541856766, -0.006872020661830902, -0.09089559316635132,
    0.03575921803712845, -0.04035825654864311, 0.07493311911821365, 0.014877259731292725,
    -0.01877753436565399, 0.029461048543453217, -0.08533648401498795, -0.049163736402988434,
    -0.02682671695947647, -0.0008504167199134827, 0.03806585818529129, -0.0786326676607132,
    -0.09023395925760269, 0.02353879064321518, 0.010860003530979156, -0.0531061552464962,
    -0.08815105259418488, 0.033157579600811005, -0.04144112020730972, 0.07045047730207443,
    -0.09154639393091202, -0.001572631299495697, -0.08740385621786118, 0.027248434722423553,
    0.04085367172956467, 0.07162126153707504, -0.025914624333381653, -0.08536559343338013,
    -0.06048215553164482, -0.0552324540913105, 0.06825985759496689, 0.024141468107700348,
    0.06863317638635635, 0.004009798169136047, 0.09622778743505478, 0.04413733631372452,
    -0.047333456575870514, -0.049928274005651474, -0.013912580907344818, 0.06005338579416275,
    0.025325752794742584, 0.015784159302711487, 0.058372609317302704, -0.0013256818056106567,
    0.05330631881952286, -0.09308915585279465, -0.08830936253070831, 0.06792653352022171,
    -0.010831214487552643, 0.053789593279361725, 0.09244183450937271, -0.05307489633560181,
    0.0024738088250160217, 0.03279048949480057, -0.08480348438024521, 0.015011325478553772,
    -0.0641063004732132, -0.02042458951473236, -0.032774463295936584, -0.061939943581819534,
    -0.07913967221975327, -0.09946288168430328, -0.02660791575908661, -0.03617320954799652,
    -0.08513660728931427, -0.0475849024951458, 0.003947935998439789, 0.08691094070672989,
    -0.08252056688070297, -0.018894948065280914, -0.011852458119392395, 0.041708387434482574,
    0.015050843358039856, -0.09250664710998535, -0.08112281560897827, 0.07753319293260574,
    -0.0217311829328537, -0.08668931573629379, -0.06579184532165527, 0.021190181374549866,
    -0.021374337375164032, 0.08801037073135376, 0.028555825352668762, 0.002115023322403431,
    0.032654862850904465, -0.07045707106590271, 0.032936204224824905, -0.04816897585988045,
    -0.08888460695743561, 0.03740758076310158, 0.07155892252922058, -0.05792204663157463,
    0.07085072994232178, 0.027563689276576042, 0.021070629358291626, 0.06543123722076416,
    0.09376353770494461, -0.07050644606351852, 0.11525288224220276, 0.09573198109865189,
    -0.09620413184165955, 0.053737055510282516, 0.03365633636713028, -0.021224714815616608,
    0.053190749138593674, 0.09876300394535065, 0.08393007516860962, -0.09639264643192291,
    -0.07950308918952942, 0.028903987258672714, -0.05093240737915039, 0.08209190517663956,
    -0.08909213542938232, 0.032460521906614304, 0.0022321492433547974, -0.008218638598918915,
    0.06442322582006454, 0.07179880887269974, 0.022006914019584656, 0.06108824163675308,
    0.08562159538269043, -0.02166881412267685, -0.030379537492990494, 0.03255157917737961,
    -0.0818188264966011, 0.07130873948335648, -0.03216724097728729, 0.08268681168556213,
    -0.02268882840871811, -0.07411787658929825, 0.01823955774307251, -0.03427473083138466,
    0.04551910609006882, 0.03238388150930405, 0.08037952333688736, -0.030503049492836,
    -0.023954257369041443, 0.07239455729722977, 0.03617488592863083, 0.03514375537633896,
    -0.03271404653787613, 0.07784385234117508, -0.04783313348889351, 0.0200720876455307,
    -0.04706341028213501, -0.06527458131313324, 0.02952437847852707, 0.050069160759449005,
    -0.08614996820688248, 0.0076661258935928345, -0.0867384672164917, 0.08301375061273575,
    0.0015769228339195251, -0.002498425543308258, 0.06417819112539291, 0.024997517466545105,
    0.04552648216485977, 0.08663930743932724, -0.07187303155660629, -0.09777217358350754,
    0.05792664736509323, -0.05896627902984619, 0.02472534030675888, 0.07087566703557968,
    0.04248920828104019, -0.0607219822704792, -0.03205336630344391, -0.05705852434039116,
    0.022089704871177673, 0.0027094483375549316, 0.00422283262014389, 0.058654554188251495,
    -0.03663136810064316, 0.08856583386659622, -0.08498074114322662, -0.023427627980709076,
    0.08368853479623795, -0.09732178598642349, -0.04583929851651192, -0.06490522623062134,
    0.05221863463521004, -0.010596743784844875, 0.013195201754570007, -0.003477109596133232,
    0.054509472101926804, 0.017508279532194138, -0.008600643835961819, -0.057281531393527985,
    -0.09700065106153488, 0.05753840133547783, 0.07385751605033875, -0.0179111510515213,
    -0.052160050719976425, 0.06127068027853966, 0.05837039649486542, -0.08121555298566818,
    0.006232268642634153, 0.0025209421291947365, -0.06177930906414986, 0.06603243947029114,
    -0.06466860324144363, -0.009165630675852299, -0.074330173432827, 0.01716083101928234,
    0.08372166007757187, -0.013669800013303757, -0.08107324689626694, -0.02633368782699108,
    -0.02625088021159172, -0.05037011206150055, -0.0495976023375988, 0.09234825521707535,
    -0.014840994030237198, -0.09143270552158356, 0.013516739010810852, -0.0020655784755945206,
    0.1089177057147026, -0.08872617781162262, 0.03837227076292038, -0.02796097844839096,
    -0.008595398627221584, -0.09131212532520294, -0.02113129384815693, 0.09189366549253464,
    -0.07479998469352722, -0.0794597715139389, -0.08203119784593582, -0.006932621356099844,
    0.02083442360162735, -0.0354493223130703, 0.08825076371431351, 0.1027139350771904,
    0.023367643356323242, -0.010681808926165104, -0.03169207274913788, 0.048667214810848236,
    0.0006645098328590393, -0.013135530054569244, 0.09946953505277634, -0.03585876524448395,
    0.05320090800523758, 0.047599829733371735, 0.006096459925174713, -0.055968787521123886,
    -0.096224844455719, -0.010769166052341461, -0.06650467216968536, 0.022733174264431,
    -0.021284736692905426, 0.01824653148651123, -0.07703616470098495, 0.09812097996473312,
    -0.0027505531907081604, 0.09318285435438156, -0.06543562561273575, 0.0034143105149269104,
    -0.020986810326576233, -0.05940062925219536, 0.09699001163244247, 0.01522044837474823,
    0.032798342406749725, 0.04976499825716019, 0.07280705124139786, -0.0732078105211258,
    -0.06835336983203888, 0.06942404061555862, 0.08593418449163437, 0.02930886298418045,
    0.056993596255779266, -0.09847445785999298, 0.06738682836294174, 0.045682795345783234,
    -0.057897090911865234, 0.02391791343688965, -0.014239311218261719, -0.03846292570233345,
    -0.010629847645759583, -0.013559922575950623, -0.0835811048746109, 0.043271757662296295,
    -0.0803758054971695, 0.00929930154234171, -0.03258853405714035, -0.03545287251472473,
    -0.02116217091679573, 0.017529990524053574, 0.049479130655527115, 0.04792239889502525,
    0.020353510975837708, -0.044361479580402374, -0.06641677021980286, -0.018477827310562134,
    -0.01258588582277298, 0.07216159254312515, 0.05320896953344345, -0.07042552530765533,
    0.05035337060689926, -0.035781070590019226, 0.0468255877494812, 0.030671443790197372,
    -0.03733726590871811, 0.06305050849914551, -0.013766853138804436, 0.01843394711613655,
    -0.0382082499563694, 0.03439679369330406, -0.07673420011997223, -0.03054763190448284,
    -0.050893593579530716, -0.09474974125623703, -0.09266109764575958, -0.07448102533817291,
    -0.0029460580553859472, -0.04864341393113136, -0.01985175907611847, -0.07304009050130844,
    0.036815937608480453, 0.09757379442453384, 0.06795942038297653, -0.06153145059943199,
    -0.0263189859688282, 0.015636347234249115, 0.07506377249956131, -0.02626238763332367,
    0.021860867738723755, -0.09730463474988937, 0.03765435889363289, -0.08546178787946701,
    0.055029578506946564, -0.08624152094125748, -0.06379325687885284, 0.00545373884961009,
    -0.05950652435421944, -0.08458471298217773, 0.033407069742679596, 0.0023553743958473206,
    -0.08901222795248032, 0.03655656427145004, 0.0033450722694396973, 0.07296619564294815,
    -0.033004164695739746, -0.008292123675346375, 0.09948093444108963, 0.02187274396419525,
    0.024910926818847656, 0.00017167627811431885, -0.07601956278085709, -0.08034735918045044,
    -0.08545591682195663, -0.0014595240354537964, 0.054065220057964325, 0.039316870272159576,
    0.0805080458521843, -0.08301645517349243, -0.05099449306726456, -0.05320267751812935,
    0.08656585961580276, 0.07869725674390793, 0.028871484100818634, -0.05003061518073082,
    -0.008540704846382141, -0.006360486149787903, -0.09186714887619019, 0.03843281418085098,
    -0.0375317819416523, 0.06819979101419449, 0.06097885221242905, -0.08628320693969727,
    0.0468955859541893, 0.0892433449625969, 0.020357348024845123, -0.09073567390441895,
    0.007984757423400879, 0.0018444433808326721, -0.08404604345560074, 0.027197591960430145,
    -0.030319228768348694, 0.09398216754198074, -0.05385242775082588, -0.07826540619134903,
    -0.05088374391198158, -0.021643659099936485, -0.0614594928920269, 0.003349584061652422,
    0.000959700089879334, 0.018617890775203705, 0.07132596522569656, 0.09130790084600449,
    0.037403058260679245, 0.023640016093850136, 0.10432828217744827, 0.05154578015208244,
    0.10538538545370102, -0.04770538583397865, -0.09501393139362335, -0.0226578488945961,
    -0.05755691975355148, -0.031357526779174805, 0.08244576305150986, 0.01114867627620697,
    0.010895289480686188, 0.0767664834856987, 0.036304451525211334, -0.04690469428896904,
    -0.034996964037418365, -0.033454522490501404, 0.09721309691667557, 0.03841768950223923,
    -0.09063732624053955, 0.015511691570281982, 0.03327702730894089, 0.04008876532316208,
    0.08688076585531235, -0.08123638480901718, 0.04252208024263382, 0.03607352823019028,
    0.00364184589125216, 0.07577129453420639, 0.0990724191069603, 0.03199852257966995,
    -0.0736425369977951, -0.07646181434392929, 0.007363185286521912, 0.03339999169111252,
    -0.04541720077395439, 0.012185528874397278, 0.04070175066590309, 0.015523992478847504,
    -0.06970987468957901, -0.018569588661193848, 0.08849800378084183, 0.02700827829539776,
    0.046468041837215424, -0.08835109323263168, 0.09705593436956406, 0.05093158036470413,
    -0.0337725505232811, -0.05334141477942467, -0.035376787185668945, 0.0925002172589302,
    -0.08037407696247101, 0.051087506115436554, -0.08073718845844269, 0.054897136986255646,
    -0.02926846593618393, -0.050215791910886765, -0.048116303980350494, -0.049707867205142975,
    0.005781807005405426, -0.060337770730257034, 0.0644703283905983, -0.05054168775677681,
    0.0519004687666893, -0.02234712988138199, 0.034055761992931366, 0.02260822057723999,
    -0.006387852132320404, -0.07457540184259415, -0.03475587069988251, 0.014815889298915863,
    -0.0164918452501297, 0.0964708998799324, -0.06811666488647461, -0.009296812117099762,
    0.026100285351276398, -0.056481100618839264, -0.055655159056186676, 0.09865307062864304,
    -0.08178665488958359, 0.09976623207330704, 0.02474723756313324, 0.024801887571811676,
    0.02198512852191925, -0.03828709200024605, 0.04471052438020706, -0.031052090227603912,
    0.07454235106706619, -0.037471093237400055, -0.0010713711380958557, -0.045542217791080475,
    -0.008005484938621521, 0.07831132411956787, 0.08597222715616226, -0.047316133975982666,
    0.011570987291634083, -0.06006268411874771, 0.03832675516605377, 0.027211425825953484,
    0.07188835740089417, 0.018713602796196938, -0.04085133597254753, -0.08651968091726303,
    0.09913383424282074, 0.009448849596083164, -0.04876983165740967, -0.008616711013019085,
    0.028110221028327942, -0.08087577670812607, 0.12004861980676651, 0.08269967883825302,
    0.07922634482383728, 0.04042593762278557, -0.0025550599675625563, -0.06123371422290802,
    -0.005025193095207214, -0.12167375534772873, -0.05817722901701927, 0.0985499769449234,
    -0.04941535368561745, -0.10681027919054031, 0.00608847476541996, -0.03773220255970955,
    0.04565230756998062, -0.03805521875619888, 0.05101770907640457, 0.009178560227155685,
    0.07542257010936737, -0.042628027498722076, -0.07198778539896011, -0.023640021681785583,
    0.05346663296222687, -0.01787940412759781, 0.0812416821718216, 0.03029843419790268,
    0.0043740421533584595, -0.06457994133234024, -0.09273591637611389, -0.09546675533056259,
    0.07685626298189163, -0.10168972611427307, 0.07334446161985397, -0.055382680147886276,
    0.07411397248506546, -0.058901868760585785, 0.04844292253255844, 0.03222549706697464,
    0.07753411680459976, 0.0808081403374672, -0.07924642413854599, 0.08246869593858719,
    -0.059281207621097565, -0.06002160534262657, -0.04638475179672241, 0.05093003064393997,
    0.08658988028764725, -0.004576936364173889, 0.007276132702827454, -0.031115278601646423,
    0.016637064516544342, -0.0031013041734695435, -0.03525666147470474, 0.018678143620491028,
    -0.0966496616601944, -0.09290450811386108, 0.03234922140836716, -0.07212816178798676,
    0.08349891752004623, -0.08446457237005234, 0.04022238403558731, -0.05625519901514053,
    -0.024115897715091705, 0.0028403401374816895, -0.005337774753570557, 0.03891915827989578,
    -0.08645397424697876, 0.07729264348745346, -0.029876649379730225, 0.006237290799617767,
    0.09445566684007645, -0.056475427001714706, -0.024939119815826416, 0.04517931491136551,
    -0.06848855316638947, -0.021421492099761963, 0.09096608310937881, -0.05761450529098511,
    0.01944337785243988, -0.045295633375644684, -0.08803802728652954, -0.016908392310142517,
    0.07003757357597351, 0.00957960169762373, -0.07544433325529099, -0.048114657402038574,
    0.010105463676154613, 0.017856726422905922, 0.050368521362543106, 0.018551530316472054,
    0.04044019803404808, 0.02770731784403324, 0.046867188066244125, 0.020998744294047356,
    0.051569413393735886, -0.05717642605304718, 0.007332924287766218, 0.0030955036636441946,
    -0.10042055696249008, 0.013183003291487694, 0.08187851309776306, 0.08184734731912613,
    -0.05866479501128197, -0.045457225292921066, -0.07351557910442352, -0.08837751299142838,
    0.0735795870423317, -0.048806771636009216, -0.060846149921417236, -0.04326344281435013,
    0.04302939027547836, 0.01665828377008438, 0.014424046501517296, -0.0434451587498188,
    0.06884479522705078, -0.0442664735019207, -0.024393580853939056, -0.10408687591552734,
    0.05615504831075668, 0.0486038401722908, -0.08062716573476791, 0.011823989450931549,
    0.045186638832092285, -0.09851934015750885, 0.039949577301740646, -0.09674238413572311,
    0.020876098424196243, 0.08242430537939072, 0.00048587232595309615, -0.04004600644111633,
    0.0027404427528381348, 0.010569078847765923, -0.05127238109707832, 0.017220310866832733,
    -0.014116719365119934, 0.013345649465918541, -0.06152520328760147, 0.024622760713100433,
    -0.09685640782117844, 0.07669898122549057, -0.041626181453466415, -0.022418059408664703,
    0.06790829449892044, -0.06984959542751312, 0.057291917502880096, -0.003058113157749176,
    0.05638178437948227, 0.09409149736166, -0.04306553676724434, 0.002454720437526703,
    0.09437847882509232, -0.04196291044354439, -0.03609146177768707, 0.08323448151350021,
    -0.0649958997964859, -0.02798430621623993, -0.06505569815635681, -0.047072816640138626,
    -0.007754527032375336, -0.041772451251745224, -0.07802049070596695, 0.06055813282728195,
    -0.0732903927564621, 0.0380319282412529, -0.08026836812496185, -0.015748821198940277,
    0.028134070336818695, 0.0887986347079277, -0.032947614789009094, -0.06291230022907257,
    -0.059156037867069244, -0.08769365400075912, -0.00455300509929657, 0.054719217121601105,
    0.018261171877384186, 0.09909728914499283, 0.094420425593853, -0.061316218227148056,
    0.08475077897310257, 0.08272526413202286, -0.04201066493988037, 0.06889503449201584,
    0.09018068015575409, 0.07325014472007751, 0.04260664060711861, 0.06074288859963417,
    -0.0653335303068161, -0.02836376614868641, 0.10512842237949371, -0.03153442218899727,
    -0.024062586948275566, -0.01247373130172491, 0.032304394990205765, -0.08181164413690567,
    -0.0720038190484047, -0.059435829520225525, -0.0009875388350337744, 0.0784546285867691,
    -0.06217183917760849, 0.06882258504629135, 0.07959416508674622, -0.07413239032030106,
    0.05243508145213127, 0.05424439534544945, -0.0027511052321642637, -0.009578020311892033,
    -0.04301043599843979, -0.06933525949716568, 0.004243658389896154, -0.021406712010502815,
    -0.040142469108104706, -0.03528418019413948, -0.07959935069084167, 0.07272980362176895,
    -0.012264148332178593, -0.10045784711837769, 0.06497276574373245, 0.027525203302502632,
    0.06665996462106705, -0.04224877431988716, 0.029148288071155548, 0.07803843170404434,
    0.02476022019982338, 0.04468517750501633, -0.05779464170336723, 0.06297177821397781,
    0.027457408607006073, 0.05262968689203262, -0.032935064285993576, 0.03411107137799263,
    -0.03716576099395752, -0.10372568666934967, -0.027164682745933533, -0.10279837250709534,
    0.01313769817352295, 0.059068236500024796, -0.002194926142692566, -0.011713303625583649,
    0.0889236256480217, 0.04156918078660965, 0.08679229766130447, -0.017399407923221588,
    -0.054403580725193024, 0.018990755081176758, 0.0012562721967697144, 0.09401843696832657,
    -0.01328732818365097, -0.03378911316394806, 0.0958903506398201, 0.07261992245912552,
    0.004509329795837402, 0.01737227290868759, -0.03155473619699478, 0.07479967921972275,
    -0.022411204874515533, 0.09991047531366348, -0.09905042499303818, 0.04405052214860916,
    -0.08893728256225586, -0.030666746199131012, 0.0995086058974266, -0.08716011047363281,
    0.06075822561979294, -0.07130898535251617, 0.030721329152584076, 0.02551902085542679,
    0.0353645458817482, -0.03120999038219452, -0.04405759647488594, -0.04714460298418999,
    -0.055230893194675446, -0.08815950155258179, -0.01923365890979767, 0.050617463886737823,
    -0.04892338439822197, -0.01220656931400299, -0.05051279067993164, -0.07333295047283173,
    -0.0758153647184372, 0.04648099094629288, 0.004183515906333923, 0.05408323556184769,
    -0.09506554156541824, -0.06464816629886627, -0.08410805463790894, -0.04865986108779907,
    0.10033076256513596, 0.010996399447321892, 0.0008023770060390234, 0.017488352954387665,
    -0.011741084046661854, -0.03984098136425018, -0.07130766659975052, -0.01887916401028633,
    -0.0890989825129509, 0.028084957972168922, 0.01963687129318714, -0.07919172942638397,
    0.08170868456363678, -0.09090849757194519, -0.054821863770484924, 0.04262230917811394,
    0.06952925771474838, 0.0462786965072155, -0.013055575080215931, 0.02268015779554844,
    -0.05238840728998184, -0.10036278516054153, 0.008646599017083645, -0.10570243746042252,
    0.06396465003490448, -0.086166150867939, 0.007544024381786585, -0.027367860078811646,
    -0.05322537571191788, 0.04880182445049286, 0.09310809522867203, -0.10071224719285965,
    0.07199453562498093, 0.05650938302278519, -0.061936523765325546, -0.0023009926080703735,
    -0.03645185008645058, -0.045467209070920944, 0.04048209637403488, 0.0967993214726448,
    0.08510463684797287, -0.07969983667135239, -0.01656186580657959, -0.04751067981123924,
    0.05682749301195145, -0.04930466413497925, -0.07623889297246933, -0.03971375152468681,
    -0.04779242351651192, 0.09314762055873871, 0.05947696417570114, 0.0840468481183052,
    -0.06202329322695732, 0.019531145691871643, 0.04236934334039688, 0.08614567667245865,
    -0.00841115415096283, -0.01933889091014862, 0.010059915482997894, -0.006732665002346039,
    0.0545511469244957, 0.054241932928562164, 0.037884898483753204, -0.06212989240884781,
    -0.06175290420651436, 0.0678287073969841, -0.04765806347131729, -0.016571737825870514,
    -0.06288377195596695, 0.04972361773252487, 0.00788716971874237, -0.06633631885051727,
    -0.09156166762113571, -0.06576714664697647, -0.027484610676765442, -0.0317075252532959,
    0.05000918358564377, 0.01951541006565094, 0.004174038767814636, -0.0980445072054863,
    -0.08965926617383957, 0.0067832693457603455, -0.010313555598258972, -0.09107118844985962,
